{"feature_names": ["fixed acidity", "volatile acidity", "citric acid", "residual sugar", "chlorides", "free sulfur dioxide", "total sulfur dioxide", "density", "pH", "sulphates", "alcohol"], "scaler": {"mean": [6.863827304550761, 0.27923424737456226, 0.3333051341890293, 6.419311551925315, 0.04563681446907852, 35.25554259043174, 138.198512252042, 0.9940530046674405, 3.1892823803967296, 0.4893290548424764, 10.50999319331003], "scale": [0.8474401335657354, 0.10157807479894226, 0.12047292654222934, 5.1466102169848025, 0.021628660609186504, 16.817601567659974, 41.97881981931537, 0.0030346322579600515, 0.1497651162307427, 0.11343200332146071, 1.229438549176109]}, "logistic_regression": {"coef": [-0.057288399089053164, -0.6659830267351774, -0.0013139835409536746, 0.6167723243738347, 0.04648255609725867, 0.1943818744942855, -0.05487761829622352, -0.4327026289448921, 0.13186119738553984, 0.185406894127186, 1.1211423216781002], "intercept": 0.893750296179162, "best_params": {"solver": "saga", "penalty": "l1", "max_iter": 2000, "C": 1}}, "neural_network": {"weights": [[[-0.08352099064792622, 0.2292575128409353, -0.17184975638037633, 0.03073373557129092, -0.4516803549794034, -0.3853408124337115, -0.14215504843730034, 0.47636888696989277, 0.10502379606692415, 0.07741012555596001, -0.5022222119652321, 0.21569626853273935, 0.34278255994713924, -0.00902081446350611, -0.09960470364694636, -0.09365714033326124, -0.058371796031116974, 0.146139413954399, -0.1790170668144915, -0.1130502344983233, 0.04912026098050355, -0.42762401397725797, -0.10944645531984853, -0.04218488549805546, -0.34938294098604356, 0.1263086508170789, -0.5513856165913852, -0.19989723270725604, 0.2574024195533117, -0.1436711378283343, -0.06226233121531945, 0.1865724451356786, -0.1767518590274107, 0.25011046570777845, 0.08009960573691072, 0.14004652045352192, 0.28421105573559297, -0.3733585740825196, 0.14163877362694272, -0.13928310624847734, -0.4995667419248184, 0.20578072206720227, -0.5471485553020571, 0.17863117004171805, -0.26800665214911734, 0.007714455959672628, -0.2675774609836454, -0.07356819166051297, -0.11343269226173239, 0.13002880090920896, 0.3069768799778841, 0.26566616757532907, 0.0967357923223161, 0.17016213898084412, -0.19392444516090093, 0.06712198242527298, -0.31414223472054414, -0.18535253438651006, -0.2526950852912074, -0.06852299265221438, 0.05856154959913113, -0.37433947757110675, -0.0019192055087666401, 0.08052483444221287], [-0.049720542177847965, -0.10429301410473611, -0.27619734620364017, 0.3320609686675771, 0.047490389695711975, 0.47932874772860945, 0.07274726810500456, -0.39860141693477397, -0.6078469894386317, 0.4668873204830774, -0.08726361417191993, -0.04644795393613379, 0.3237767100330938, -0.45482931551475075, 0.17784517073738515, 0.11315143310260782, 0.4409483248686866, -0.10990561714568016, 0.053913031503444654, -0.11506564010813827, -0.591639333053704, -0.00043494762374224203, 0.46074797850574606, 0.1451393588988494, 0.25157165425620354, -0.23721583396647797, -0.23119766995022656, 0.11847337914815151, 0.19228191626525337, 0.05660085330728716, 0.1287157611184281, -0.19322215530813452, -0.009162860150987079, -0.21852948764301805, -0.5056470074460818, -0.01498533481875676, -0.8253018774133289, -0.12699591967166773, -0.03450083038377855, -0.03316993546150227, -0.07111511451571739, -0.17833268657174992, 0.07757637676638214, 0.0860609045837858, -0.052846421713892776, -0.47552028254532275, 0.01951845231817658, -0.6969242446057545, 0.6651156592273549, 0.2915301687529122, 0.3345328168555704, 0.6103712916213055, 0.06908680037205514, 0.0058250008532603256, 0.18427357558929722, 0.39367021914846323, 0.21684182534323915, 0.14354583468651247, 0.008015437154039752, -0.1709119776948433, -0.15339780086662844, 0.08770056054269515, 0.134956230005626, 0.21010058668304885], [-0.6985498592003877, 0.012187092295984574, -0.02532632405158166, -0.29503822398865626, 0.016430024623039764, -0.097809269676352, 0.16006607577853807, -0.15591741758407568, 0.0408634917429169, 0.0857592693503801, -0.2857375386939688, 0.07752375345192412, 0.12309924684667914, 0.024739418149927882, 0.11135384782594301, 0.034326325466820275, -0.006083877724291429, -0.3686896875907636, 0.2851399926535175, -0.04638839330339002, 0.08929576673392238, -0.26073223922849087, 0.34108459631169896, -0.3947906160057475, -0.13571660697908908, -0.06608182590445329, 0.68560971316479, -0.08296438545434436, 0.09470906859444746, 0.05903995120933379, -0.3691435658526497, 0.014268628160951688, 0.0883645185905372, 0.14728259730521, 0.025319574277326697, 0.3376058871196179, -0.009582899735727941, 0.2533235488521385, 0.08307621635324373, -0.5005530848536665, -0.4008272057898611, 0.09628860057225026, 0.28108485537212224, -0.24173981930291707, 0.09702688204359772, 0.01886793959589086, -0.0011037199472506525, 0.12588603179489352, 0.47831439939209563, 0.1104462625354064, 0.03144994085638331, -0.40879689720126117, -0.022460157935492588, -0.22386515058966033, 0.2972412778723808, 0.29023728390608977, -0.09897666754535821, -0.15959541301218247, 0.2107249057419738, -0.06218958824378112, -0.20493988537055602, -0.5431864349624468, -0.45554241297757864, 0.07908123394236041], [0.15070775833006375, 0.11409107499482309, -0.3706735412281966, -0.04866381000320979, 0.08006892056971195, 0.22083882449991282, 0.12425385726961101, 0.5616438919325212, -0.4839650031116139, -0.12428439380935463, -0.10682896132916525, -0.04437008879992556, -0.07495867142523442, -0.083447102660486, -0.41109184872076243, 0.039876615045268925, -0.2218662118243088, -0.1404065367972484, 0.2065622358088265, 0.02596729705109239, 0.051781809156068635, -0.05579508620011872, -0.3802196531597133, -0.06181552610564037, -0.20027066937519827, 0.17011709343199088, 0.26000365239543066, 0.18886896970425476, -0.15079894446045838, -0.007982392344977074, -0.17747194469861702, 0.029775922933384585, -0.1297911458322599, -0.3825742605716164, -0.04358311938502361, 0.01533418574299106, 0.2245963904253721, 0.32884003888347435, 0.14443769842847431, 0.004900954938364432, 0.3815301975786529, -0.21195804643246438, -0.01907884901772006, 0.167329664594432, -0.2561690487852222, -0.043035416806527726, 0.32643045339207954, -0.056612930768701636, 0.18435290610147714, 0.1658467726766632, 0.17559532473470268, -0.18722806019831323, -0.030710117143428743, 0.22034455063909297, -0.17537959137391043, 0.3786114992142834, 0.2270109542949441, 0.12627895957239624, 0.1035427464237556, -0.2112154218084277, 0.2709556258427433, -0.10155012842063672, -0.3213972555792511, 0.2590990108609533], [0.27876092134878333, 0.04328502297693161, -0.1784725726682656, -0.2421158038922002, 0.13049895698138428, 0.2998726754209313, -0.5282921433400087, 0.1622624310647277, 0.39589707012316855, 0.4174668921233695, 0.2089281036111252, 0.09838715577000219, -0.49571667602161223, -0.11890287723673881, 0.10612143025881389, 0.2128793081531954, 0.26987374355237376, 0.4586042912102465, 0.01836768098962762, -0.033260466651021954, 0.12600544425159674, -0.13493213581845173, 0.007890210295522811, 0.38876962530084275, 0.04658286791618769, -0.07720582869090803, -0.14608111794765063, -0.2862677539479802, 0.053694509661403385, -0.2982752163230521, 0.00644290386232342, 0.09777956719000665, -0.15520469582688354, -0.049478192086763316, 0.005450843498706406, -0.4024707284383162, 0.07369047371024427, -0.4399472532748078, -0.43409434058377955, -0.03970571966994067, 0.11098227083951467, -0.17741908560756697, 0.14117295525930573, -0.2824912810895608, -0.3102972961314833, 0.07530580861513195, -0.08589435442690636, 0.11012744985464243, 0.03610338379476565, 0.33627521802739935, -0.07419867985987745, 0.07307169001599874, 0.20763039336572056, -0.23471826463736156, 0.0987127216435939, -0.23751830608546606, -0.08788147952962484, 0.4244096912598665, 0.05338266756860149, 0.04396864420753903, 0.07441940180681507, -0.4678900467640645, -0.6885301379343162, 0.02845317496490483], [0.3211158583169598, 0.016510787958088073, -0.09390322043327969, 0.012841448713796352, 0.46816034267242207, 0.08825530013229416, -0.13039795348321162, -0.28093894424556404, -0.3008527533298844, -0.2071069472060223, -0.5557497740769989, -0.11385227517160766, -0.23047529904108607, 0.10823823284920649, -0.706744628068032, -0.3578425647798104, -0.01724508765827427, 0.059976299345634775, -0.1485993780384288, 0.10714908762846577, -0.13040425757949745, -0.04214899380067347, -0.5282779736955888, 0.1346941199215185, -0.25766477117192027, 0.23555422880885066, 0.11171252351946778, -0.10297807852090683, -0.08046749864608858, 0.09099751143327142, 0.11174230352943888, 0.36818644706960085, 0.06719931112738645, -0.27659071186986167, -0.06062637788574389, 0.22411015066977097, -0.2684557044807689, 0.19447204355539346, 0.1897400022351313, 0.15215880846724175, -0.040836388208565215, 0.3229056875675095, 0.009556208465201669, 0.17135180297596972, 0.2692665284015105, -0.0031458834222633705, 0.2757955607604329, 0.20477713787010632, -0.31695997236588364, -0.3579678516223507, -0.5076781973191159, -0.11579896764432572, -0.313431568486587, 0.10393327253974725, -0.20733438219895228, -0.10443081622253836, 0.30235379087050396, -0.28747479114970365, 0.3309589854316546, -0.6344837967894968, -0.2885428716018648, 0.002209728500304499, 0.19734768939599473, 0.3201540091139414], [-0.34968697659748116, 0.03858757361779519, -0.7260302924084588, -0.052878006007075, 0.25518819667710496, 0.14795532856005675, 0.3129664905922778, 0.2711882403590683, 0.059962593040681564, 0.13512276560327557, -0.26470825381017227, 0.2673911537656473, 0.22115206195021614, -0.05671143995876799, 0.19095798306539652, 0.27273003410395635, -0.015351247904691875, 0.17673172147525373, 0.009501013979877862, 0.1465609035899233, -0.16503231494267448, 0.22461831858640088, -0.1350872100808734, -0.06465865080359592, 0.11124945849135648, -0.34821874214839343, -0.25738362089859146, 0.37326815956825854, 0.38737840183559435, -0.05522177653364152, 0.46462760999310904, -0.1035785504888562, -0.3755202745978257, -0.1818563485733351, 0.14278546057592878, 0.302892888821348, -0.005168391747004371, 0.06683268216083263, -0.28993674243573503, -0.03136109872148156, -0.3308041572398346, 0.42125544875705845, -0.2698613425048213, -0.09351797217685028, -0.04126209857340261, -0.201281885772489, -0.35526399916889667, -0.08373485643333459, -0.5125814999058406, -0.2764428044315235, -0.43362333295846633, 0.3119533613307274, -0.31487302635872777, 0.22472285383425672, 0.15228463651060486, -0.16493734487848544, -0.3873906543728515, 0.21712906796297995, 0.12899881727556167, -0.351771475613218, 0.02710438374159087, 0.16500603321460472, 0.08378794811272197, 0.3761729076038496], [0.0375959223809639, -0.3337816555659574, -0.0860641630844852, 0.07541027020818429, -0.11231472630108369, 0.06745873636722324, -0.2714670143125431, 0.1106995220157664, -0.06134472800420754, 0.03663290258069538, -0.32072470423293187, -0.22231781314872973, -0.2346539002816959, -0.1518479247189614, 0.15770101110520165, -0.03555026453162541, 0.010364478752902594, 0.05188381195968525, -0.04463626751443926, 0.15291192091027572, -0.07738935444987848, 0.21606928749541124, -0.15795853730135653, 0.21297673380832233, 0.006177927050207114, 0.2837454036401098, -0.05286760590487309, 0.24178193841362347, -0.23559534329655524, -0.07622452319556228, 0.5398076452342495, -0.2307341526568013, -0.11486874076863428, 0.2408178236707664, 0.014602121716791575, 0.14420059952930311, -0.038354717034941206, 0.3788692435032618, -0.24978044927644658, -0.4662307183805181, 0.1924407741045321, 0.009479285546423433, 0.05960336628461536, 0.17891694291940216, -0.06767696940124535, -0.19120235851648304, -0.24160085156491906, -0.06852294509549593, -0.15604810719653586, -0.0037268896493536183, 0.14944402610258709, -0.1104097955956235, -0.10902126716751924, -0.09675006083698195, -0.1897815604412686, 0.3351934113606214, -0.020487735349436202, -0.3739846353996956, 0.09157058476965967, 0.3272716487528965, 0.5037695214023699, 0.18409314103398658, 0.1595620375214384, 0.0029788371639465406], [0.2568002858614895, 0.15666130720409818, -0.2851767944710903, -0.34406063706755646, 0.1588246995168999, 0.16605066938600258, 0.2319262165295557, -0.2963665749950262, 0.2548855166414523, -0.3113023253925519, 0.15909689147200534, 0.07189644553131377, 0.35484966727059686, -0.0924896395499589, 0.3088181954445524, -0.0326987657698955, -0.5026492316396534, 0.19656395038879101, 0.2536211184528158, 0.33534352198359846, -0.07872678859384082, -0.2207223256398609, 0.5434439995793884, -0.008117070569890587, 0.16880721777814062, -0.26895285549858633, 0.07897620537697193, -0.07976295282090547, 0.5146480263587524, 0.045460683257387356, -0.3191086280025867, 0.08830759474798343, 0.28200281877244315, 0.24226841980995967, -0.1504469168740101, -0.16186282051455012, 0.0769460393103414, 0.017667729105917147, 0.1077156398922743, 0.2375258052799155, -0.23239587563534755, 0.07187240676368808, 0.41028183375847077, -0.15452815314114077, -0.27041890513035066, -0.4344343500047778, -0.06544451413609018, -0.13524618450663883, 0.1316129148509992, -0.07713520034503761, -0.11624972890694316, -0.43465571613017734, 0.2595217808612066, 0.26967611682756754, -0.3750813046721749, 0.12086096594370677, 0.005320703454440243, -0.5381517530976297, 0.20286667869894967, 0.15443379293565382, -0.1165621313017017, 0.3305022655124701, 0.20467829784959699, 0.2672068294442814], [0.04892678070308817, 0.09100293348315586, 0.12187641874336765, 0.04388143858910239, 0.30047318669771295, 0.3790128865559817, 0.14006858766556204, -0.41134720788441886, -0.09134258489715696, 0.10708725853541749, -0.27102789776300396, -0.21471047424789017, -0.10085482963082108, -0.13157778838826836, -0.20170056921772658, 0.1654737345958309, 0.06249985200933797, -0.2232898054976668, 0.2567286404237942, 0.0032877729778126607, 0.06812439235228426, -0.29222167934931764, -0.2127388880371062, 0.14812781738523445, -0.29095761419946425, -0.02854188030372562, -0.4144220178804044, -0.3965215939269691, -0.23396297599269533, 0.088300459855006, -0.40325745524844425, -0.22520855162098768, 0.00542930781243598, -0.03132473699259518, -0.03152720296003887, 0.3244973785960468, 0.10569372581451389, -0.5223598817232142, 0.06943852009492324, 0.32910390549355295, -0.15867860826984798, -0.2042217578396639, 0.27757318992652463, 0.39540017862456445, -0.2530190006939928, -0.06636038588457617, -0.002042174102331192, 0.0006413042786955726, -0.15589592907590152, -0.01726450534802181, 0.03881340706405562, 0.15382134798598465, -0.3231989359894953, -0.101605272658148, 0.05203377909307324, 0.31313620767189704, -0.16214081925767537, 0.04942135712994556, -0.0007766120597349585, 0.4240723169883628, 0.2231369671855864, -0.46910417624347966, -0.679196183453165, -0.10394281684906168], [-0.08429006793288603, 0.05354008396975852, 0.1537263732301935, -0.22783087911204924, -0.037845790848312647, -0.19228851708685407, 0.10984975180081959, -0.0013084618886063163, 0.03715735727902819, 0.16613775140729306, -0.33871566475923726, 0.0623449276874027, -0.13463183712085833, 0.044950321331783234, 0.13868844344091394, -0.28132894270987013, -0.35426286888026937, -0.12226522920116821, 0.05573097287513776, 0.02710847462135379, -0.20382432521811913, 0.05736154585975861, 0.24888183992606483, -0.29480046013283545, -0.3726599646078393, -0.16572418222658727, -0.24501909225874152, -0.07115811727754678, -0.005880980795062412, -0.027337207430404274, -0.27543505748991653, 0.3034132937932351, -0.5432259735804174, 0.20472499549499107, 0.09613610242684138, 0.17331761159313905, 0.03458909751916319, 0.10413197588850953, 0.05913178243085001, 0.42145993988171326, -0.22720955864135964, -0.3158852349645631, -0.3233781423179232, 0.0975865499368201, 0.2672135202540323, -0.03711307147757842, 0.12231121376553353, -0.036639704148400995, 0.16024419427438202, -0.23462607881031747, -0.19319348344681733, -0.24377191112277638, 0.10532014197232135, -0.14678691362689217, -0.29559606392110443, 0.01572801424589667, 0.24764891937879138, 0.028757981949349955, -0.3816361607200774, -0.004665464759698502, -0.2664979950128992, -0.09041156171889997, -0.14588699009063644, -0.046493526328576756]], [[-0.7289237521958312], [0.2991875218263955], [-0.7918174784415964], [0.5091970119747521], [-0.6514544058656337], [-0.6149429294476031], [0.5867553955135071], [-0.8871053482022419], [-0.8360568572224374], [0.7465050609981011], [0.7627450719830507], [0.37489935892761794], [0.6837502514396018], [0.3801858108253056], [-0.9819857444952307], [-0.48940008599873236], [-0.5972936391625329], [0.6015075177606677], [0.55097725310304], [0.35989665880986765], [0.5715988256069559], [0.6525029659073854], [-1.1772409421549406], [0.5235082206928031], [-0.5675190284904528], [0.5826308361188117], [-1.0783838203870393], [0.5294342583453883], [0.7303520477926545], [0.26580318733126573], [1.1693743759384874], [0.5737091098678125], [0.6943852863116651], [-0.5666400333658003], [0.42063983090014995], [0.5795714645948646], [0.9087516250422607], [0.771031006672565], [0.46921417278805755], [0.791146776212581], [-0.7100244453587716], [-0.6537411498387203], [0.7861442174912463], [0.5570169032636625], [-0.6237120681648878], [0.547114280697618], [0.6204284975478014], [0.5406174721168064], [0.8638652753890375], [-0.6146523283680775], [-0.6811863643976459], [-0.7633750617591192], [0.48759947142809884], [-0.49071715523926684], [-0.5487909811526], [-0.6342405208421183], [0.6219987882008069], [0.8376508209329349], [-0.4810722895808609], [-0.893461134246845], [0.7859770752890761], [-0.7576664717847406], [-0.9010220127647336], [-0.428053709366748]]], "biases": [[-0.031161175974215024, 0.24283056749615506, -0.024450102851944485, 0.16418832022357388, -0.30107420088081693, -0.22063340192064376, 0.1450454644763447, 0.21672038357338566, -0.14494880525350062, -0.21132439694899469, 0.029376525850791348, 0.48017581573374474, 0.35824561843513514, 0.45398113815230007, -0.5411829157249232, 0.24590145435614572, 0.2394038431335652, -0.0365398320609343, -0.09198264724038513, 0.32131979342367695, -0.08256240780508449, 0.4974341122329032, -0.719865492263034, 0.38283079716603696, 0.12091610005027802, -0.3815181428493261, -0.27229115807141285, 0.5038536364814541, 0.3588377275302046, 0.1715535824458137, -0.708674871105811, 0.30341139482714174, 0.0685990447981625, 0.21747175266967206, -0.04579065460445367, 0.00889045700343305, -0.20987601203725187, 0.025849743118615962, 0.37685318689530645, 0.019631162966972322, 0.060940507517997324, 0.5141863633642044, 0.021872916816656842, 0.27048205165280353, 0.4972640654660692, 0.17855988960886032, 0.08195279258598594, 0.167192782067183, 0.37138792961479256, -0.28606094681586364, -0.22452192469334295, 0.11235090136925517, 0.13407457465648215, 0.04831642691431877, 0.30327406846427163, 0.020376506856927726, 0.11428572130270115, -0.20033387676989375, -0.2201738661629528, -0.32401588894539113, -0.5400274517635753, 0.005247246993173918, -0.043523783647811, 0.2271188483190817], [-0.15745361466144062]], "activation": "relu", "n_layers": 2, "best_params": {"max_iter": 2000, "learning_rate_init": 0.001, "hidden_layer_sizes": [64], "alpha": 0.1, "activation": "relu"}}, "test_data": {"X_test": [[6.0, 0.29, 0.41, 10.8, 0.048, 55.0, 149.0, 0.9937, 3.09, 0.59, 10.9666666666667], [5.4, 0.53, 0.16, 2.7, 0.036, 34.0, 128.0, 0.98856, 3.2, 0.53, 13.2], [7.1, 0.25, 0.39, 2.1, 0.036, 30.0, 124.0, 0.9908, 3.28, 0.43, 12.2], [7.3, 0.28, 0.35, 1.6, 0.054, 31.0, 148.0, 0.99178, 3.18, 0.47, 10.7], [6.5, 0.32, 0.34, 5.7, 0.044, 27.0, 91.0, 0.99184, 3.28, 0.6, 12.0], [6.3, 0.3, 0.91, 8.2, 0.034, 50.0, 199.0, 0.99394, 3.39, 0.49, 11.7], [7.0, 0.36, 0.14, 11.6, 0.043, 35.0, 228.0, 0.9977, 3.13, 0.51, 8.9], [7.6, 0.26, 0.36, 1.6, 0.032, 6.0, 106.0, 0.993, 3.15, 0.4, 10.4], [8.3, 0.18, 0.3, 1.1, 0.033, 20.0, 57.0, 0.99109, 3.02, 0.51, 11.0], [8.7, 0.31, 0.73, 14.35, 0.044, 27.0, 191.0, 1.00013, 2.96, 0.88, 8.7], [6.4, 0.14, 0.31, 1.2, 0.034, 53.0, 138.0, 0.99084, 3.38, 0.35, 11.5], [6.7, 0.54, 0.28, 5.4, 0.06, 21.0, 105.0, 0.9949, 3.27, 0.37, 9.0], [6.3, 0.12, 0.36, 2.1, 0.044, 47.0, 146.0, 0.9914, 3.27, 0.74, 11.4], [7.6, 0.28, 0.39, 1.9, 0.052, 23.0, 116.0, 0.9941, 3.25, 0.4, 10.4], [5.9, 0.22, 0.45, 22.6, 0.12, 55.0, 122.0, 0.99636, 3.1, 0.35, 12.8], [6.4, 0.27, 0.45, 8.3, 0.05, 52.0, 196.0, 0.9955, 3.18, 0.48, 9.5], [5.2, 0.285, 0.29, 5.15, 0.035, 64.0, 138.0, 0.9895, 3.19, 0.34, 12.4], [5.5, 0.12, 0.33, 1.0, 0.038, 23.0, 131.0, 0.99164, 3.25, 0.45, 9.8], [7.7, 0.27, 0.34, 1.8, 0.028, 26.0, 168.0, 0.9911, 2.99, 0.48, 12.1], [6.7, 0.26, 0.29, 7.1, 0.036, 28.0, 100.0, 0.99534, 3.08, 0.36, 9.3], [5.9, 0.24, 0.26, 12.3, 0.053, 34.0, 134.0, 0.9972, 3.34, 0.45, 9.5], [7.4, 0.18, 0.24, 1.4, 0.047, 21.0, 106.0, 0.99383, 3.52, 0.64, 10.5], [6.9, 0.37, 0.23, 9.5, 0.057, 54.0, 166.0, 0.99568, 3.23, 0.42, 10.0], [7.6, 0.13, 0.34, 9.3, 0.062, 40.0, 126.0, 0.9966, 3.21, 0.39, 9.6], [5.9, 0.27, 0.29, 11.4, 0.036, 31.0, 115.0, 0.9949, 3.35, 0.48, 10.5], [7.6, 0.29, 0.29, 4.4, 0.051, 26.0, 146.0, 0.9939, 3.16, 0.39, 10.2], [6.8, 0.35, 0.53, 10.1, 0.053, 37.0, 151.0, 0.9963, 3.07, 0.4, 9.4], [5.1, 0.35, 0.26, 6.8, 0.034, 36.0, 120.0, 0.99188, 3.38, 0.4, 11.5], [8.7, 0.23, 0.32, 13.4, 0.044, 35.0, 169.0, 0.99975, 3.12, 0.47, 8.8], [8.1, 0.33, 0.22, 5.2, 0.047, 24.0, 151.0, 0.99527, 3.22, 0.47, 10.3], [6.8, 0.26, 0.24, 7.8, 0.052, 54.0, 214.0, 0.9961, 3.13, 0.47, 8.9], [7.4, 0.27, 0.26, 11.8, 0.053, 55.0, 173.0, 0.99699, 3.11, 0.6, 9.8], [7.1, 0.25, 0.32, 10.3, 0.041, 66.0, 272.0, 0.9969, 3.17, 0.52, 9.1], [7.2, 0.27, 0.27, 2.4, 0.048, 30.0, 149.0, 0.9936, 3.1, 0.51, 9.2], [7.4, 0.24, 0.31, 8.4, 0.045, 52.0, 183.0, 0.9963, 3.09, 0.32, 8.8], [6.1, 0.32, 0.24, 1.5, 0.036, 38.0, 124.0, 0.9898, 3.29, 0.42, 12.4], [7.1, 0.23, 0.39, 1.6, 0.032, 12.0, 65.0, 0.9898, 3.25, 0.4, 12.7], [6.6, 0.39, 0.38, 9.7, 0.053, 49.0, 226.0, 0.99787, 3.3, 0.57, 9.4], [7.6, 0.31, 0.29, 10.5, 0.04, 21.0, 145.0, 0.9966, 3.04, 0.35, 9.4], [6.0, 0.17, 0.49, 1.0, 0.034, 26.0, 106.0, 0.992, 3.21, 0.42, 9.8], [6.0, 0.29, 0.21, 15.55, 0.043, 20.0, 142.0, 0.99658, 3.11, 0.54, 10.1], [6.9, 0.38, 0.29, 13.65, 0.048, 52.0, 189.0, 0.99784, 3.0, 0.6, 9.5], [6.9, 0.3, 0.45, 1.4, 0.039, 36.0, 122.0, 0.99059, 3.07, 0.47, 11.1], [5.2, 0.28, 0.29, 1.1, 0.028, 18.0, 69.0, 0.99168, 3.24, 0.54, 10.0], [6.3, 0.39, 0.24, 6.9, 0.069, 9.0, 117.0, 0.9942, 3.15, 0.35, 10.2], [7.0, 0.16, 0.26, 6.85, 0.047, 30.0, 220.0, 0.99622, 3.38, 0.58, 10.1], [7.0, 0.27, 0.74, 1.3, 0.173, 34.0, 121.0, 0.99334, 3.04, 0.46, 9.2], [5.9, 0.29, 0.25, 12.0, 0.057, 48.0, 224.0, 0.9981, 3.23, 0.41, 9.0], [6.4, 0.24, 0.26, 8.2, 0.054, 47.0, 182.0, 0.99538, 3.12, 0.5, 9.5], [7.4, 0.33, 0.26, 15.6, 0.049, 67.0, 210.0, 0.99907, 3.06, 0.68, 9.5], [7.2, 0.4, 0.49, 1.1, 0.048, 11.0, 138.0, 0.9929, 3.01, 0.42, 9.3], [7.9, 0.16, 0.74, 17.85, 0.037, 52.0, 187.0, 0.9998, 2.99, 0.41, 9.3], [6.0, 0.22, 0.23, 5.0, 0.045, 10.0, 122.0, 0.99261, 2.94, 0.63, 10.0], [6.9, 0.19, 0.39, 8.0, 0.028, 22.0, 84.0, 0.994, 3.11, 0.66, 10.8], [7.5, 0.19, 0.49, 1.6, 0.047, 42.0, 140.0, 0.9932, 3.4, 0.47, 10.7], [7.8, 0.3, 0.4, 1.8, 0.028, 23.0, 122.0, 0.9914, 3.14, 0.39, 10.9], [6.4, 0.17, 0.32, 2.4, 0.048, 41.0, 200.0, 0.9938, 3.5, 0.5, 9.7], [6.1, 0.24, 0.3, 1.5, 0.045, 22.0, 61.0, 0.992, 3.31, 0.54, 10.4], [7.0, 0.18, 0.37, 1.5, 0.043, 16.0, 104.0, 0.99216, 3.18, 0.5, 10.8], [7.2, 0.23, 0.39, 14.2, 0.058, 49.0, 192.0, 0.9979, 2.98, 0.48, 9.0], [7.9, 0.12, 0.49, 5.2, 0.049, 33.0, 152.0, 0.9952, 3.18, 0.47, 10.6], [6.2, 0.16, 0.32, 1.1, 0.036, 74.0, 184.0, 0.99096, 3.22, 0.41, 11.0], [6.3, 0.3, 0.34, 1.6, 0.049, 14.0, 132.0, 0.994, 3.3, 0.49, 9.5], [6.1, 0.24, 0.26, 1.7, 0.033, 61.0, 134.0, 0.9903, 3.19, 0.81, 11.9], [6.7, 0.18, 0.19, 4.7, 0.046, 57.0, 161.0, 0.9946, 3.32, 0.66, 10.5], [7.3, 0.19, 0.25, 1.4, 0.051, 41.0, 107.0, 0.99382, 3.53, 0.66, 10.5], [6.0, 0.16, 0.37, 1.5, 0.025, 43.0, 117.0, 0.9928, 3.46, 0.51, 9.7], [8.3, 0.25, 0.49, 16.8, 0.048, 50.0, 228.0, 1.0001, 3.03, 0.52, 9.2], [7.2, 0.17, 0.34, 6.4, 0.042, 16.0, 111.0, 0.99278, 2.99, 0.4, 10.8], [7.6, 0.2, 0.26, 4.5, 0.086, 37.0, 133.0, 0.9963, 3.15, 0.42, 9.2], [8.3, 0.39, 0.7, 10.6, 0.045, 33.0, 169.0, 0.9976, 3.09, 0.57, 9.4], [6.2, 0.28, 0.27, 10.3, 0.03, 26.0, 108.0, 0.99388, 3.2, 0.36, 10.7], [7.1, 0.53, 0.24, 0.8, 0.029, 29.0, 86.0, 0.993, 3.16, 0.32, 9.1], [7.6, 0.67, 0.14, 1.5, 0.074, 25.0, 168.0, 0.9937, 3.05, 0.51, 9.3], [7.7, 0.25, 0.3, 7.8, 0.038, 67.0, 196.0, 0.99555, 3.1, 0.5, 10.1], [6.9, 0.19, 0.35, 13.5, 0.038, 49.0, 118.0, 0.99546, 3.0, 0.63, 10.7], [7.6, 0.16, 0.44, 1.4, 0.043, 25.0, 109.0, 0.9932, 3.11, 0.75, 10.3], [6.6, 0.25, 0.3, 1.6, 0.046, 32.0, 134.0, 0.993, 3.42, 0.51, 10.1], [5.0, 0.3, 0.33, 3.7, 0.03, 54.0, 173.0, 0.9887, 3.36, 0.3, 13.0], [7.4, 0.19, 0.49, 9.3, 0.03, 26.0, 132.0, 0.994, 2.99, 0.32, 11.0], [7.1, 0.34, 0.86, 1.4, 0.174, 36.0, 99.0, 0.99288, 2.92, 0.5, 9.3], [6.2, 0.2, 0.49, 1.6, 0.065, 17.0, 143.0, 0.9937, 3.22, 0.52, 9.2], [6.9, 0.22, 0.32, 5.8, 0.041, 20.0, 119.0, 0.99296, 3.17, 0.55, 11.2], [7.9, 0.42, 0.49, 8.2, 0.056, 32.0, 164.0, 0.9965, 3.29, 0.6, 11.2], [7.0, 0.3, 0.49, 4.7, 0.036, 17.0, 105.0, 0.9916, 3.26, 0.68, 12.4], [7.7, 0.27, 0.35, 5.3, 0.03, 30.0, 117.0, 0.992, 3.11, 0.42, 12.2], [6.4, 0.32, 0.26, 7.9, 0.05, 53.0, 180.0, 0.99514, 3.14, 0.5, 9.6], [6.3, 0.23, 0.21, 5.1, 0.035, 29.0, 142.0, 0.9942, 3.36, 0.33, 10.1], [6.1, 0.17, 0.42, 15.1, 0.033, 28.0, 124.0, 0.99684, 2.87, 0.47, 9.5], [7.5, 0.23, 0.49, 7.7, 0.049, 61.0, 209.0, 0.9941, 3.14, 0.3, 11.1], [6.4, 0.105, 0.29, 1.1, 0.035, 44.0, 140.0, 0.99142, 3.17, 0.55, 10.7], [8.0, 0.55, 0.42, 12.6, 0.211, 37.0, 213.0, 0.9988, 2.99, 0.56, 9.3], [6.7, 0.25, 0.33, 2.9, 0.057, 52.0, 173.0, 0.9934, 3.02, 0.48, 9.5], [5.7, 0.18, 0.26, 2.2, 0.023, 21.0, 95.0, 0.9893, 3.07, 0.54, 12.3], [5.5, 0.15, 0.32, 14.0, 0.031, 16.0, 99.0, 0.99437, 3.26, 0.38, 11.5], [7.3, 0.25, 0.41, 1.8, 0.037, 52.0, 165.0, 0.9911, 3.29, 0.39, 12.2], [7.9, 0.35, 0.28, 12.9, 0.032, 13.0, 63.0, 0.9932, 2.99, 0.43, 13.0], [6.1, 0.27, 0.28, 9.8, 0.042, 61.0, 125.0, 0.99532, 3.14, 0.42, 10.2], [6.8, 0.46, 0.26, 6.3, 0.147, 49.0, 159.0, 0.99434, 3.14, 0.47, 10.0], [6.4, 0.22, 0.34, 1.4, 0.023, 56.0, 115.0, 0.98958, 3.18, 0.7, 11.7], [6.8, 0.27, 0.37, 8.2, 0.055, 52.0, 192.0, 0.99586, 3.11, 0.52, 9.5], [6.7, 0.14, 0.46, 1.6, 0.036, 15.0, 92.0, 0.99264, 3.37, 0.49, 10.9], [7.0, 0.31, 0.31, 9.1, 0.036, 45.0, 140.0, 0.99216, 2.98, 0.31, 12.0], [6.8, 0.28, 0.6, 1.1, 0.132, 42.0, 127.0, 0.9934, 3.09, 0.44, 9.1], [6.4, 0.24, 0.49, 5.8, 0.053, 25.0, 120.0, 0.9942, 3.01, 0.98, 10.5], [6.8, 0.25, 0.3, 11.8, 0.043, 53.0, 133.0, 0.99524, 3.03, 0.58, 10.4], [7.2, 0.23, 0.39, 14.2, 0.058, 49.0, 192.0, 0.9979, 2.98, 0.48, 9.0], [6.1, 0.16, 0.34, 6.1, 0.034, 31.0, 114.0, 0.99365, 3.32, 0.58, 10.15], [5.5, 0.12, 0.33, 1.0, 0.038, 23.0, 131.0, 0.99164, 3.25, 0.45, 9.8], [5.0, 0.35, 0.25, 7.8, 0.031, 24.0, 116.0, 0.99241, 3.39, 0.4, 11.3], [8.1, 0.2, 0.4, 2.0, 0.037, 19.0, 87.0, 0.9921, 3.12, 0.54, 11.2], [9.2, 0.25, 0.34, 1.2, 0.026, 31.0, 93.0, 0.9916, 2.93, 0.37, 11.3], [5.9, 0.2, 0.23, 1.5, 0.037, 38.0, 93.0, 0.99021, 3.36, 0.49, 12.0], [7.4, 0.25, 0.37, 13.5, 0.06, 52.0, 192.0, 0.9975, 3.0, 0.44, 9.1], [7.5, 0.24, 0.62, 10.6, 0.045, 51.0, 153.0, 0.99779, 3.16, 0.44, 8.8], [6.1, 0.33, 0.3, 3.0, 0.036, 30.0, 124.0, 0.98922, 3.31, 0.4, 13.1], [6.6, 0.33, 0.4, 2.65, 0.041, 35.0, 86.0, 0.98916, 3.11, 0.39, 13.3], [7.3, 0.23, 0.24, 0.9, 0.031, 29.0, 86.0, 0.98926, 2.9, 0.38, 12.2], [6.0, 0.29, 0.2, 12.6, 0.045, 45.0, 187.0, 0.9972, 3.33, 0.42, 9.5], [7.3, 0.19, 0.27, 13.9, 0.057, 45.0, 155.0, 0.99807, 2.94, 0.41, 8.8], [6.5, 0.38, 0.34, 3.4, 0.036, 34.0, 200.0, 0.9937, 3.14, 0.76, 10.0], [6.1, 0.21, 0.3, 6.3, 0.039, 47.0, 136.0, 0.99068, 3.27, 0.31, 12.7], [6.2, 0.12, 0.34, 1.5, 0.045, 43.0, 117.0, 0.9939, 3.42, 0.51, 9.0], [6.5, 0.29, 0.52, 7.9, 0.049, 35.0, 192.0, 0.99551, 3.16, 0.51, 9.5], [5.7, 0.265, 0.28, 6.9, 0.036, 46.0, 150.0, 0.99299, 3.36, 0.44, 10.8], [7.0, 0.2, 0.33, 4.7, 0.03, 25.0, 76.0, 0.99202, 2.88, 0.54, 10.5], [6.3, 0.34, 0.31, 6.0, 0.02, 18.0, 68.0, 0.98981, 3.22, 0.29, 13.4], [7.7, 0.28, 0.24, 2.4, 0.044, 29.0, 157.0, 0.99312, 3.27, 0.56, 10.6], [6.4, 0.1, 0.35, 4.9, 0.048, 31.0, 103.0, 0.9947, 3.43, 0.79, 9.7], [6.2, 0.25, 0.38, 7.9, 0.045, 54.0, 208.0, 0.99572, 3.17, 0.46, 9.1], [6.2, 0.23, 0.38, 1.6, 0.044, 12.0, 113.0, 0.99176, 3.3, 0.73, 11.4], [6.9, 0.2, 0.5, 10.0, 0.036, 78.0, 167.0, 0.9964, 3.15, 0.55, 10.2], [7.1, 0.3, 0.36, 6.8, 0.055, 44.5, 234.0, 0.9972, 3.49, 0.64, 10.2], [6.5, 0.22, 0.31, 3.9, 0.046, 17.0, 106.0, 0.99098, 3.15, 0.31, 11.5], [7.3, 0.34, 0.21, 3.2, 0.05, 14.0, 136.0, 0.9936, 3.25, 0.44, 10.2], [7.0, 0.24, 0.3, 12.3, 0.035, 72.0, 172.0, 0.9954, 2.99, 0.57, 10.4], [7.5, 0.19, 0.4, 7.1, 0.056, 50.0, 110.0, 0.9954, 3.06, 0.52, 9.9], [7.6, 0.34, 0.39, 7.6, 0.04, 45.0, 215.0, 0.9965, 3.11, 0.53, 9.2], [7.4, 0.26, 0.32, 3.7, 0.032, 29.0, 193.0, 0.99134, 3.1, 0.67, 12.5], [6.6, 0.32, 0.36, 8.0, 0.047, 57.0, 168.0, 0.9949, 3.15, 0.46, 9.6], [5.8, 0.28, 0.34, 2.2, 0.037, 24.0, 125.0, 0.98986, 3.36, 0.33, 12.8], [6.2, 0.23, 0.36, 17.2, 0.039, 37.0, 130.0, 0.99946, 3.23, 0.43, 8.8], [7.0, 0.55, 0.05, 8.0, 0.036, 19.0, 164.0, 0.99269, 3.26, 0.46, 12.2], [6.4, 0.25, 0.32, 5.5, 0.049, 41.0, 176.0, 0.995, 3.19, 0.68, 9.2], [6.7, 0.24, 0.36, 8.4, 0.042, 42.0, 123.0, 0.99473, 3.34, 0.52, 10.9], [7.4, 0.35, 0.31, 17.95, 0.062, 42.0, 187.0, 1.0002, 3.27, 0.64, 9.1], [6.9, 0.41, 0.33, 10.1, 0.043, 28.0, 152.0, 0.9968, 3.2, 0.52, 9.4], [6.5, 0.29, 0.26, 7.0, 0.04, 18.0, 113.0, 0.99366, 3.17, 0.38, 10.2], [6.2, 0.27, 0.32, 8.8, 0.047, 65.0, 224.0, 0.9961, 3.17, 0.47, 8.9], [6.9, 0.25, 0.47, 8.4, 0.042, 36.0, 156.0, 0.99604, 3.15, 0.55, 9.4], [6.1, 0.16, 0.29, 6.0, 0.03, 29.0, 144.0, 0.99474, 3.68, 0.46, 10.7], [7.4, 0.21, 0.27, 1.2, 0.041, 27.0, 99.0, 0.9927, 3.19, 0.33, 9.8], [5.2, 0.16, 0.34, 0.8, 0.029, 26.0, 77.0, 0.99155, 3.25, 0.51, 10.1], [6.0, 0.16, 0.3, 6.7, 0.043, 43.0, 153.0, 0.9951, 3.63, 0.46, 10.6], [6.5, 0.3, 0.32, 2.0, 0.044, 34.0, 90.0, 0.99185, 3.37, 0.68, 11.0], [7.8, 0.445, 0.56, 1.0, 0.04, 8.0, 84.0, 0.9938, 3.25, 0.43, 10.8], [5.7, 0.21, 0.32, 1.6, 0.03, 33.0, 122.0, 0.99044, 3.33, 0.52, 11.9], [8.1, 0.2, 0.28, 0.9, 0.023, 49.0, 87.0, 0.99062, 2.92, 0.36, 11.1], [6.6, 0.39, 0.28, 9.2, 0.036, 10.0, 92.0, 0.99206, 3.07, 0.35, 12.1], [6.4, 0.27, 0.32, 4.5, 0.24, 61.0, 174.0, 0.9948, 3.12, 0.48, 9.4], [6.2, 0.25, 0.48, 10.0, 0.044, 78.0, 240.0, 0.99655, 3.25, 0.47, 9.5], [6.4, 0.34, 0.44, 8.2, 0.043, 54.0, 201.0, 0.99551, 3.18, 0.48, 9.5], [6.2, 0.24, 0.27, 16.8, 0.04, 48.0, 129.0, 0.99691, 3.23, 0.38, 10.5], [6.7, 0.26, 0.39, 6.4, 0.171, 64.0, 200.0, 0.99562, 3.19, 0.38, 9.4], [6.0, 0.29, 0.41, 10.8, 0.048, 55.0, 149.0, 0.9937, 3.09, 0.59, 11.0], [6.7, 0.38, 0.26, 9.55, 0.036, 35.0, 91.0, 0.9919, 2.98, 0.37, 12.4], [6.2, 0.35, 0.03, 1.2, 0.064, 29.0, 120.0, 0.9934, 3.22, 0.54, 9.1], [7.9, 0.18, 0.37, 1.2, 0.04, 16.0, 75.0, 0.992, 3.18, 0.63, 10.8], [6.3, 0.35, 0.26, 17.6, 0.061, 59.0, 198.0, 0.99918, 3.11, 0.49, 8.8], [6.2, 0.25, 0.39, 1.3, 0.051, 42.0, 135.0, 0.9906, 3.23, 0.4, 11.1], [6.0, 0.34, 0.24, 5.4, 0.06, 23.0, 126.0, 0.9951, 3.25, 0.44, 9.0], [6.9, 0.26, 0.27, 4.2, 0.031, 20.0, 80.0, 0.99089, 3.12, 0.39, 11.5], [5.6, 0.23, 0.29, 3.1, 0.023, 19.0, 89.0, 0.99068, 3.25, 0.51, 11.2], [6.5, 0.22, 0.19, 4.5, 0.096, 16.0, 115.0, 0.9937, 3.02, 0.44, 9.6], [5.8, 0.28, 0.3, 3.9, 0.026, 36.0, 105.0, 0.98963, 3.26, 0.58, 12.75], [7.4, 0.25, 0.37, 2.6, 0.05, 24.0, 132.0, 0.99138, 3.04, 0.53, 11.2], [6.4, 0.23, 0.3, 7.1, 0.037, 63.0, 236.0, 0.9952, 3.06, 0.34, 9.2], [6.9, 0.25, 0.35, 9.2, 0.034, 42.0, 150.0, 0.9947, 3.21, 0.36, 11.5], [7.3, 0.16, 0.35, 1.5, 0.036, 29.0, 108.0, 0.99342, 3.27, 0.51, 10.2], [6.8, 0.32, 0.3, 1.0, 0.049, 22.0, 113.0, 0.99289, 3.24, 0.61, 10.2], [5.9, 0.18, 0.29, 4.6, 0.032, 68.0, 137.0, 0.99159, 3.21, 0.38, 11.3], [5.6, 0.12, 0.26, 4.3, 0.038, 18.0, 97.0, 0.99477, 3.36, 0.46, 9.2], [7.2, 0.44, 0.28, 3.4, 0.048, 22.0, 112.0, 0.99188, 3.21, 0.37, 11.3], [6.1, 0.19, 0.37, 2.6, 0.041, 24.0, 99.0, 0.99153, 3.18, 0.5, 10.9], [7.6, 0.35, 0.47, 13.3, 0.037, 42.0, 116.0, 0.99822, 3.04, 0.5, 9.2], [6.7, 0.34, 0.3, 8.5, 0.059, 24.0, 152.0, 0.99615, 3.46, 0.64, 11.0], [6.5, 0.36, 0.38, 10.2, 0.028, 20.0, 82.0, 0.99274, 3.1, 0.43, 12.1], [7.4, 0.26, 0.3, 7.9, 0.049, 38.0, 157.0, 0.9963, 3.13, 0.48, 8.9], [7.0, 0.21, 0.34, 8.5, 0.033, 31.0, 253.0, 0.9953, 3.22, 0.56, 10.5], [9.1, 0.33, 0.38, 1.7, 0.062, 50.5, 344.0, 0.9958, 3.1, 0.7, 9.5], [7.3, 0.28, 0.54, 12.9, 0.049, 62.0, 162.5, 0.9984, 3.06, 0.45, 9.1], [7.3, 0.25, 0.39, 6.4, 0.034, 8.0, 84.0, 0.9942, 3.18, 0.46, 11.5], [6.4, 0.25, 0.37, 4.5, 0.039, 41.0, 147.0, 0.9921, 3.18, 0.4, 11.1], [5.8, 0.2, 0.16, 1.4, 0.042, 44.0, 99.0, 0.98912, 3.23, 0.37, 12.2], [6.3, 0.6, 0.44, 11.0, 0.05, 50.0, 245.0, 0.9972, 3.19, 0.57, 9.3], [6.3, 0.24, 0.55, 8.1, 0.04, 67.0, 216.0, 0.99596, 3.24, 0.5, 9.2], [5.9, 0.32, 0.28, 4.7, 0.039, 34.0, 94.0, 0.98964, 3.22, 0.57, 13.1], [5.8, 0.29, 0.33, 3.7, 0.029, 30.0, 88.0, 0.98994, 3.25, 0.42, 12.3], [6.9, 0.25, 0.3, 4.1, 0.054, 23.0, 116.0, 0.994, 2.99, 0.38, 9.4], [6.8, 0.3, 0.35, 2.8, 0.038, 10.0, 164.0, 0.9912, 3.09, 0.53, 12.0], [6.6, 0.2, 0.27, 10.9, 0.038, 29.0, 130.0, 0.99496, 3.11, 0.44, 10.5], [6.8, 0.64, 0.08, 9.7, 0.062, 26.0, 142.0, 0.9972, 3.37, 0.46, 8.9], [6.6, 0.31, 0.28, 1.4, 0.035, 28.0, 107.0, 0.98836, 3.0, 0.4, 13.2], [7.3, 0.27, 0.37, 9.7, 0.042, 36.0, 130.0, 0.9979, 3.48, 0.75, 9.9], [8.4, 0.2, 0.31, 2.8, 0.054, 16.0, 89.0, 0.99416, 2.96, 0.45, 9.5], [6.6, 0.3, 0.25, 8.0, 0.036, 21.0, 124.0, 0.99362, 3.06, 0.38, 10.8], [5.4, 0.5, 0.13, 5.0, 0.028, 12.0, 107.0, 0.99079, 3.48, 0.88, 13.5], [6.0, 0.17, 0.33, 6.0, 0.036, 30.0, 111.0, 0.99362, 3.32, 0.58, 10.1333333333333], [6.5, 0.35, 0.28, 12.4, 0.051, 86.0, 213.0, 0.9962, 3.16, 0.51, 9.9], [6.7, 0.51, 0.24, 2.1, 0.043, 14.0, 155.0, 0.9904, 3.22, 0.6, 13.0], [6.6, 0.25, 0.3, 14.4, 0.052, 40.0, 183.0, 0.998, 3.02, 0.5, 9.1], [7.4, 0.36, 0.23, 1.9, 0.017, 31.0, 69.0, 0.9892, 2.93, 0.36, 12.5], [6.9, 0.23, 0.35, 6.9, 0.03, 45.0, 116.0, 0.99244, 2.8, 0.54, 11.0], [6.4, 0.4, 0.19, 3.2, 0.033, 28.0, 124.0, 0.9904, 3.22, 0.54, 12.7], [6.4, 0.68, 0.26, 3.4, 0.069, 25.0, 146.0, 0.99347, 3.18, 0.4, 9.3], [5.1, 0.14, 0.25, 0.7, 0.039, 15.0, 89.0, 0.9919, 3.22, 0.43, 9.2], [6.5, 0.18, 0.33, 8.0, 0.051, 16.0, 131.0, 0.9965, 3.28, 0.44, 8.7], [4.2, 0.215, 0.23, 5.1, 0.041, 64.0, 157.0, 0.99688, 3.42, 0.44, 8.0], [6.2, 0.16, 0.32, 1.1, 0.036, 74.0, 184.0, 0.99096, 3.22, 0.41, 11.0], [6.7, 0.24, 0.26, 5.4, 0.03, 15.0, 94.0, 0.99045, 3.15, 0.38, 12.7], [6.5, 0.23, 0.36, 16.3, 0.038, 43.0, 133.0, 0.99924, 3.26, 0.41, 8.8], [6.7, 0.25, 0.74, 19.4, 0.054, 44.0, 169.0, 1.0004, 3.51, 0.45, 9.8], [7.2, 0.22, 0.35, 5.5, 0.054, 37.0, 183.0, 0.99474, 3.08, 0.5, 10.3], [6.0, 0.24, 0.41, 1.3, 0.036, 42.0, 118.0, 0.99018, 3.04, 0.64, 11.7333333333333], [7.3, 0.24, 0.43, 2.0, 0.021, 20.0, 69.0, 0.99, 3.08, 0.56, 12.2], [7.6, 0.23, 0.4, 5.2, 0.066, 14.0, 91.0, 0.99488, 3.17, 0.8, 9.7], [7.6, 0.2, 0.39, 2.6, 0.044, 30.0, 180.0, 0.9941, 3.46, 0.44, 10.8], [6.3, 0.15, 0.3, 1.4, 0.022, 38.0, 100.0, 0.99099, 3.42, 0.57, 11.4], [7.8, 0.26, 0.31, 3.6, 0.025, 22.0, 100.0, 0.99066, 2.99, 0.47, 12.1], [6.5, 0.425, 0.4, 13.1, 0.038, 59.0, 241.0, 0.9979, 3.23, 0.57, 9.0], [7.0, 0.23, 0.33, 5.8, 0.04, 25.0, 136.0, 0.995, 3.19, 0.58, 9.5], [7.1, 0.28, 0.19, 7.8, 0.04, 48.0, 184.0, 0.99579, 3.16, 0.5, 9.4], [7.0, 0.23, 0.33, 1.0, 0.043, 46.0, 110.0, 0.99118, 3.04, 0.65, 10.8], [6.3, 0.3, 0.28, 5.0, 0.042, 36.0, 168.0, 0.99505, 3.22, 0.69, 9.5], [7.5, 0.26, 0.59, 11.8, 0.046, 58.0, 164.0, 0.99814, 3.17, 0.46, 8.9], [5.8, 0.32, 0.2, 2.6, 0.027, 17.0, 123.0, 0.98936, 3.36, 0.78, 13.9], [7.3, 0.22, 0.26, 1.5, 0.04, 32.0, 172.0, 0.99194, 3.27, 0.48, 11.2], [7.6, 0.23, 0.26, 15.3, 0.067, 32.0, 166.0, 0.9986, 3.03, 0.44, 9.2], [7.6, 0.18, 0.46, 10.2, 0.055, 58.0, 135.0, 0.9968, 3.14, 0.43, 9.9], [7.0, 0.3, 0.51, 13.6, 0.05, 40.0, 168.0, 0.9976, 3.07, 0.52, 9.6], [7.7, 0.16, 0.49, 2.0, 0.056, 20.0, 124.0, 0.9948, 3.32, 0.49, 10.7], [6.9, 0.75, 0.13, 6.3, 0.036, 19.0, 50.0, 0.99312, 3.09, 0.25, 11.1], [7.1, 0.36, 0.4, 1.95, 0.033, 26.0, 118.0, 0.98934, 3.2, 0.45, 13.5], [6.8, 0.22, 0.49, 0.9, 0.052, 26.0, 128.0, 0.991, 3.25, 0.35, 11.4], [5.6, 0.19, 0.26, 1.4, 0.03, 12.0, 76.0, 0.9905, 3.25, 0.37, 10.9], [6.8, 0.32, 0.43, 1.6, 0.05, 4.0, 65.0, 0.99346, 3.27, 0.47, 10.7], [8.4, 0.29, 0.29, 1.05, 0.032, 4.0, 55.0, 0.9908, 2.91, 0.32, 11.4], [6.9, 0.38, 0.38, 13.1, 0.112, 14.0, 94.0, 0.99792, 3.02, 0.48, 9.2], [6.5, 0.27, 0.26, 11.0, 0.03, 2.0, 82.0, 0.99402, 3.07, 0.36, 11.2], [6.2, 0.36, 0.45, 10.4, 0.06, 22.0, 184.0, 0.99711, 3.31, 0.56, 9.8], [6.3, 0.21, 0.33, 13.9, 0.046, 68.0, 179.0, 0.9971, 3.36, 0.5, 10.4], [6.9, 0.39, 0.22, 4.3, 0.03, 10.0, 102.0, 0.993, 3.0, 0.87, 11.6], [7.7, 0.34, 0.3, 8.0, 0.048, 25.0, 192.0, 0.9951, 2.97, 0.47, 10.9], [6.8, 0.25, 0.18, 1.4, 0.056, 13.0, 137.0, 0.9935, 3.11, 0.42, 9.5], [7.2, 0.21, 0.37, 1.6, 0.049, 23.0, 94.0, 0.9924, 3.16, 0.48, 10.9], [8.3, 0.3, 0.36, 10.0, 0.042, 33.0, 169.0, 0.9982, 3.23, 0.51, 9.3], [7.9, 0.3, 0.27, 8.5, 0.036, 20.0, 112.0, 0.9939, 2.96, 0.46, 11.7], [6.0, 0.28, 0.29, 19.3, 0.051, 36.0, 174.0, 0.99911, 3.14, 0.5, 9.0], [8.8, 0.39, 0.35, 1.8, 0.096, 22.0, 80.0, 0.99016, 2.95, 0.54, 12.6], [7.5, 0.2, 0.41, 1.2, 0.05, 26.0, 131.0, 0.99133, 3.19, 0.52, 11.1], [6.8, 0.26, 0.24, 1.9, 0.043, 70.0, 154.0, 0.99273, 3.18, 0.52, 10.5], [7.3, 0.51, 0.29, 11.3, 0.034, 61.0, 224.0, 0.99683, 3.14, 0.56, 9.5], [8.2, 0.21, 0.48, 1.4, 0.041, 11.0, 99.0, 0.9958, 3.17, 0.57, 9.9], [7.1, 0.55, 0.13, 1.7, 0.073, 21.0, 165.0, 0.994, 2.97, 0.58, 9.2], [5.6, 0.35, 0.4, 6.3, 0.022, 23.0, 174.0, 0.9922, 3.54, 0.5, 11.6], [7.5, 0.24, 0.29, 1.1, 0.046, 34.0, 84.0, 0.9902, 3.04, 0.39, 11.45], [7.6, 0.3, 0.22, 10.2, 0.049, 57.0, 191.0, 0.9966, 3.08, 0.4, 9.3], [6.1, 0.25, 0.48, 15.8, 0.052, 25.0, 94.0, 0.99782, 3.07, 0.45, 9.2], [8.6, 0.2, 0.42, 1.5, 0.041, 35.0, 125.0, 0.9925, 3.11, 0.49, 11.4], [7.5, 0.15, 0.38, 1.8, 0.054, 19.0, 101.0, 0.9946, 3.24, 0.44, 10.0], [6.0, 0.23, 0.15, 9.7, 0.048, 101.0, 207.0, 0.99571, 3.05, 0.3, 9.1], [7.4, 0.26, 0.31, 2.4, 0.043, 58.0, 178.0, 0.9941, 3.42, 0.68, 10.6], [7.2, 0.19, 0.46, 3.8, 0.041, 82.0, 187.0, 0.9932, 3.19, 0.6, 11.2], [6.5, 0.26, 0.31, 3.6, 0.03, 36.0, 92.0, 0.99026, 3.22, 0.62, 12.6], [7.2, 0.39, 0.63, 11.0, 0.044, 55.0, 156.0, 0.9974, 3.09, 0.44, 8.7], [5.8, 0.24, 0.26, 10.05, 0.039, 63.0, 162.0, 0.99375, 3.33, 0.5, 11.2], [5.3, 0.21, 0.29, 0.7, 0.028, 11.0, 66.0, 0.99215, 3.3, 0.4, 9.8], [6.9, 0.24, 0.35, 1.0, 0.052, 35.0, 146.0, 0.993, 3.45, 0.44, 10.0], [6.0, 0.24, 0.28, 3.95, 0.038, 61.0, 134.0, 0.99146, 3.3, 0.54, 11.3], [9.4, 0.23, 0.56, 16.45, 0.063, 52.5, 282.0, 1.00098, 3.1, 0.51, 9.3], [7.4, 0.26, 0.29, 3.7, 0.048, 14.0, 73.0, 0.9915, 3.06, 0.45, 11.4], [7.7, 0.25, 0.3, 7.8, 0.038, 67.0, 196.0, 0.99555, 3.1, 0.5, 10.1], [6.7, 0.31, 0.33, 2.0, 0.033, 12.0, 74.0, 0.99064, 3.29, 0.65, 12.5], [6.5, 0.27, 0.19, 4.2, 0.046, 6.0, 114.0, 0.9955, 3.25, 0.35, 8.6], [7.1, 0.23, 0.39, 13.7, 0.058, 26.0, 172.0, 0.99755, 2.9, 0.46, 9.0], [7.1, 0.36, 0.37, 4.8, 0.019, 39.0, 114.0, 0.99036, 3.08, 0.49, 12.7], [6.2, 0.16, 0.34, 1.7, 0.038, 85.0, 153.0, 0.9909, 3.33, 0.86, 12.0], [5.8, 0.24, 0.39, 1.5, 0.054, 37.0, 158.0, 0.9932, 3.21, 0.52, 9.3], [6.6, 0.23, 0.18, 8.5, 0.044, 59.0, 188.0, 0.99558, 3.16, 0.49, 9.5], [7.7, 0.25, 0.43, 4.5, 0.062, 20.0, 115.0, 0.9966, 3.38, 0.5, 9.9], [5.2, 0.2, 0.27, 3.2, 0.047, 16.0, 93.0, 0.99235, 3.44, 0.53, 10.1], [7.2, 0.24, 0.29, 3.0, 0.036, 17.0, 117.0, 0.99411, 3.36, 0.68, 10.1], [6.3, 0.27, 0.49, 1.2, 0.063, 35.0, 92.0, 0.9911, 3.38, 0.42, 12.2], [6.8, 0.31, 0.19, 3.5, 0.086, 30.0, 130.0, 0.993, 2.83, 0.44, 9.6], [7.3, 0.25, 0.36, 2.1, 0.034, 30.0, 177.0, 0.99085, 3.25, 0.4, 11.9], [7.6, 0.18, 0.36, 2.4, 0.049, 38.0, 123.0, 0.996, 3.6, 0.46, 10.3], [8.6, 0.27, 0.46, 6.1, 0.032, 13.0, 41.0, 0.993, 2.89, 0.34, 10.9], [7.0, 0.24, 0.25, 1.7, 0.042, 48.0, 189.0, 0.992, 3.25, 0.42, 11.4], [6.3, 0.39, 0.35, 5.9, 0.04, 82.5, 260.0, 0.9941, 3.12, 0.66, 10.1], [7.4, 0.24, 0.29, 10.1, 0.05, 21.0, 105.0, 0.9962, 3.13, 0.35, 9.5], [7.2, 0.4, 0.49, 1.1, 0.048, 11.0, 138.0, 0.9929, 3.01, 0.42, 9.3], [7.7, 0.28, 0.58, 12.1, 0.046, 60.0, 177.0, 0.9983, 3.08, 0.46, 8.9], [14.2, 0.27, 0.49, 1.1, 0.037, 33.0, 156.0, 0.992, 3.15, 0.54, 11.1], [7.6, 0.3, 0.38, 2.1, 0.043, 10.0, 98.0, 0.99296, 3.17, 0.65, 11.0], [6.0, 0.32, 0.3, 1.3, 0.025, 18.0, 112.0, 0.98802, 3.07, 0.64, 13.3], [6.4, 0.24, 0.29, 11.4, 0.051, 32.0, 166.0, 0.9968, 3.31, 0.45, 9.5], [6.6, 0.3, 0.3, 4.8, 0.17, 60.0, 166.0, 0.9946, 3.18, 0.47, 9.4], [7.6, 0.17, 0.27, 4.6, 0.05, 23.0, 98.0, 0.99422, 3.08, 0.47, 9.5], [6.2, 0.1, 0.41, 1.0, 0.04, 17.0, 76.0, 0.98988, 3.14, 0.56, 11.4], [6.0, 0.33, 0.18, 3.0, 0.036, 5.0, 85.0, 0.99125, 3.28, 0.4, 11.5], [6.8, 0.18, 0.32, 7.2, 0.047, 17.0, 109.0, 0.99498, 3.42, 0.44, 10.4], [6.7, 0.21, 0.48, 14.8, 0.05, 31.0, 195.0, 0.99942, 2.95, 0.75, 8.8], [6.9, 0.33, 0.28, 1.3, 0.051, 37.0, 187.0, 0.9927, 3.27, 0.6, 10.3], [8.4, 0.2, 0.38, 11.8, 0.055, 51.0, 170.0, 1.0004, 3.34, 0.82, 8.9], [5.5, 0.42, 0.09, 1.6, 0.019, 18.0, 68.0, 0.9906, 3.33, 0.51, 11.4], [6.6, 0.4, 0.32, 1.7, 0.035, 39.0, 84.0, 0.99096, 3.59, 0.48, 12.7], [7.0, 0.22, 0.32, 1.6, 0.045, 40.0, 120.0, 0.9914, 2.98, 0.44, 10.5], [6.6, 0.34, 0.25, 4.8, 0.038, 16.0, 121.0, 0.99198, 3.36, 0.71, 12.6], [6.8, 0.34, 0.69, 1.3, 0.058, 12.0, 171.0, 0.9931, 3.06, 0.47, 9.7], [5.3, 0.32, 0.23, 9.65, 0.026, 26.0, 119.0, 0.99168, 3.18, 0.53, 12.2], [7.1, 0.27, 0.27, 10.4, 0.041, 26.0, 114.0, 0.99335, 3.04, 0.52, 11.5], [6.5, 0.18, 0.41, 14.2, 0.039, 47.0, 129.0, 0.99678, 3.28, 0.72, 10.3], [6.7, 0.32, 0.32, 1.7, 0.031, 31.0, 114.0, 0.98946, 3.12, 0.35, 12.5], [6.9, 0.25, 0.34, 1.3, 0.035, 27.0, 82.0, 0.99045, 3.18, 0.44, 12.2], [6.0, 0.26, 0.34, 1.3, 0.046, 6.0, 29.0, 0.9924, 3.29, 0.63, 10.4], [8.2, 0.25, 0.46, 3.75, 0.05, 14.0, 102.0, 0.99524, 3.28, 0.58, 9.7], [7.0, 0.19, 0.33, 6.3, 0.032, 42.0, 127.0, 0.99182, 3.31, 0.38, 12.2], [5.9, 0.23, 0.3, 12.9, 0.054, 57.0, 170.0, 0.9972, 3.28, 0.39, 9.4], [3.9, 0.225, 0.4, 4.2, 0.03, 29.0, 118.0, 0.989, 3.57, 0.36, 12.8], [6.8, 0.21, 0.27, 18.15, 0.042, 41.0, 146.0, 1.0001, 3.3, 0.36, 8.7], [6.5, 0.29, 0.3, 9.15, 0.051, 25.0, 166.0, 0.99339, 3.24, 0.56, 11.35], [6.5, 0.24, 0.28, 1.1, 0.034, 26.0, 83.0, 0.98928, 3.25, 0.33, 12.3], [8.4, 0.22, 0.28, 18.8, 0.028, 55.0, 130.0, 0.998, 2.96, 0.35, 11.6], [7.5, 0.18, 0.45, 4.6, 0.041, 67.0, 158.0, 0.9927, 3.01, 0.38, 10.6], [9.5, 0.21, 0.47, 1.3, 0.039, 21.0, 123.0, 0.9959, 2.9, 0.64, 9.5], [5.6, 0.175, 0.29, 0.8, 0.043, 20.0, 67.0, 0.99112, 3.28, 0.48, 9.9], [6.9, 0.21, 0.33, 1.8, 0.034, 48.0, 136.0, 0.9899, 3.25, 0.41, 12.6], [6.7, 0.12, 0.36, 2.3, 0.039, 43.0, 125.0, 0.99229, 3.07, 0.67, 10.1], [6.4, 0.22, 0.32, 7.2, 0.028, 15.0, 83.0, 0.993, 3.13, 0.55, 10.9], [6.3, 0.21, 0.58, 10.0, 0.081, 34.0, 126.0, 0.9962, 2.95, 0.46, 8.9], [8.0, 0.16, 0.36, 1.5, 0.033, 14.0, 122.0, 0.9941, 3.2, 0.39, 10.3], [6.3, 0.17, 0.23, 5.7, 0.048, 44.0, 147.0, 0.99382, 3.08, 0.54, 10.0], [6.9, 0.35, 0.55, 11.95, 0.038, 22.0, 111.0, 0.99687, 3.11, 0.29, 9.7], [7.3, 0.2, 0.29, 19.5, 0.039, 69.0, 237.0, 1.00037, 3.1, 0.48, 9.2], [6.7, 0.3, 0.74, 5.0, 0.038, 35.0, 157.0, 0.9945, 3.21, 0.46, 9.9], [7.6, 0.23, 0.34, 1.6, 0.043, 24.0, 129.0, 0.99305, 3.12, 0.7, 10.4], [7.8, 0.2, 0.24, 1.6, 0.026, 26.0, 189.0, 0.991, 3.08, 0.74, 12.1], [6.4, 0.27, 0.19, 1.9, 0.085, 21.0, 196.0, 0.99516, 3.49, 0.64, 9.5], [7.0, 0.15, 0.28, 14.7, 0.051, 29.0, 149.0, 0.99792, 2.96, 0.39, 9.0], [7.8, 0.18, 0.31, 12.2, 0.053, 46.0, 140.0, 0.998, 3.06, 0.53, 8.9], [6.8, 0.23, 0.32, 1.6, 0.026, 43.0, 147.0, 0.9904, 3.29, 0.54, 12.5], [6.6, 0.21, 0.29, 5.35, 0.029, 43.0, 106.0, 0.99112, 2.93, 0.43, 11.5], [6.4, 0.24, 0.49, 5.8, 0.053, 25.0, 120.0, 0.9942, 3.01, 0.98, 10.5], [6.6, 0.34, 0.4, 8.1, 0.046, 68.0, 170.0, 0.99494, 3.15, 0.5, 9.53333333333333], [6.1, 0.21, 0.38, 1.5, 0.039, 37.0, 122.0, 0.98972, 3.2, 0.43, 12.0], [6.8, 0.25, 0.18, 1.4, 0.056, 13.0, 137.0, 0.9935, 3.11, 0.42, 9.5], [8.1, 0.17, 0.21, 1.6, 0.036, 24.0, 119.0, 0.99396, 3.18, 0.52, 10.1], [7.7, 0.4, 0.27, 4.5, 0.034, 27.0, 95.0, 0.99175, 3.21, 0.59, 12.3], [5.5, 0.29, 0.3, 1.1, 0.022, 20.0, 110.0, 0.98869, 3.34, 0.38, 12.8], [4.9, 0.335, 0.14, 1.3, 0.036, 69.0, 168.0, 0.99212, 3.47, 0.46, 10.4666666666667], [6.4, 0.31, 0.53, 8.8, 0.057, 36.0, 221.0, 0.99642, 3.17, 0.44, 9.1], [5.8, 0.25, 0.28, 11.1, 0.056, 45.0, 175.0, 0.99755, 3.42, 0.43, 9.5], [6.6, 0.24, 0.27, 1.4, 0.057, 33.0, 152.0, 0.9934, 3.22, 0.56, 9.5], [6.4, 0.23, 0.35, 10.3, 0.042, 54.0, 140.0, 0.9967, 3.23, 0.47, 9.2], [5.6, 0.245, 0.25, 9.7, 0.032, 12.0, 68.0, 0.994, 3.31, 0.34, 10.5], [5.8, 0.4, 0.42, 4.4, 0.047, 38.5, 245.0, 0.9937, 3.25, 0.57, 9.6], [6.7, 0.18, 0.3, 6.4, 0.048, 40.0, 251.0, 0.9956, 3.29, 0.52, 10.0], [5.7, 0.24, 0.47, 6.3, 0.069, 35.0, 182.0, 0.99391, 3.11, 0.46, 9.75], [7.5, 0.31, 0.24, 7.1, 0.031, 28.0, 141.0, 0.99397, 3.16, 0.38, 10.6], [5.9, 0.28, 0.34, 3.6, 0.04, 50.0, 194.0, 0.9912, 3.31, 0.52, 11.6], [6.9, 0.33, 0.21, 1.0, 0.053, 39.0, 148.0, 0.9927, 3.12, 0.45, 9.4], [7.6, 0.21, 0.6, 2.1, 0.046, 47.0, 165.0, 0.9936, 3.05, 0.54, 10.1], [7.0, 0.21, 0.22, 5.1, 0.048, 38.0, 168.0, 0.9945, 3.34, 0.49, 10.4], [6.8, 0.19, 0.71, 17.5, 0.042, 21.0, 114.0, 0.99784, 2.85, 0.5, 9.5], [7.2, 0.22, 0.49, 1.0, 0.045, 34.0, 140.0, 0.99, 3.05, 0.34, 12.7], [7.0, 0.21, 0.28, 8.6, 0.045, 37.0, 221.0, 0.9954, 3.25, 0.54, 10.4], [7.2, 0.24, 0.3, 1.2, 0.037, 11.0, 95.0, 0.98914, 2.96, 0.36, 12.5], [7.2, 0.39, 0.62, 11.0, 0.047, 66.0, 178.0, 0.9976, 3.16, 0.5, 8.7], [6.8, 0.18, 0.3, 12.8, 0.062, 19.0, 171.0, 0.99808, 3.0, 0.52, 9.0], [7.2, 0.16, 0.26, 7.1, 0.054, 41.0, 224.0, 0.9966, 3.38, 0.55, 10.1], [7.0, 0.16, 0.3, 2.6, 0.043, 34.0, 90.0, 0.99047, 2.88, 0.47, 11.2], [6.7, 0.45, 0.3, 5.3, 0.036, 27.0, 165.0, 0.99122, 3.12, 0.46, 12.2], [7.2, 0.25, 0.39, 18.95, 0.038, 42.0, 155.0, 0.9999, 2.97, 0.47, 9.0], [6.9, 0.19, 0.4, 1.4, 0.036, 14.0, 55.0, 0.9909, 3.08, 0.68, 11.5], [8.1, 0.24, 0.33, 10.2, 0.048, 46.0, 141.0, 0.9972, 3.16, 0.48, 10.3], [6.8, 0.34, 0.74, 2.8, 0.088, 23.0, 185.0, 0.9928, 3.51, 0.7, 12.0], [7.4, 0.49, 0.24, 15.1, 0.03, 34.0, 153.0, 0.9953, 3.13, 0.51, 12.0], [7.5, 0.22, 0.29, 4.8, 0.05, 33.0, 87.0, 0.994, 3.14, 0.42, 9.9], [7.1, 0.12, 0.32, 9.6, 0.054, 64.0, 162.0, 0.9962, 3.4, 0.41, 9.4], [7.3, 0.3, 0.74, 13.5, 0.039, 46.0, 165.0, 0.9982, 3.02, 0.4, 8.7], [7.8, 0.42, 0.26, 9.2, 0.058, 34.0, 199.0, 0.9972, 3.14, 0.55, 9.3], [5.6, 0.24, 0.34, 2.0, 0.041, 14.0, 73.0, 0.98981, 3.04, 0.45, 11.6], [7.3, 0.28, 0.54, 12.9, 0.049, 62.0, 152.0, 0.9984, 3.06, 0.45, 9.1], [7.8, 0.26, 0.74, 7.5, 0.044, 59.0, 160.0, 0.996, 3.22, 0.64, 10.0], [6.2, 0.38, 0.18, 7.4, 0.095, 28.0, 195.0, 0.99773, 3.53, 0.71, 9.2], [6.5, 0.26, 0.74, 13.3, 0.044, 68.0, 224.0, 0.9972, 3.18, 0.54, 9.5], [8.0, 0.55, 0.17, 8.2, 0.04, 13.0, 60.0, 0.9956, 3.09, 0.3, 9.5], [6.9, 0.26, 0.31, 7.0, 0.039, 37.0, 175.0, 0.99376, 3.32, 0.49, 11.4], [6.8, 0.16, 0.36, 1.3, 0.034, 32.0, 98.0, 0.99058, 3.02, 0.58, 11.3], [6.8, 0.26, 0.34, 15.1, 0.06, 42.0, 162.0, 0.99705, 3.24, 0.52, 10.5], [6.0, 0.59, 0.0, 0.8, 0.037, 30.0, 95.0, 0.99032, 3.1, 0.4, 10.9], [6.0, 0.13, 0.28, 5.7, 0.038, 56.0, 189.5, 0.9948, 3.59, 0.43, 10.6], [6.8, 0.25, 0.34, 4.7, 0.031, 34.0, 134.0, 0.9927, 3.21, 0.38, 10.6], [6.4, 0.2, 0.28, 2.5, 0.032, 24.0, 84.0, 0.99168, 3.31, 0.55, 11.5], [5.5, 0.24, 0.32, 8.7, 0.06, 19.0, 102.0, 0.994, 3.27, 0.31, 10.4], [6.8, 0.46, 0.26, 2.7, 0.042, 28.0, 83.0, 0.99114, 3.38, 0.51, 12.0], [6.1, 0.22, 0.4, 1.85, 0.031, 25.0, 111.0, 0.98966, 3.03, 0.3, 11.8], [6.9, 0.38, 0.25, 9.8, 0.04, 28.0, 191.0, 0.9971, 3.28, 0.61, 9.2], [5.8, 0.32, 0.38, 4.75, 0.033, 23.0, 94.0, 0.991, 3.42, 0.42, 11.8], [6.0, 0.28, 0.27, 15.5, 0.036, 31.0, 134.0, 0.99408, 3.19, 0.44, 13.0], [6.8, 0.31, 0.19, 3.5, 0.086, 30.0, 130.0, 0.993, 2.83, 0.44, 9.6], [7.2, 0.27, 0.42, 1.6, 0.05, 35.0, 135.0, 0.992, 2.94, 0.46, 11.0], [5.8, 0.32, 0.28, 4.3, 0.032, 46.0, 115.0, 0.98946, 3.16, 0.57, 13.0], [8.1, 0.26, 0.3, 7.8, 0.049, 39.0, 152.0, 0.9954, 2.99, 0.58, 10.0], [7.1, 0.22, 0.32, 16.9, 0.056, 49.0, 158.0, 0.9998, 3.37, 0.38, 9.6], [7.1, 0.16, 0.36, 10.7, 0.044, 20.0, 90.0, 0.9959, 3.16, 0.44, 10.9], [7.6, 0.51, 0.24, 1.2, 0.04, 10.0, 104.0, 0.992, 3.05, 0.29, 10.8], [7.5, 0.23, 0.36, 7.0, 0.036, 43.0, 161.0, 0.9938, 3.04, 0.32, 11.0], [8.0, 0.74, 0.21, 4.0, 0.05, 24.0, 133.0, 0.99418, 3.06, 0.38, 9.7], [5.9, 0.15, 0.31, 5.8, 0.041, 53.0, 155.0, 0.9945, 3.52, 0.46, 10.5], [7.6, 0.31, 0.49, 3.95, 0.044, 27.0, 131.0, 0.9912, 3.08, 0.67, 12.8], [7.6, 0.23, 0.49, 10.0, 0.036, 45.0, 182.0, 0.9967, 3.08, 0.58, 9.6], [6.8, 0.19, 0.58, 14.2, 0.038, 51.0, 164.0, 0.9975, 3.12, 0.48, 9.6], [6.2, 0.3, 0.3, 2.5, 0.041, 29.0, 82.0, 0.99065, 3.31, 0.61, 11.8], [6.2, 0.3, 0.31, 1.6, 0.035, 40.0, 106.0, 0.98914, 3.26, 0.39, 12.9], [7.0, 0.2, 0.37, 2.0, 0.03, 26.0, 136.0, 0.9932, 3.28, 0.61, 10.2], [6.7, 0.27, 0.31, 15.7, 0.036, 44.0, 179.0, 0.9979, 3.26, 0.56, 9.6], [5.9, 0.2, 0.28, 1.0, 0.043, 45.0, 100.0, 0.99033, 3.4, 0.41, 11.4], [7.8, 0.15, 0.24, 7.7, 0.047, 21.0, 98.0, 0.9951, 2.94, 0.31, 9.6], [6.2, 0.2, 0.26, 1.7, 0.093, 40.0, 161.0, 0.9924, 3.44, 0.66, 11.0], [6.6, 0.34, 0.24, 3.3, 0.034, 29.0, 99.0, 0.99031, 3.1, 0.4, 12.3], [7.0, 0.34, 0.3, 1.8, 0.045, 44.0, 142.0, 0.9914, 2.99, 0.45, 10.8], [8.0, 0.45, 0.28, 10.8, 0.051, 25.0, 157.0, 0.9957, 3.06, 0.47, 11.4], [5.2, 0.335, 0.2, 1.7, 0.033, 17.0, 74.0, 0.99002, 3.34, 0.48, 12.3], [7.2, 0.32, 0.36, 2.0, 0.033, 37.0, 114.0, 0.9906, 3.1, 0.71, 12.3], [7.1, 0.31, 0.47, 13.6, 0.056, 54.0, 197.0, 0.9978, 3.1, 0.49, 9.3], [7.0, 0.12, 0.29, 10.3, 0.039, 41.0, 98.0, 0.99564, 3.19, 0.38, 9.8], [6.7, 0.16, 0.49, 2.4, 0.046, 57.0, 187.0, 0.9952, 3.62, 0.81, 10.4], [6.5, 0.41, 0.22, 4.8, 0.052, 49.0, 142.0, 0.9946, 3.14, 0.62, 9.2], [7.8, 0.21, 0.49, 1.2, 0.036, 20.0, 99.0, 0.99, 3.05, 0.28, 12.1], [6.0, 0.28, 0.24, 17.8, 0.047, 42.0, 111.0, 0.99896, 3.1, 0.45, 8.9], [5.6, 0.18, 0.58, 1.25, 0.034, 29.0, 129.0, 0.98984, 3.51, 0.6, 12.0], [6.9, 0.19, 0.35, 13.5, 0.038, 49.0, 118.0, 0.99546, 3.0, 0.63, 10.7], [6.2, 0.3, 0.32, 1.3, 0.054, 27.0, 183.0, 0.99266, 3.3, 0.43, 10.1], [6.8, 0.28, 0.17, 13.9, 0.047, 49.0, 162.0, 0.9983, 3.21, 0.51, 9.0], [7.3, 0.2, 0.39, 2.3, 0.048, 24.0, 87.0, 0.99044, 2.94, 0.35, 12.0], [6.1, 0.37, 0.36, 4.7, 0.035, 36.0, 116.0, 0.991, 3.31, 0.62, 12.6], [6.4, 0.26, 0.3, 2.2, 0.025, 33.0, 134.0, 0.992, 3.21, 0.47, 10.6], [7.0, 0.39, 0.21, 10.7, 0.098, 13.0, 91.0, 0.99657, 3.03, 0.47, 9.3], [7.1, 0.18, 0.74, 15.6, 0.044, 44.0, 176.0, 0.9996, 3.38, 0.67, 9.0], [7.0, 0.34, 0.39, 6.9, 0.066, 43.0, 162.0, 0.99561, 3.11, 0.53, 9.5], [7.2, 0.24, 0.27, 11.4, 0.034, 40.0, 174.0, 0.99773, 3.2, 0.44, 9.0], [8.0, 0.2, 0.36, 1.2, 0.032, 21.0, 78.0, 0.9921, 3.08, 0.37, 10.4], [6.3, 0.17, 0.42, 2.8, 0.028, 45.0, 107.0, 0.9908, 3.27, 0.43, 11.8], [6.7, 0.46, 0.21, 4.0, 0.034, 12.0, 88.0, 0.99016, 3.26, 0.54, 13.0], [6.5, 0.23, 0.25, 17.3, 0.046, 15.0, 110.0, 0.99828, 3.15, 0.42, 9.2], [8.5, 0.56, 0.74, 17.85, 0.051, 51.0, 243.0, 1.0005, 2.99, 0.7, 9.2], [6.1, 0.2, 0.4, 1.9, 0.028, 32.0, 138.0, 0.9914, 3.26, 0.72, 11.7], [7.2, 0.51, 0.24, 10.0, 0.093, 35.0, 197.0, 0.9981, 3.41, 0.47, 9.0], [8.1, 0.28, 0.34, 1.3, 0.035, 11.0, 126.0, 0.99232, 3.14, 0.5, 9.8], [6.3, 0.2, 0.3, 5.9, 0.034, 35.0, 152.0, 0.99642, 3.47, 0.4, 8.5], [6.6, 0.24, 0.29, 2.0, 0.023, 19.0, 86.0, 0.99, 3.25, 0.45, 12.5], [6.1, 0.21, 0.19, 1.4, 0.046, 51.0, 131.0, 0.99184, 3.22, 0.39, 10.5], [7.0, 0.24, 0.47, 1.3, 0.043, 18.0, 131.0, 0.99176, 3.19, 0.45, 11.0], [6.2, 0.18, 0.38, 1.5, 0.028, 36.0, 117.0, 0.993, 3.47, 0.54, 9.7], [7.1, 0.22, 0.33, 2.8, 0.033, 48.0, 153.0, 0.9899, 3.15, 0.38, 12.7], [6.6, 0.19, 0.33, 1.8, 0.035, 42.0, 148.0, 0.99196, 3.15, 0.36, 10.2], [8.3, 0.14, 0.45, 1.5, 0.039, 18.0, 98.0, 0.99215, 3.02, 0.56, 11.0], [6.0, 0.26, 0.29, 1.0, 0.032, 27.0, 96.0, 0.9896, 3.38, 0.44, 12.3], [6.9, 0.4, 0.22, 5.95, 0.081, 76.0, 303.0, 0.99705, 3.4, 0.57, 9.4], [6.9, 0.4, 0.56, 11.2, 0.043, 40.0, 142.0, 0.9975, 3.14, 0.46, 8.7], [8.9, 0.27, 0.28, 0.8, 0.024, 29.0, 128.0, 0.98984, 3.01, 0.35, 12.4], [6.6, 0.38, 0.29, 2.9, 0.035, 15.0, 101.0, 0.98916, 3.04, 0.37, 12.5], [6.8, 0.31, 0.32, 7.6, 0.052, 35.0, 143.0, 0.9959, 3.14, 0.38, 9.0], [7.6, 0.56, 0.12, 10.4, 0.096, 22.0, 177.0, 0.9983, 3.32, 0.45, 9.1], [6.0, 0.19, 0.26, 12.4, 0.048, 50.0, 147.0, 0.9972, 3.3, 0.36, 8.9], [7.3, 0.32, 0.23, 13.7, 0.05, 49.0, 197.0, 0.9985, 3.2, 0.46, 8.7], [6.5, 0.32, 0.23, 8.5, 0.051, 20.0, 138.0, 0.9943, 3.03, 0.42, 10.7], [7.2, 0.16, 0.32, 0.8, 0.04, 50.0, 121.0, 0.9922, 3.27, 0.33, 10.0], [6.6, 0.22, 0.58, 1.1, 0.133, 52.0, 136.0, 0.9932, 3.1, 0.3, 9.1], [7.7, 0.44, 0.24, 11.2, 0.031, 41.0, 167.0, 0.9948, 3.12, 0.43, 11.3], [6.4, 0.35, 0.28, 1.1, 0.055, 9.0, 160.0, 0.99405, 3.42, 0.5, 9.1], [7.7, 0.34, 0.28, 11.0, 0.04, 31.0, 117.0, 0.99815, 3.27, 0.29, 9.2], [6.7, 0.25, 0.31, 1.35, 0.061, 30.5, 218.0, 0.99388, 3.16, 0.53, 9.5], [9.1, 0.28, 0.49, 2.0, 0.059, 10.0, 112.0, 0.9958, 3.15, 0.46, 10.1], [7.1, 0.28, 0.49, 6.5, 0.041, 28.0, 111.0, 0.9926, 3.41, 0.58, 12.2], [6.6, 0.17, 0.26, 7.4, 0.052, 45.0, 128.0, 0.99388, 3.16, 0.37, 10.0], [9.4, 0.3, 0.32, 10.7, 0.029, 14.0, 111.0, 0.9958, 2.85, 0.42, 10.6], [6.2, 0.27, 0.43, 7.8, 0.056, 48.0, 244.0, 0.9956, 3.1, 0.51, 9.0], [8.6, 0.55, 0.35, 15.55, 0.057, 35.5, 366.5, 1.0001, 3.04, 0.63, 11.0], [7.6, 0.29, 0.42, 1.3, 0.035, 18.0, 86.0, 0.9908, 2.99, 0.39, 11.3], [6.4, 0.38, 0.24, 7.2, 0.047, 41.0, 151.0, 0.99604, 3.11, 0.6, 9.2], [7.5, 0.32, 0.49, 1.7, 0.031, 44.0, 109.0, 0.9906, 3.07, 0.46, 12.5], [6.5, 0.26, 0.43, 8.9, 0.083, 50.0, 171.0, 0.9965, 2.85, 0.5, 9.0], [6.0, 0.14, 0.37, 1.2, 0.032, 63.0, 148.0, 0.99185, 3.32, 0.44, 11.2], [6.0, 0.26, 0.29, 3.1, 0.041, 37.0, 144.0, 0.98944, 3.22, 0.39, 12.8], [7.1, 0.25, 0.3, 2.4, 0.042, 25.0, 122.0, 0.994, 3.43, 0.61, 10.5], [8.3, 0.3, 0.36, 10.0, 0.042, 33.0, 169.0, 0.9982, 3.23, 0.51, 9.3], [7.1, 0.18, 0.42, 1.4, 0.045, 47.0, 157.0, 0.9916, 2.95, 0.31, 10.5], [6.2, 0.46, 0.25, 4.4, 0.066, 62.0, 207.0, 0.9939, 3.25, 0.52, 9.8], [8.2, 0.42, 0.29, 4.1, 0.03, 31.0, 100.0, 0.9911, 3.0, 0.32, 12.8], [6.6, 0.25, 0.41, 7.4, 0.043, 29.0, 151.0, 0.9946, 3.15, 0.6, 10.2], [6.8, 0.24, 0.31, 18.3, 0.046, 40.0, 142.0, 1.0, 3.3, 0.41, 8.7], [6.7, 0.22, 0.33, 1.2, 0.036, 36.0, 86.0, 0.99058, 3.1, 0.76, 11.4], [7.9, 0.18, 0.49, 5.2, 0.051, 36.0, 157.0, 0.9953, 3.18, 0.48, 10.6], [5.9, 0.44, 0.33, 1.2, 0.049, 12.0, 117.0, 0.99134, 3.46, 0.44, 11.5], [7.3, 0.22, 0.49, 9.9, 0.031, 48.0, 161.0, 0.9937, 3.01, 0.28, 11.2], [8.3, 0.21, 0.58, 17.1, 0.049, 62.0, 213.0, 1.0006, 3.01, 0.51, 9.3], [7.4, 0.25, 0.36, 13.2, 0.067, 53.0, 178.0, 0.9976, 3.01, 0.48, 9.0], [7.3, 0.43, 0.37, 4.6, 0.028, 17.0, 114.0, 0.991, 3.23, 0.43, 13.2], [6.6, 0.21, 0.38, 2.2, 0.026, 40.0, 104.0, 0.9914, 3.25, 0.4, 11.1], [6.2, 0.32, 0.12, 4.8, 0.054, 6.0, 97.0, 0.99424, 3.16, 0.5, 9.3], [6.5, 0.31, 0.61, 13.0, 0.053, 31.0, 123.0, 0.99708, 3.09, 0.5, 9.3], [6.5, 0.15, 0.55, 5.9, 0.045, 75.0, 162.0, 0.99482, 2.97, 0.4, 9.3], [7.1, 0.27, 0.24, 12.6, 0.044, 48.0, 118.0, 0.99726, 3.04, 0.56, 10.0], [6.8, 0.27, 0.3, 13.0, 0.047, 69.0, 160.0, 0.99705, 3.16, 0.5, 9.6], [6.4, 0.23, 0.26, 8.1, 0.054, 47.0, 181.0, 0.9954, 3.12, 0.49, 9.4], [6.6, 0.29, 0.44, 9.0, 0.053, 62.0, 178.0, 0.99685, 3.02, 0.45, 8.9], [6.5, 0.36, 0.31, 13.55, 0.053, 20.0, 113.0, 0.99544, 3.2, 0.56, 11.0], [8.8, 0.36, 0.44, 1.9, 0.04, 9.0, 121.0, 0.9953, 3.19, 0.48, 9.9], [5.9, 0.37, 0.1, 1.6, 0.057, 39.0, 128.0, 0.9924, 3.24, 0.48, 10.1], [6.0, 0.36, 0.06, 1.4, 0.066, 27.0, 128.0, 0.9934, 3.26, 0.55, 9.3], [8.6, 0.18, 0.36, 1.8, 0.04, 24.0, 187.0, 0.9956, 3.25, 0.55, 9.5], [6.6, 0.26, 0.31, 4.8, 0.138, 41.0, 168.0, 0.9951, 3.2, 0.38, 9.3], [7.7, 0.28, 0.29, 6.9, 0.041, 29.0, 163.0, 0.9952, 3.44, 0.6, 10.5], [7.4, 0.27, 0.26, 11.8, 0.053, 55.0, 173.0, 0.99699, 3.11, 0.6, 9.8], [6.4, 0.22, 0.38, 9.1, 0.044, 35.0, 127.0, 0.99326, 2.97, 0.3, 11.0], [6.6, 0.21, 0.34, 5.6, 0.046, 30.0, 140.0, 0.99299, 3.22, 0.38, 11.0], [8.0, 0.28, 0.42, 7.1, 0.045, 41.0, 169.0, 0.9959, 3.17, 0.43, 10.6], [6.1, 0.26, 0.25, 2.9, 0.047, 289.0, 440.0, 0.99314, 3.44, 0.64, 10.5], [6.5, 0.3, 0.27, 4.0, 0.038, 37.0, 97.0, 0.99026, 3.2, 0.6, 12.6], [7.2, 0.23, 0.38, 14.3, 0.058, 55.0, 194.0, 0.9979, 3.09, 0.44, 9.0], [6.4, 0.32, 0.26, 7.9, 0.05, 53.0, 180.0, 0.99514, 3.14, 0.5, 9.6], [7.4, 0.28, 0.49, 1.5, 0.034, 20.0, 126.0, 0.9918, 2.98, 0.39, 10.6], [7.3, 0.28, 0.36, 12.7, 0.04, 38.0, 140.0, 0.998, 3.3, 0.79, 9.6], [7.3, 0.19, 0.68, 1.5, 0.05, 31.0, 156.0, 0.9946, 3.32, 0.64, 9.4], [6.9, 0.15, 0.29, 2.3, 0.033, 14.0, 82.0, 0.99132, 3.1, 0.58, 11.2], [6.5, 0.115, 0.29, 1.95, 0.038, 73.0, 166.0, 0.989, 3.12, 0.25, 12.9], [6.2, 0.66, 0.48, 1.2, 0.029, 29.0, 75.0, 0.9892, 3.33, 0.39, 12.8], [7.0, 0.27, 0.74, 1.5, 0.036, 27.0, 122.0, 0.9926, 3.35, 0.48, 11.2], [7.4, 0.32, 0.27, 1.4, 0.049, 38.0, 173.0, 0.99335, 3.03, 0.52, 9.3], [6.9, 0.3, 0.25, 3.3, 0.041, 26.0, 124.0, 0.99428, 3.18, 0.5, 9.3], [6.0, 0.17, 0.3, 7.3, 0.039, 39.0, 104.0, 0.99252, 2.91, 0.57, 11.0], [7.5, 0.3, 0.32, 1.4, 0.032, 31.0, 161.0, 0.99154, 2.95, 0.42, 10.5], [7.1, 0.09, 0.3, 6.2, 0.032, 24.0, 134.0, 0.993, 2.99, 0.39, 10.9], [7.7, 0.29, 0.48, 2.3, 0.049, 36.0, 178.0, 0.9931, 3.17, 0.64, 10.6], [7.0, 0.26, 0.59, 1.4, 0.037, 40.0, 120.0, 0.9918, 3.34, 0.41, 11.1], [6.5, 0.36, 0.36, 6.7, 0.185, 51.5, 151.0, 0.99528, 3.17, 0.42, 9.3], [7.6, 0.32, 0.36, 1.6, 0.04, 32.0, 155.0, 0.993, 3.23, 0.52, 11.3], [6.2, 0.39, 0.24, 4.8, 0.037, 45.0, 138.0, 0.99174, 3.23, 0.43, 11.2], [6.8, 0.28, 0.29, 11.9, 0.052, 51.0, 149.0, 0.99544, 3.02, 0.58, 10.4], [8.1, 0.43, 0.42, 6.6, 0.033, 36.0, 141.0, 0.9918, 2.98, 0.39, 13.3], [7.9, 0.41, 0.37, 4.5, 0.03, 40.0, 114.0, 0.992, 3.17, 0.54, 12.4], [8.1, 0.33, 0.36, 7.4, 0.037, 36.0, 156.0, 0.99592, 3.19, 0.54, 10.6], [5.8, 0.28, 0.3, 3.9, 0.026, 36.0, 105.0, 0.98963, 3.26, 0.58, 12.75], [7.4, 0.16, 0.27, 15.5, 0.05, 25.0, 135.0, 0.9984, 2.9, 0.43, 8.7], [5.9, 0.4, 0.32, 6.0, 0.034, 50.0, 127.0, 0.992, 3.51, 0.58, 12.5], [5.9, 0.3, 0.3, 2.0, 0.03, 38.0, 142.0, 0.98892, 3.41, 0.41, 12.9], [6.3, 0.3, 0.48, 7.4, 0.053, 34.0, 149.0, 0.99472, 3.18, 0.53, 9.8], [5.7, 0.25, 0.26, 12.5, 0.049, 52.5, 106.0, 0.99691, 3.08, 0.45, 9.4], [7.4, 0.16, 0.3, 13.7, 0.056, 33.0, 168.0, 0.99825, 2.9, 0.44, 8.7], [6.6, 0.21, 0.39, 2.3, 0.041, 31.0, 102.0, 0.99221, 3.22, 0.58, 10.9], [6.6, 0.22, 0.23, 17.3, 0.047, 37.0, 118.0, 0.99906, 3.08, 0.46, 8.8], [6.2, 0.29, 0.26, 13.1, 0.046, 55.0, 204.0, 0.99745, 3.16, 0.41, 9.6], [5.9, 0.23, 0.24, 1.6, 0.037, 32.0, 115.0, 0.99076, 3.21, 0.51, 11.4], [7.4, 0.22, 0.26, 1.2, 0.035, 18.0, 97.0, 0.99245, 3.12, 0.41, 9.7], [6.5, 0.22, 0.25, 17.1, 0.05, 44.0, 138.0, 1.0001, 3.3, 0.37, 8.8], [8.1, 0.25, 0.38, 3.8, 0.051, 18.0, 129.0, 0.9928, 3.21, 0.38, 11.5], [5.8, 0.12, 0.21, 1.3, 0.056, 35.0, 121.0, 0.9908, 3.32, 0.33, 11.4], [6.6, 0.43, 0.24, 11.9, 0.04, 54.0, 159.0, 0.99622, 3.14, 0.54, 9.8], [6.6, 0.25, 0.32, 5.6, 0.039, 15.0, 68.0, 0.99163, 2.96, 0.52, 11.1], [7.2, 0.2, 0.38, 1.0, 0.037, 21.0, 74.0, 0.9918, 3.21, 0.37, 11.0], [6.2, 0.3, 0.32, 1.7, 0.032, 30.0, 130.0, 0.9911, 3.28, 0.41, 11.2], [6.6, 0.25, 0.29, 1.1, 0.068, 39.0, 124.0, 0.9914, 3.34, 0.58, 11.0], [6.0, 0.2, 0.26, 6.8, 0.049, 22.0, 93.0, 0.9928, 3.15, 0.42, 11.0], [8.2, 0.18, 0.49, 1.1, 0.033, 28.0, 81.0, 0.9923, 3.0, 0.68, 10.4], [8.7, 0.15, 0.3, 1.6, 0.046, 29.0, 130.0, 0.9942, 3.22, 0.38, 9.8], [7.4, 0.25, 0.36, 13.2, 0.067, 53.0, 178.0, 0.9976, 3.01, 0.48, 9.0], [6.4, 0.15, 0.4, 1.5, 0.042, 23.0, 87.0, 0.98972, 3.11, 0.46, 12.2], [7.2, 0.24, 0.36, 2.0, 0.029, 21.0, 63.0, 0.99076, 3.13, 0.63, 12.5], [6.6, 0.52, 0.44, 12.2, 0.048, 54.0, 245.0, 0.9975, 3.26, 0.54, 9.3], [5.5, 0.19, 0.27, 0.9, 0.04, 52.0, 103.0, 0.99026, 3.5, 0.39, 11.2], [6.4, 0.3, 0.45, 3.5, 0.197, 76.0, 180.0, 0.9942, 3.02, 0.39, 9.1], [5.8, 0.3, 0.09, 6.3, 0.042, 36.0, 138.0, 0.99382, 3.15, 0.48, 9.7], [5.8, 0.22, 0.3, 1.1, 0.047, 36.0, 131.0, 0.992, 3.26, 0.45, 10.4], [7.6, 0.27, 0.29, 2.5, 0.059, 37.0, 115.0, 0.99328, 3.09, 0.37, 9.8], [6.6, 0.21, 0.36, 0.8, 0.034, 48.0, 113.0, 0.99165, 3.24, 0.68, 10.5], [7.6, 0.25, 0.34, 1.3, 0.056, 34.0, 176.0, 0.99434, 3.1, 0.51, 9.5], [6.7, 0.325, 0.82, 1.2, 0.152, 49.0, 120.0, 0.99312, 2.99, 0.38, 9.2], [6.9, 0.15, 0.28, 4.4, 0.029, 14.0, 107.0, 0.99347, 3.24, 0.46, 10.4], [6.8, 0.18, 0.3, 12.8, 0.062, 19.0, 171.0, 0.99808, 3.0, 0.52, 9.0], [6.7, 0.34, 0.26, 1.9, 0.038, 58.0, 138.0, 0.9893, 3.0, 0.47, 12.2], [5.9, 0.36, 0.04, 5.7, 0.046, 21.0, 87.0, 0.9934, 3.22, 0.51, 10.2], [8.0, 0.17, 0.29, 2.4, 0.029, 52.0, 119.0, 0.98944, 3.03, 0.33, 12.9], [5.0, 0.33, 0.16, 1.5, 0.049, 10.0, 97.0, 0.9917, 3.48, 0.44, 10.7], [6.2, 0.3, 0.42, 2.2, 0.036, 28.0, 128.0, 0.9901, 3.13, 0.38, 11.6], [6.1, 0.28, 0.27, 4.7, 0.03, 56.0, 140.0, 0.99042, 3.16, 0.42, 12.5], [6.7, 0.33, 0.34, 7.5, 0.036, 39.0, 124.0, 0.99123, 2.99, 0.32, 12.4], [6.8, 0.27, 0.22, 8.1, 0.034, 55.0, 203.0, 0.9961, 3.19, 0.52, 8.9], [7.2, 0.2, 0.22, 1.6, 0.044, 17.0, 101.0, 0.99471, 3.37, 0.53, 10.0], [6.4, 0.24, 0.26, 8.2, 0.054, 47.0, 182.0, 0.99538, 3.12, 0.5, 9.5], [7.1, 0.28, 0.35, 3.5, 0.028, 35.0, 91.0, 0.99022, 2.96, 0.33, 12.1], [6.5, 0.14, 0.33, 7.6, 0.05, 53.0, 189.0, 0.9966, 3.25, 0.49, 8.6], [8.9, 0.13, 0.49, 1.0, 0.028, 6.0, 24.0, 0.9926, 2.91, 0.32, 9.9], [7.8, 0.34, 0.35, 1.8, 0.042, 8.0, 167.0, 0.9908, 3.11, 0.41, 12.1], [4.7, 0.455, 0.18, 1.9, 0.036, 33.0, 106.0, 0.98746, 3.21, 0.83, 14.0], [6.4, 0.28, 0.36, 1.3, 0.053, 28.0, 186.0, 0.99211, 3.31, 0.45, 10.8], [6.7, 0.17, 0.42, 10.4, 0.038, 85.0, 182.0, 0.99628, 3.04, 0.44, 8.9], [6.8, 0.19, 0.71, 17.5, 0.042, 21.0, 114.0, 0.99784, 2.85, 0.5, 9.5], [7.1, 0.28, 0.28, 8.5, 0.03, 25.0, 191.0, 0.99338, 3.16, 0.46, 12.2], [8.5, 0.26, 0.21, 16.2, 0.074, 41.0, 197.0, 0.998, 3.02, 0.5, 9.8], [5.8, 0.2, 0.34, 1.0, 0.035, 40.0, 86.0, 0.98993, 3.5, 0.42, 11.7], [7.4, 0.25, 0.29, 6.8, 0.02, 31.0, 113.0, 0.99338, 3.13, 0.29, 10.8], [7.4, 0.16, 0.31, 6.85, 0.059, 31.0, 131.0, 0.9952, 3.29, 0.34, 9.7], [6.3, 0.24, 0.74, 1.4, 0.172, 24.0, 108.0, 0.9932, 3.27, 0.39, 9.9], [5.0, 0.44, 0.04, 18.6, 0.039, 38.0, 128.0, 0.9985, 3.37, 0.57, 10.2], [7.3, 0.27, 0.3, 1.3, 0.04, 26.0, 84.0, 0.99222, 3.28, 0.53, 10.7], [7.4, 0.19, 0.3, 12.8, 0.053, 48.5, 229.0, 0.9986, 3.14, 0.49, 9.1], [6.0, 0.26, 0.5, 2.2, 0.048, 59.0, 153.0, 0.9928, 3.08, 0.61, 9.8], [6.3, 0.28, 0.3, 3.1, 0.039, 24.0, 115.0, 0.9942, 3.05, 0.43, 8.6], [8.7, 0.23, 0.32, 13.4, 0.044, 35.0, 169.0, 0.99975, 3.12, 0.47, 8.8], [6.7, 0.48, 0.49, 2.9, 0.03, 28.0, 122.0, 0.98926, 3.13, 0.4, 13.0], [8.1, 0.45, 0.34, 8.3, 0.037, 33.0, 216.0, 0.9976, 3.31, 0.64, 9.7], [7.0, 0.15, 0.38, 2.2, 0.047, 33.0, 96.0, 0.9928, 3.13, 0.39, 10.4], [7.2, 0.08, 0.49, 1.3, 0.05, 18.0, 148.0, 0.9945, 3.46, 0.44, 10.2], [8.3, 0.21, 0.41, 2.2, 0.05, 24.0, 108.0, 0.994, 2.85, 0.45, 9.5], [6.5, 0.18, 0.41, 14.2, 0.039, 47.0, 129.0, 0.99678, 3.28, 0.72, 10.3], [7.0, 0.53, 0.02, 1.0, 0.036, 39.0, 107.0, 0.993, 3.2, 0.32, 9.0], [6.4, 0.45, 0.07, 1.1, 0.03, 10.0, 131.0, 0.9905, 2.97, 0.28, 10.8], [7.0, 0.32, 0.31, 6.4, 0.031, 38.0, 115.0, 0.99235, 3.38, 0.58, 12.2], [6.9, 0.4, 0.42, 6.2, 0.066, 41.0, 176.0, 0.99552, 3.12, 0.54, 9.4], [6.9, 0.38, 0.29, 13.65, 0.048, 52.0, 189.0, 0.99784, 3.0, 0.6, 9.5], [5.9, 0.3, 0.47, 7.85, 0.03, 19.0, 133.0, 0.9933, 3.52, 0.43, 11.5], [6.1, 0.24, 0.27, 11.5, 0.05, 51.0, 133.0, 0.99476, 3.22, 0.37, 10.8], [6.1, 0.36, 0.16, 6.4, 0.037, 36.0, 198.0, 0.9944, 3.17, 0.62, 9.9], [7.0, 0.29, 0.54, 10.7, 0.046, 59.0, 234.0, 0.9966, 3.05, 0.61, 9.5], [8.1, 0.27, 0.33, 1.3, 0.045, 26.0, 100.0, 0.99066, 2.98, 0.44, 12.4], [5.7, 0.255, 0.65, 1.2, 0.079, 17.0, 137.0, 0.99307, 3.2, 0.42, 9.4], [6.0, 0.32, 0.3, 7.3, 0.174, 46.0, 159.0, 0.99519, 3.18, 0.49, 9.4], [6.8, 0.18, 0.35, 5.4, 0.054, 53.0, 143.0, 0.99287, 3.1, 0.54, 11.0], [6.3, 0.26, 0.49, 1.5, 0.052, 34.0, 134.0, 0.9924, 2.99, 0.61, 9.8], [8.0, 0.23, 0.46, 1.5, 0.03, 30.0, 125.0, 0.9907, 3.23, 0.47, 12.5], [6.7, 0.16, 0.28, 2.5, 0.046, 40.0, 153.0, 0.9921, 3.38, 0.51, 11.4], [6.0, 0.41, 0.05, 1.5, 0.063, 17.0, 120.0, 0.9932, 3.21, 0.56, 9.2], [6.0, 0.39, 0.13, 1.2, 0.042, 60.0, 172.0, 0.99114, 3.06, 0.52, 10.6], [7.6, 0.3, 0.4, 2.2, 0.054, 29.0, 175.0, 0.99445, 3.19, 0.53, 9.8], [6.8, 0.19, 0.33, 4.9, 0.047, 42.0, 130.0, 0.99283, 3.12, 0.56, 11.0], [7.9, 0.3, 0.6, 1.85, 0.048, 13.0, 106.0, 0.99331, 3.24, 0.49, 11.85], [6.0, 0.2, 0.32, 3.0, 0.031, 26.0, 118.0, 0.99134, 3.38, 0.68, 11.2], [7.5, 0.17, 0.44, 11.3, 0.046, 65.0, 146.0, 0.997, 3.17, 0.45, 10.0], [6.5, 0.19, 0.34, 1.6, 0.029, 39.0, 116.0, 0.98954, 3.21, 0.68, 12.5], [6.8, 0.39, 0.34, 7.4, 0.02, 38.0, 133.0, 0.99212, 3.18, 0.44, 12.0], [7.1, 0.2, 0.27, 9.6, 0.037, 19.0, 105.0, 0.99444, 3.04, 0.37, 10.5], [6.5, 0.17, 0.31, 1.5, 0.041, 34.0, 121.0, 0.99092, 3.06, 0.46, 10.5], [7.4, 0.16, 0.27, 15.5, 0.05, 25.0, 135.0, 0.9984, 2.9, 0.43, 8.7], [6.2, 0.39, 0.24, 4.8, 0.037, 45.0, 138.0, 0.99174, 3.23, 0.43, 11.2], [6.6, 0.23, 0.37, 8.5, 0.036, 46.0, 153.0, 0.99576, 3.2, 0.48, 9.4], [7.5, 0.38, 0.56, 9.7, 0.055, 15.0, 170.0, 0.99605, 3.13, 0.65, 9.9], [7.8, 0.27, 0.33, 2.4, 0.053, 36.0, 175.0, 0.992, 3.2, 0.55, 11.0], [7.6, 0.21, 0.35, 1.2, 0.041, 7.0, 106.0, 0.9914, 3.06, 0.45, 11.3], [5.0, 0.27, 0.32, 4.5, 0.032, 58.0, 178.0, 0.98956, 3.45, 0.31, 12.6], [7.3, 0.23, 0.37, 1.9, 0.041, 51.0, 165.0, 0.9908, 3.26, 0.4, 12.2], [5.3, 0.24, 0.33, 1.3, 0.033, 25.0, 97.0, 0.9906, 3.59, 0.38, 11.0], [7.6, 0.13, 0.34, 9.3, 0.062, 40.0, 126.0, 0.9966, 3.21, 0.39, 9.6], [6.4, 0.31, 0.28, 1.5, 0.037, 12.0, 119.0, 0.9919, 3.32, 0.51, 10.4], [8.8, 0.2, 0.43, 15.0, 0.053, 60.0, 184.0, 1.0008, 3.28, 0.79, 8.8], [6.3, 0.37, 0.51, 6.3, 0.048, 35.0, 146.0, 0.9943, 3.1, 1.01, 10.5], [7.3, 0.34, 0.22, 1.4, 0.044, 43.0, 176.0, 0.99286, 3.14, 0.46, 9.9], [5.8, 0.3, 0.23, 1.5, 0.034, 37.0, 121.0, 0.98871, 2.96, 0.34, 12.1], [7.5, 0.18, 0.39, 1.9, 0.054, 23.0, 91.0, 0.9941, 3.27, 0.45, 10.3], [5.1, 0.23, 0.18, 1.0, 0.053, 13.0, 99.0, 0.98956, 3.22, 0.39, 11.5], [6.1, 0.22, 0.31, 1.4, 0.039, 40.0, 129.0, 0.99193, 3.45, 0.59, 10.9], [8.2, 0.38, 0.49, 13.6, 0.042, 58.0, 166.0, 0.99855, 3.1, 0.54, 9.4], [7.5, 0.2, 0.49, 1.3, 0.031, 8.0, 97.0, 0.9918, 3.06, 0.62, 11.1], [7.1, 0.45, 0.24, 2.7, 0.04, 24.0, 87.0, 0.98862, 2.94, 0.38, 13.4], [6.6, 0.19, 0.99, 1.2, 0.122, 45.0, 129.0, 0.9936, 3.09, 0.31, 8.7], [7.0, 0.29, 0.49, 3.8, 0.047, 37.0, 136.0, 0.9938, 2.95, 0.4, 9.4], [8.0, 0.17, 0.29, 2.4, 0.029, 52.0, 119.0, 0.98944, 3.03, 0.33, 12.9], [6.0, 0.26, 0.15, 1.2, 0.053, 35.0, 124.0, 0.99347, 3.08, 0.46, 8.8], [6.8, 0.18, 0.28, 1.1, 0.027, 32.0, 112.0, 0.99089, 3.15, 0.45, 11.0], [6.6, 0.27, 0.32, 1.3, 0.044, 18.0, 93.0, 0.99044, 3.11, 0.56, 12.25], [6.5, 0.21, 0.35, 5.7, 0.043, 47.0, 197.0, 0.99392, 3.24, 0.5, 10.1], [6.9, 0.23, 0.4, 7.5, 0.04, 50.0, 151.0, 0.9927, 3.11, 0.27, 11.4], [8.0, 0.25, 0.26, 14.0, 0.043, 41.0, 248.0, 0.9986, 3.03, 0.57, 8.7], [7.6, 0.22, 0.28, 12.0, 0.056, 68.0, 143.0, 0.9983, 2.99, 0.3, 9.2], [7.4, 0.18, 0.31, 1.4, 0.058, 38.0, 167.0, 0.9931, 3.16, 0.53, 10.0], [7.1, 0.23, 0.24, 5.4, 0.039, 60.0, 196.0, 0.9948, 3.19, 0.78, 10.0], [6.0, 0.3, 0.44, 1.5, 0.046, 15.0, 182.0, 0.99455, 3.5, 0.52, 10.4], [8.6, 0.485, 0.29, 4.1, 0.026, 19.0, 101.0, 0.9918, 3.01, 0.38, 12.4], [7.0, 0.36, 0.32, 10.05, 0.045, 37.0, 131.0, 0.99352, 3.09, 0.33, 11.7], [8.2, 0.22, 0.36, 6.8, 0.034, 12.0, 90.0, 0.9944, 3.01, 0.38, 10.5], [8.3, 0.2, 0.49, 1.7, 0.04, 34.0, 169.0, 0.9938, 3.05, 0.37, 10.1], [7.4, 0.33, 0.26, 15.6, 0.049, 67.0, 210.0, 0.99907, 3.06, 0.68, 9.5], [6.4, 0.29, 0.32, 2.4, 0.014, 34.0, 89.0, 0.99008, 3.24, 0.66, 12.5], [5.6, 0.27, 0.37, 0.9, 0.025, 11.0, 49.0, 0.98845, 3.29, 0.33, 13.1], [5.0, 0.27, 0.32, 4.5, 0.032, 58.0, 178.0, 0.98956, 3.45, 0.31, 12.6], [6.3, 0.23, 0.33, 6.9, 0.052, 23.0, 118.0, 0.9938, 3.23, 0.46, 10.4], [6.8, 0.23, 0.33, 1.9, 0.047, 20.0, 101.0, 0.9914, 3.1, 0.46, 11.1], [7.1, 0.29, 0.49, 1.2, 0.031, 32.0, 99.0, 0.9893, 3.07, 0.33, 12.2], [6.6, 0.545, 0.04, 2.5, 0.031, 48.0, 111.0, 0.9906, 3.14, 0.32, 11.9], [6.2, 0.36, 0.14, 8.9, 0.036, 38.0, 155.0, 0.99622, 3.27, 0.5, 9.4], [7.0, 0.21, 0.28, 7.5, 0.07, 45.0, 185.0, 0.9966, 3.34, 0.55, 9.4], [7.6, 0.29, 0.26, 6.5, 0.042, 32.0, 160.0, 0.9944, 3.14, 0.47, 10.7], [5.9, 0.25, 0.27, 1.5, 0.029, 37.0, 81.0, 0.9892, 3.2, 0.46, 12.2], [6.9, 0.19, 0.28, 3.0, 0.054, 33.0, 99.0, 0.9924, 3.16, 0.4, 10.8], [7.0, 0.26, 0.26, 10.8, 0.039, 37.0, 184.0, 0.99787, 3.47, 0.58, 10.3], [6.0, 0.38, 0.26, 3.5, 0.035, 38.0, 111.0, 0.98872, 3.18, 0.47, 13.6], [7.0, 0.32, 0.27, 7.1, 0.027, 37.0, 122.0, 0.99165, 3.15, 0.6, 12.6], [8.0, 0.26, 0.28, 4.8, 0.05, 34.0, 150.0, 0.99437, 3.13, 0.5, 10.0], [6.0, 0.28, 0.34, 1.6, 0.119, 33.0, 104.0, 0.9921, 3.19, 0.38, 10.2], [6.4, 0.29, 0.57, 1.0, 0.06, 15.0, 120.0, 0.9924, 3.06, 0.41, 9.5], [6.2, 0.2, 0.28, 1.1, 0.039, 24.0, 78.0, 0.9899, 3.36, 0.47, 12.1], [7.1, 0.26, 0.37, 5.5, 0.025, 31.0, 105.0, 0.99082, 3.06, 0.33, 12.6], [6.6, 0.42, 0.33, 2.8, 0.034, 15.0, 85.0, 0.99, 3.28, 0.51, 13.4], [6.8, 0.39, 0.35, 11.6, 0.044, 57.0, 220.0, 0.99775, 3.07, 0.53, 9.3], [7.7, 0.275, 0.3, 1.0, 0.039, 19.0, 75.0, 0.992, 3.01, 0.56, 10.7], [7.2, 0.26, 0.26, 12.7, 0.036, 49.0, 214.0, 0.9986, 3.41, 0.5, 10.0], [5.9, 0.27, 0.27, 5.0, 0.035, 14.0, 97.0, 0.99058, 3.1, 0.33, 11.8], [6.4, 0.26, 0.43, 12.6, 0.033, 64.0, 230.0, 0.9974, 3.08, 0.38, 8.9], [7.3, 0.33, 0.4, 6.85, 0.038, 32.0, 138.0, 0.992, 3.03, 0.3, 11.9], [6.9, 0.4, 0.43, 6.2, 0.065, 42.0, 178.0, 0.99552, 3.11, 0.53, 9.4], [5.6, 0.29, 0.05, 0.8, 0.038, 11.0, 30.0, 0.9924, 3.36, 0.35, 9.2], [6.0, 0.28, 0.49, 6.8, 0.048, 61.0, 222.0, 0.9953, 3.19, 0.47, 9.3], [6.2, 0.21, 0.27, 1.7, 0.038, 41.0, 150.0, 0.9933, 3.49, 0.71, 10.5], [8.9, 0.26, 0.33, 8.1, 0.024, 47.0, 202.0, 0.99558, 3.13, 0.46, 10.8], [6.2, 0.33, 0.27, 4.9, 0.036, 30.0, 134.0, 0.9927, 3.2, 0.42, 10.4], [6.8, 0.22, 0.32, 5.9, 0.054, 40.0, 152.0, 0.9938, 3.2, 0.57, 10.8], [6.0, 0.18, 0.27, 1.5, 0.089, 40.0, 143.0, 0.9923, 3.49, 0.62, 10.8], [7.8, 0.19, 0.32, 7.4, 0.015, 47.0, 124.0, 0.99278, 2.99, 0.39, 11.0], [6.8, 0.31, 0.42, 6.9, 0.046, 50.0, 173.0, 0.9958, 3.19, 0.46, 9.0], [6.2, 0.33, 0.14, 4.8, 0.052, 27.0, 128.0, 0.99475, 3.21, 0.48, 9.4], [6.6, 0.3, 0.25, 8.0, 0.036, 21.0, 124.0, 0.99362, 3.06, 0.38, 10.8], [7.1, 0.12, 0.3, 3.1, 0.018, 15.0, 37.0, 0.99004, 3.02, 0.52, 11.9], [7.6, 0.14, 0.74, 1.6, 0.04, 27.0, 103.0, 0.9916, 3.07, 0.4, 10.8], [6.5, 0.31, 0.14, 7.5, 0.044, 34.0, 133.0, 0.9955, 3.22, 0.5, 9.5], [7.8, 0.32, 0.31, 1.7, 0.036, 46.0, 195.0, 0.993, 3.03, 0.48, 10.5], [6.1, 0.29, 0.27, 1.7, 0.024, 13.0, 76.0, 0.9893, 3.21, 0.51, 12.6], [6.2, 0.27, 0.32, 6.3, 0.048, 47.0, 159.0, 0.99282, 3.21, 0.6, 11.0], [7.4, 0.21, 0.8, 12.3, 0.038, 77.0, 183.0, 0.99778, 2.95, 0.48, 9.0], [7.7, 0.11, 0.34, 14.05, 0.04, 41.0, 114.0, 0.99634, 3.07, 0.59, 11.0], [7.4, 0.155, 0.34, 2.3, 0.045, 73.5, 214.0, 0.9934, 3.18, 0.61, 9.9], [7.0, 0.31, 0.52, 1.7, 0.029, 5.0, 61.0, 0.9918, 3.07, 0.43, 10.4], [6.0, 0.44, 0.26, 3.1, 0.053, 57.0, 128.0, 0.98982, 3.22, 0.39, 12.7], [6.7, 0.53, 0.29, 4.3, 0.069, 20.0, 114.0, 0.99014, 3.22, 0.59, 13.4], [5.9, 0.24, 0.28, 1.3, 0.032, 36.0, 95.0, 0.98889, 3.08, 0.64, 12.9], [6.9, 0.22, 0.32, 9.3, 0.04, 22.0, 110.0, 0.9958, 3.34, 0.54, 10.7], [6.6, 0.21, 0.5, 8.7, 0.036, 41.0, 191.0, 0.99294, 2.96, 0.56, 11.0], [8.3, 0.4, 0.41, 8.2, 0.05, 15.0, 122.0, 0.9979, 3.39, 0.49, 9.3], [6.6, 0.26, 0.28, 9.4, 0.028, 13.0, 121.0, 0.99254, 3.17, 0.34, 12.1], [6.7, 0.41, 0.24, 5.4, 0.035, 33.0, 115.0, 0.9901, 3.12, 0.44, 12.8933333333333], [7.0, 0.45, 0.34, 19.8, 0.04, 12.0, 67.0, 0.9976, 3.07, 0.38, 11.0], [7.3, 0.3, 0.22, 6.4, 0.056, 44.0, 168.0, 0.9947, 3.13, 0.35, 10.1], [6.8, 0.26, 0.34, 13.9, 0.034, 39.0, 134.0, 0.9949, 3.33, 0.53, 12.0], [5.0, 0.455, 0.18, 1.9, 0.036, 33.0, 106.0, 0.98746, 3.21, 0.83, 14.0], [6.6, 0.28, 0.42, 8.2, 0.044, 60.0, 196.0, 0.99562, 3.14, 0.48, 9.4], [6.9, 0.32, 0.13, 7.8, 0.042, 11.0, 117.0, 0.996, 3.23, 0.37, 9.2], [6.0, 0.16, 0.3, 6.7, 0.043, 43.0, 153.0, 0.9951, 3.63, 0.46, 10.6], [8.5, 0.28, 0.34, 13.8, 0.041, 32.0, 161.0, 0.9981, 3.13, 0.4, 9.9], [6.9, 0.25, 0.24, 3.6, 0.057, 13.0, 85.0, 0.9942, 2.99, 0.48, 9.5], [6.8, 0.18, 0.28, 8.7, 0.047, 52.0, 242.0, 0.9952, 3.22, 0.53, 10.5], [5.7, 0.27, 0.32, 1.2, 0.046, 20.0, 155.0, 0.9934, 3.8, 0.41, 10.2], [7.3, 0.22, 0.4, 14.75, 0.042, 44.5, 129.5, 0.9998, 3.36, 0.41, 9.1], [7.0, 0.2, 0.34, 2.1, 0.049, 12.0, 136.0, 0.9922, 3.25, 0.46, 11.6], [6.1, 0.16, 0.34, 6.1, 0.034, 31.0, 114.0, 0.99365, 3.32, 0.58, 10.1333333333333], [7.4, 0.15, 0.42, 1.7, 0.045, 49.0, 154.0, 0.992, 3.0, 0.6, 10.4], [6.6, 0.36, 0.28, 6.1, 0.029, 12.0, 93.0, 0.99054, 3.19, 0.27, 12.8], [6.4, 0.26, 0.22, 5.1, 0.037, 23.0, 131.0, 0.9944, 3.29, 0.32, 10.1], [5.9, 0.48, 0.3, 1.5, 0.037, 19.0, 78.0, 0.99057, 3.47, 0.42, 11.9], [6.1, 0.14, 0.25, 1.3, 0.047, 37.0, 173.0, 0.9925, 3.35, 0.46, 10.0], [6.0, 0.21, 0.29, 13.1, 0.042, 28.0, 125.0, 0.99936, 3.39, 0.45, 8.6], [6.4, 0.28, 0.45, 8.6, 0.057, 47.0, 223.0, 0.99654, 3.16, 0.51, 9.1], [5.1, 0.26, 0.33, 1.1, 0.027, 46.0, 113.0, 0.98946, 3.35, 0.43, 11.4], [7.8, 0.27, 0.58, 11.2, 0.036, 44.0, 161.0, 0.9977, 3.06, 0.41, 8.9], [6.8, 0.24, 0.33, 3.2, 0.049, 68.0, 161.0, 0.99324, 3.1, 0.69, 10.2], [6.3, 0.27, 0.37, 7.9, 0.047, 58.0, 215.0, 0.99542, 3.19, 0.48, 9.5], [7.4, 0.16, 0.3, 13.7, 0.056, 33.0, 168.0, 0.99825, 2.9, 0.44, 8.7], [6.4, 0.23, 0.32, 1.9, 0.038, 40.0, 118.0, 0.99074, 3.32, 0.53, 11.8], [7.2, 0.21, 0.36, 15.7, 0.045, 68.0, 183.0, 0.99922, 3.25, 0.76, 9.4], [7.1, 0.13, 0.4, 1.2, 0.047, 54.0, 134.0, 0.9932, 3.3, 0.97, 9.8], [5.6, 0.13, 0.27, 4.8, 0.028, 22.0, 104.0, 0.9948, 3.34, 0.45, 9.2], [7.5, 0.23, 0.32, 9.2, 0.038, 54.0, 191.0, 0.9966, 3.04, 0.56, 9.7], [8.0, 0.22, 0.42, 14.6, 0.044, 45.0, 163.0, 1.0003, 3.21, 0.69, 8.6], [6.2, 0.15, 0.46, 1.6, 0.039, 38.0, 123.0, 0.993, 3.38, 0.51, 9.7], [6.6, 0.22, 0.28, 12.05, 0.058, 25.0, 125.0, 0.99856, 3.45, 0.45, 9.4], [6.2, 0.25, 0.25, 1.4, 0.03, 35.0, 105.0, 0.9912, 3.3, 0.44, 11.1], [7.1, 0.28, 0.26, 2.8, 0.039, 50.0, 118.0, 0.9908, 3.06, 0.59, 11.2], [6.6, 0.25, 0.35, 2.9, 0.034, 38.0, 121.0, 0.99008, 3.19, 0.4, 12.8], [5.9, 0.37, 0.14, 6.3, 0.036, 34.0, 185.0, 0.9944, 3.17, 0.63, 9.8], [6.2, 0.55, 0.45, 12.0, 0.049, 27.0, 186.0, 0.9974, 3.17, 0.5, 9.3], [7.0, 0.31, 0.29, 1.4, 0.037, 33.0, 128.0, 0.9896, 3.12, 0.36, 12.2], [6.2, 0.25, 0.44, 15.8, 0.057, 39.0, 167.0, 0.99804, 3.14, 0.51, 9.2], [6.8, 0.34, 0.36, 8.9, 0.029, 44.0, 128.0, 0.99318, 3.28, 0.35, 11.95], [6.7, 0.27, 0.25, 8.0, 0.053, 54.0, 202.0, 0.9961, 3.22, 0.43, 9.3], [6.5, 0.25, 0.32, 9.9, 0.045, 41.0, 128.0, 0.99636, 3.18, 0.52, 9.6], [6.9, 0.29, 0.23, 8.6, 0.056, 56.0, 215.0, 0.9967, 3.17, 0.44, 8.8], [6.4, 0.29, 0.44, 3.6, 0.197, 75.0, 183.0, 0.9942, 3.01, 0.38, 9.1], [6.3, 0.28, 0.3, 6.6, 0.208, 60.0, 154.0, 0.99478, 3.1, 0.4, 9.4], [7.8, 0.43, 0.49, 13.0, 0.033, 37.0, 158.0, 0.9955, 3.14, 0.35, 11.3], [5.4, 0.595, 0.1, 2.8, 0.042, 26.0, 80.0, 0.9932, 3.36, 0.38, 9.3], [7.7, 0.35, 0.46, 11.8, 0.088, 61.0, 183.0, 0.99786, 2.86, 0.47, 9.0], [6.7, 0.24, 0.29, 6.8, 0.038, 54.0, 127.0, 0.9932, 3.33, 0.46, 11.6], [8.0, 0.19, 0.3, 2.0, 0.053, 48.0, 140.0, 0.994, 3.18, 0.49, 9.6], [7.4, 0.34, 0.28, 12.1, 0.049, 31.0, 149.0, 0.99677, 3.22, 0.49, 10.3], [6.9, 0.29, 0.16, 6.8, 0.034, 65.0, 212.0, 0.9955, 3.08, 0.39, 9.0], [6.7, 0.23, 0.31, 2.1, 0.046, 30.0, 96.0, 0.9926, 3.33, 0.64, 10.7], [6.1, 0.26, 0.51, 2.2, 0.05, 61.0, 154.0, 0.9929, 3.08, 0.6, 9.8], [7.3, 0.14, 0.49, 1.1, 0.038, 28.0, 99.0, 0.9928, 3.2, 0.72, 10.6], [6.0, 0.34, 0.66, 15.9, 0.046, 26.0, 164.0, 0.9979, 3.14, 0.5, 8.8], [6.8, 0.17, 0.36, 1.4, 0.036, 38.0, 108.0, 0.99006, 3.19, 0.66, 12.0], [8.1, 0.28, 0.39, 1.9, 0.029, 18.0, 79.0, 0.9923, 3.23, 0.52, 11.8], [7.2, 0.2, 0.61, 16.2, 0.043, 14.0, 103.0, 0.9987, 3.06, 0.36, 9.2], [6.4, 0.38, 0.19, 4.5, 0.038, 36.0, 119.0, 0.99151, 3.07, 0.42, 11.2], [6.8, 0.3, 0.24, 6.6, 0.123, 35.0, 116.0, 0.9953, 3.07, 0.48, 9.4], [6.8, 0.32, 0.32, 8.7, 0.029, 31.0, 105.0, 0.99146, 3.0, 0.34, 12.3], [6.4, 0.23, 0.33, 1.15, 0.044, 15.5, 217.5, 0.992, 3.33, 0.44, 11.0], [6.1, 0.41, 0.2, 12.6, 0.032, 54.0, 136.0, 0.99516, 2.91, 0.43, 10.6], [5.4, 0.17, 0.27, 2.7, 0.049, 28.0, 104.0, 0.99224, 3.46, 0.55, 10.3], [6.8, 0.32, 0.21, 2.2, 0.044, 15.0, 68.0, 0.9932, 3.17, 0.39, 9.4], [6.9, 0.19, 0.6, 4.0, 0.037, 6.0, 122.0, 0.99255, 2.92, 0.59, 10.4], [5.6, 0.22, 0.32, 1.2, 0.024, 29.0, 97.0, 0.98823, 3.2, 0.46, 13.05], [6.1, 0.34, 0.46, 4.7, 0.029, 21.0, 94.0, 0.991, 3.29, 0.62, 12.3], [6.4, 0.475, 0.06, 1.0, 0.03, 9.0, 131.0, 0.9904, 2.97, 0.29, 10.8], [6.2, 0.25, 0.31, 3.2, 0.03, 32.0, 150.0, 0.99014, 3.18, 0.31, 12.0], [6.2, 0.24, 0.29, 13.3, 0.039, 49.0, 130.0, 0.9952, 3.33, 0.46, 11.0], [7.2, 0.6, 0.2, 9.9, 0.07, 21.0, 174.0, 0.9971, 3.03, 0.54, 9.1], [6.8, 0.3, 0.24, 6.6, 0.123, 35.0, 116.0, 0.9953, 3.07, 0.48, 9.4], [6.8, 0.37, 0.28, 1.9, 0.024, 64.0, 106.0, 0.98993, 3.45, 0.6, 12.6], [7.6, 0.28, 0.39, 1.2, 0.038, 21.0, 115.0, 0.994, 3.16, 0.67, 10.0], [6.2, 0.28, 0.45, 7.5, 0.045, 46.0, 203.0, 0.99573, 3.26, 0.46, 9.2], [5.8, 0.18, 0.28, 1.3, 0.034, 9.0, 94.0, 0.99092, 3.21, 0.52, 11.2], [6.7, 0.24, 0.36, 8.4, 0.042, 42.0, 123.0, 0.99473, 3.34, 0.52, 10.9], [7.5, 0.29, 0.67, 8.1, 0.037, 53.0, 166.0, 0.9966, 2.9, 0.41, 8.9], [7.9, 0.22, 0.38, 8.0, 0.043, 46.0, 152.0, 0.9934, 3.12, 0.32, 11.5], [6.1, 0.22, 0.4, 1.85, 0.031, 25.0, 111.0, 0.98966, 3.03, 0.3, 11.8], [7.8, 0.15, 0.34, 1.1, 0.035, 31.0, 93.0, 0.99096, 3.07, 0.72, 11.3], [7.3, 0.32, 0.29, 1.5, 0.038, 32.0, 144.0, 0.99296, 3.2, 0.55, 10.8], [6.2, 0.27, 0.26, 12.1, 0.046, 43.0, 127.0, 0.9951, 3.16, 0.37, 10.8], [6.6, 0.35, 0.29, 14.4, 0.044, 54.0, 177.0, 0.9991, 3.17, 0.58, 8.9], [7.1, 0.21, 0.27, 8.6, 0.056, 26.0, 111.0, 0.9956, 2.95, 0.52, 9.5], [6.0, 0.17, 0.36, 1.7, 0.042, 14.0, 61.0, 0.99144, 3.22, 0.54, 10.8], [6.6, 0.19, 0.35, 1.5, 0.037, 37.0, 107.0, 0.99006, 3.18, 0.68, 12.0], [6.9, 0.19, 0.32, 7.9, 0.042, 30.0, 130.0, 0.99456, 3.4, 0.39, 10.5], [5.7, 0.24, 0.47, 6.3, 0.069, 35.0, 182.0, 0.99391, 3.11, 0.46, 9.73333333333333], [6.5, 0.15, 0.44, 12.6, 0.052, 65.0, 158.0, 0.99688, 3.26, 0.7, 10.3], [7.4, 0.17, 0.4, 5.5, 0.037, 34.0, 161.0, 0.9935, 3.05, 0.62, 11.5], [6.2, 0.25, 0.21, 15.55, 0.039, 28.0, 159.0, 0.9982, 3.48, 0.64, 9.6], [6.4, 0.33, 0.3, 7.2, 0.041, 42.0, 168.0, 0.99331, 3.22, 0.49, 11.1], [5.7, 0.21, 0.24, 2.3, 0.047, 60.0, 189.0, 0.995, 3.65, 0.72, 10.1], [6.8, 0.34, 0.27, 5.2, 0.06, 14.0, 169.0, 0.99252, 3.27, 0.57, 11.6], [5.6, 0.28, 0.27, 3.9, 0.043, 52.0, 158.0, 0.99202, 3.35, 0.44, 10.7], [7.4, 0.25, 0.49, 1.1, 0.042, 35.0, 156.0, 0.9917, 3.13, 0.55, 11.3], [6.8, 0.28, 0.36, 8.0, 0.045, 28.0, 123.0, 0.9928, 3.02, 0.37, 11.4], [7.0, 0.16, 0.25, 14.3, 0.044, 27.0, 149.0, 0.998, 2.91, 0.46, 9.2], [4.7, 0.67, 0.09, 1.0, 0.02, 5.0, 9.0, 0.98722, 3.3, 0.34, 13.6], [6.2, 0.15, 0.27, 11.0, 0.035, 46.0, 116.0, 0.99602, 3.12, 0.38, 9.1], [8.9, 0.21, 0.37, 1.2, 0.028, 20.0, 93.0, 0.99244, 3.2, 0.37, 11.5], [6.3, 0.19, 0.21, 1.8, 0.049, 35.0, 163.0, 0.9924, 3.31, 0.5, 10.3], [6.6, 0.28, 0.3, 12.9, 0.033, 31.0, 177.0, 0.99479, 3.12, 0.39, 11.2], [7.0, 0.44, 0.24, 12.1, 0.056, 68.0, 210.0, 0.99718, 3.05, 0.5, 9.5], [6.3, 0.26, 0.29, 2.2, 0.043, 35.0, 175.0, 0.9918, 3.38, 0.43, 11.6], [6.4, 0.69, 0.09, 7.6, 0.044, 34.0, 144.0, 0.9948, 3.26, 0.38, 10.1], [7.8, 0.27, 0.58, 11.2, 0.036, 44.0, 161.0, 0.9977, 3.06, 0.41, 8.9], [7.7, 0.46, 0.18, 3.3, 0.054, 18.0, 143.0, 0.99392, 3.12, 0.51, 10.8], [6.1, 0.17, 0.29, 1.1, 0.041, 32.0, 92.0, 0.99036, 3.26, 0.57, 11.2], [8.8, 0.27, 0.25, 5.0, 0.024, 52.0, 99.0, 0.9925, 2.87, 0.49, 11.4], [6.2, 0.37, 0.24, 6.1, 0.032, 19.0, 86.0, 0.98934, 3.04, 0.26, 13.4], [6.6, 0.24, 0.28, 1.8, 0.028, 39.0, 132.0, 0.99182, 3.34, 0.46, 11.4], [6.9, 0.28, 0.28, 12.2, 0.042, 52.0, 139.0, 0.99522, 3.03, 0.56, 10.4], [6.4, 0.18, 0.74, 11.9, 0.046, 54.0, 168.0, 0.9978, 3.58, 0.68, 10.1], [7.0, 0.3, 0.28, 2.2, 0.042, 21.0, 177.0, 0.99166, 3.2, 0.57, 11.4], [6.5, 0.27, 0.4, 10.0, 0.039, 74.0, 227.0, 0.99582, 3.18, 0.5, 9.4], [6.9, 0.33, 0.26, 5.0, 0.027, 46.0, 143.0, 0.9924, 3.25, 0.43, 11.2], [5.7, 0.28, 0.3, 3.9, 0.026, 36.0, 105.0, 0.98963, 3.26, 0.58, 12.75], [6.0, 0.34, 0.66, 15.9, 0.046, 26.0, 164.0, 0.9979, 3.14, 0.5, 8.8], [6.2, 0.33, 0.19, 5.6, 0.042, 22.0, 143.0, 0.99425, 3.15, 0.63, 9.9], [5.3, 0.43, 0.11, 1.1, 0.029, 6.0, 51.0, 0.99076, 3.51, 0.48, 11.2], [6.7, 0.31, 0.3, 2.4, 0.038, 30.0, 83.0, 0.98867, 3.09, 0.36, 12.8], [5.8, 0.385, 0.25, 3.7, 0.031, 38.0, 122.0, 0.99128, 3.2, 0.63, 11.2], [6.8, 0.28, 0.4, 22.0, 0.048, 48.0, 167.0, 1.001, 2.93, 0.5, 8.7], [8.3, 0.26, 0.41, 9.2, 0.042, 41.0, 162.0, 0.9944, 3.1, 0.38, 12.0], [6.3, 0.32, 0.26, 12.0, 0.049, 63.0, 170.0, 0.9961, 3.14, 0.55, 9.9], [6.4, 0.31, 0.27, 7.4, 0.049, 48.0, 169.0, 0.99323, 3.27, 0.45, 11.1], [6.9, 0.12, 0.36, 2.2, 0.037, 18.0, 111.0, 0.9919, 3.41, 0.82, 11.9], [7.2, 0.24, 0.29, 2.2, 0.037, 37.0, 102.0, 0.992, 3.27, 0.64, 11.0], [5.3, 0.275, 0.24, 7.4, 0.038, 28.0, 114.0, 0.99313, 3.38, 0.51, 11.0], [5.8, 0.3, 0.33, 3.5, 0.033, 25.0, 116.0, 0.99057, 3.2, 0.44, 11.7], [8.1, 0.2, 0.49, 11.8, 0.048, 46.0, 212.0, 0.9968, 3.09, 0.46, 10.0], [7.2, 0.25, 0.32, 1.5, 0.047, 27.0, 132.0, 0.9933, 3.26, 0.44, 10.5], [7.6, 0.32, 0.58, 16.75, 0.05, 43.0, 163.0, 0.9999, 3.15, 0.54, 9.2], [6.9, 0.22, 0.43, 6.4, 0.042, 34.0, 115.0, 0.99293, 3.05, 0.51, 10.8], [4.9, 0.345, 0.34, 1.0, 0.068, 32.0, 143.0, 0.99138, 3.24, 0.4, 10.1], [6.2, 0.3, 0.21, 1.1, 0.032, 31.0, 111.0, 0.9889, 2.97, 0.42, 12.2], [6.8, 0.27, 0.49, 1.2, 0.044, 35.0, 126.0, 0.99, 3.13, 0.48, 12.1], [5.1, 0.31, 0.3, 0.9, 0.037, 28.0, 152.0, 0.992, 3.54, 0.56, 10.1], [6.8, 0.27, 0.3, 13.0, 0.047, 69.0, 160.0, 0.99705, 3.16, 0.5, 9.6], [5.0, 0.24, 0.21, 2.2, 0.039, 31.0, 100.0, 0.99098, 3.69, 0.62, 11.7], [7.4, 0.22, 0.33, 2.0, 0.045, 31.0, 101.0, 0.9931, 3.42, 0.55, 11.4], [6.3, 0.18, 0.22, 1.5, 0.043, 45.0, 155.0, 0.99238, 3.19, 0.48, 10.2], [7.0, 0.46, 0.2, 16.7, 0.046, 50.0, 184.0, 0.99898, 3.08, 0.56, 9.4], [6.6, 0.23, 0.2, 11.4, 0.044, 45.0, 131.0, 0.99604, 2.96, 0.51, 9.7], [6.2, 0.31, 0.23, 3.3, 0.052, 34.0, 113.0, 0.99429, 3.16, 0.48, 8.4], [7.2, 0.21, 0.36, 15.7, 0.045, 68.0, 183.0, 0.99922, 3.25, 0.76, 9.4], [5.7, 0.27, 0.16, 9.0, 0.053, 32.0, 111.0, 0.99474, 3.36, 0.37, 10.4], [8.4, 0.27, 0.46, 8.7, 0.048, 39.0, 197.0, 0.9974, 3.14, 0.59, 9.6], [6.2, 0.44, 0.18, 7.7, 0.096, 28.0, 210.0, 0.99771, 3.56, 0.72, 9.2], [6.8, 0.3, 0.35, 2.8, 0.038, 10.0, 164.0, 0.9912, 3.09, 0.53, 12.0], [6.5, 0.36, 0.49, 2.9, 0.03, 16.0, 94.0, 0.9902, 3.1, 0.49, 12.1], [6.4, 0.16, 0.44, 1.2, 0.051, 39.0, 122.0, 0.99058, 3.11, 0.75, 11.3], [7.6, 0.27, 0.34, 5.0, 0.04, 18.0, 56.0, 0.99084, 3.06, 0.48, 12.4], [7.0, 0.21, 0.28, 8.6, 0.045, 37.0, 221.0, 0.9954, 3.25, 0.54, 10.4], [7.1, 0.26, 0.29, 12.4, 0.044, 62.0, 240.0, 0.9969, 3.04, 0.42, 9.2], [9.8, 0.16, 0.46, 1.8, 0.046, 23.0, 130.0, 0.99587, 3.04, 0.67, 9.6], [8.0, 0.22, 0.32, 10.4, 0.043, 63.0, 201.0, 0.997, 3.11, 0.53, 9.5], [9.2, 0.23, 0.35, 10.7, 0.037, 34.0, 145.0, 0.9981, 3.09, 0.32, 9.7], [6.6, 0.22, 0.36, 5.5, 0.029, 30.0, 105.0, 0.99206, 3.2, 0.47, 11.8], [7.4, 0.19, 0.3, 12.8, 0.053, 48.5, 229.0, 0.9986, 3.14, 0.49, 9.1], [8.2, 0.23, 0.49, 0.9, 0.057, 15.0, 73.0, 0.9928, 3.07, 0.38, 10.4], [6.8, 0.22, 0.31, 1.4, 0.053, 34.0, 114.0, 0.9929, 3.39, 0.77, 10.6], [6.6, 0.21, 0.31, 11.4, 0.039, 46.0, 165.0, 0.99795, 3.41, 0.44, 9.8], [7.1, 0.38, 0.29, 13.6, 0.041, 30.0, 137.0, 0.99461, 3.02, 0.96, 12.1], [6.7, 0.31, 0.18, 7.7, 0.043, 57.0, 200.0, 0.99566, 3.17, 0.44, 9.4], [7.2, 0.15, 0.39, 1.8, 0.043, 21.0, 159.0, 0.9948, 3.52, 0.47, 10.0], [6.9, 0.18, 0.3, 2.0, 0.038, 39.0, 190.0, 0.9914, 3.32, 0.37, 12.2], [5.4, 0.23, 0.36, 1.5, 0.03, 74.0, 121.0, 0.98976, 3.24, 0.99, 12.1], [6.2, 0.19, 0.38, 5.1, 0.019, 22.0, 82.0, 0.98961, 3.05, 0.36, 12.5], [8.5, 0.19, 0.56, 17.3, 0.055, 47.0, 169.0, 1.00047, 3.07, 0.67, 9.3], [5.3, 0.3, 0.3, 1.2, 0.029, 25.0, 93.0, 0.98742, 3.31, 0.4, 13.6], [5.8, 0.28, 0.66, 9.1, 0.039, 26.0, 159.0, 0.9965, 3.66, 0.55, 10.8], [6.9, 0.25, 0.3, 4.1, 0.054, 23.0, 116.0, 0.994, 2.99, 0.38, 9.4], [6.4, 0.27, 0.17, 8.4, 0.044, 60.0, 198.0, 0.99578, 3.21, 0.47, 9.4], [5.8, 0.32, 0.31, 2.7, 0.049, 25.0, 153.0, 0.99067, 3.44, 0.73, 12.2], [6.3, 0.24, 0.22, 11.9, 0.05, 65.0, 179.0, 0.99659, 3.06, 0.58, 9.3], [6.9, 0.37, 0.28, 13.8, 0.031, 34.0, 137.0, 0.9948, 3.1, 0.37, 11.6], [6.7, 0.66, 0.0, 13.0, 0.033, 32.0, 75.0, 0.99551, 3.15, 0.5, 10.7], [7.6, 0.26, 0.58, 7.9, 0.041, 62.0, 180.0, 0.9966, 3.07, 0.38, 9.0], [6.9, 0.23, 0.34, 2.7, 0.032, 24.0, 121.0, 0.9902, 3.14, 0.38, 12.4], [6.6, 0.41, 0.31, 1.6, 0.042, 18.0, 101.0, 0.99195, 3.13, 0.41, 10.5], [6.3, 0.27, 0.37, 7.9, 0.047, 58.0, 215.0, 0.99542, 3.19, 0.48, 9.5], [6.4, 0.18, 0.74, 11.9, 0.046, 54.0, 168.0, 0.9978, 3.58, 0.68, 10.1], [7.9, 0.16, 0.3, 7.4, 0.05, 58.0, 152.0, 0.99612, 3.12, 0.37, 9.5], [7.7, 0.27, 0.61, 12.0, 0.046, 64.0, 179.0, 0.9982, 3.07, 0.46, 8.9], [6.3, 0.48, 0.48, 1.8, 0.035, 35.0, 96.0, 0.99121, 3.49, 0.74, 12.2], [7.6, 0.2, 0.3, 14.2, 0.056, 53.0, 212.5, 0.999, 3.14, 0.46, 8.9], [6.4, 0.28, 0.23, 6.0, 0.051, 50.0, 162.0, 0.994, 3.15, 0.52, 10.2], [8.3, 0.14, 0.34, 1.1, 0.042, 7.0, 47.0, 0.9934, 3.47, 0.4, 10.2], [7.4, 0.38, 0.34, 8.3, 0.052, 44.0, 168.0, 0.99627, 3.11, 0.52, 9.2], [6.1, 0.36, 0.58, 15.0, 0.044, 42.0, 115.0, 0.9978, 3.15, 0.51, 9.0], [5.4, 0.18, 0.24, 4.8, 0.041, 30.0, 113.0, 0.99445, 3.42, 0.4, 9.4], [8.2, 0.21, 0.32, 10.65, 0.053, 53.0, 145.0, 0.9972, 3.17, 0.48, 10.2], [6.7, 0.25, 0.34, 12.85, 0.048, 30.0, 161.0, 0.9986, 3.44, 0.47, 9.5], [7.5, 0.33, 0.39, 12.4, 0.065, 29.0, 119.0, 0.9974, 3.16, 0.39, 9.4], [8.6, 0.26, 0.41, 2.2, 0.049, 29.0, 111.0, 0.9941, 2.96, 0.44, 10.0], [6.2, 0.31, 0.26, 4.8, 0.037, 36.0, 148.0, 0.9928, 3.21, 0.41, 10.4], [6.3, 0.1, 0.24, 6.0, 0.039, 25.0, 107.0, 0.99511, 3.59, 0.49, 10.5], [6.6, 0.13, 0.29, 13.9, 0.056, 33.0, 95.0, 0.99702, 3.17, 0.39, 9.4], [6.8, 0.52, 0.26, 5.7, 0.038, 27.0, 130.0, 0.99, 3.11, 0.27, 13.0], [6.1, 0.28, 0.22, 1.8, 0.034, 32.0, 116.0, 0.9898, 3.36, 0.44, 12.6], [7.5, 0.21, 0.29, 1.5, 0.046, 35.0, 107.0, 0.99123, 3.15, 0.45, 11.3], [6.8, 0.35, 0.44, 6.5, 0.056, 31.0, 161.0, 0.9952, 3.14, 0.44, 9.5], [7.7, 0.39, 0.28, 4.9, 0.035, 36.0, 109.0, 0.9918, 3.19, 0.58, 12.2], [5.8, 0.2, 0.24, 1.4, 0.033, 65.0, 169.0, 0.99043, 3.59, 0.56, 12.3], [5.7, 0.32, 0.5, 2.6, 0.049, 17.0, 155.0, 0.9927, 3.22, 0.64, 10.0], [5.7, 0.44, 0.13, 7.0, 0.025, 28.0, 173.0, 0.9913, 3.33, 0.48, 12.5], [5.3, 0.76, 0.03, 2.7, 0.043, 27.0, 93.0, 0.9932, 3.34, 0.38, 9.2], [6.8, 0.26, 0.56, 11.9, 0.043, 64.0, 226.0, 0.997, 3.02, 0.63, 9.3], [6.4, 0.21, 0.5, 11.6, 0.042, 45.0, 153.0, 0.9972, 3.15, 0.43, 8.8], [7.5, 0.21, 0.34, 1.2, 0.06, 26.0, 111.0, 0.9931, 3.51, 0.47, 10.7], [7.2, 0.25, 0.39, 18.95, 0.038, 42.0, 155.0, 0.9999, 2.97, 0.47, 9.0], [6.9, 0.33, 0.31, 7.7, 0.04, 29.0, 135.0, 0.99226, 3.11, 0.57, 12.3], [6.2, 0.255, 0.24, 1.7, 0.039, 138.5, 272.0, 0.99452, 3.53, 0.53, 9.6], [6.4, 0.16, 0.42, 1.0, 0.036, 29.0, 113.0, 0.9908, 3.18, 0.52, 11.0], [6.8, 0.27, 0.24, 4.6, 0.098, 36.0, 127.0, 0.99412, 3.15, 0.49, 9.6], [6.3, 0.23, 0.49, 7.1, 0.05, 67.0, 210.0, 0.9951, 3.23, 0.34, 9.5], [7.3, 0.41, 0.24, 6.8, 0.057, 41.0, 163.0, 0.9949, 3.2, 0.41, 9.9], [6.6, 0.16, 0.21, 6.7, 0.055, 43.0, 157.0, 0.99384, 3.15, 0.52, 10.8], [6.8, 0.21, 0.42, 1.2, 0.045, 24.0, 126.0, 0.99234, 3.09, 0.87, 10.9], [7.3, 0.26, 0.49, 5.0, 0.028, 32.0, 107.0, 0.9936, 3.24, 0.54, 10.8], [5.9, 0.26, 0.21, 12.5, 0.034, 36.0, 152.0, 0.9972, 3.28, 0.43, 9.5], [7.5, 0.29, 0.31, 8.95, 0.055, 20.0, 151.0, 0.9968, 3.08, 0.54, 9.3], [6.7, 0.22, 0.39, 1.2, 0.049, 26.0, 152.0, 0.99346, 3.5, 0.47, 10.0], [7.3, 0.17, 0.36, 8.2, 0.028, 44.0, 111.0, 0.99272, 3.14, 0.41, 12.4], [6.3, 0.25, 0.44, 11.6, 0.041, 48.0, 195.0, 0.9968, 3.18, 0.52, 9.5], [5.6, 0.32, 0.33, 7.4, 0.037, 25.0, 95.0, 0.99268, 3.25, 0.49, 11.1], [6.9, 0.19, 0.35, 1.7, 0.036, 33.0, 101.0, 0.99315, 3.21, 0.54, 10.8], [7.7, 0.3, 0.26, 18.95, 0.053, 36.0, 174.0, 0.99976, 3.2, 0.5, 10.4], [6.5, 0.46, 0.24, 11.5, 0.051, 56.0, 171.0, 0.99588, 3.08, 0.56, 9.8], [7.2, 0.22, 0.28, 7.2, 0.06, 41.0, 132.0, 0.9935, 3.08, 0.59, 11.3], [5.9, 0.44, 0.36, 2.5, 0.03, 12.0, 73.0, 0.99201, 3.22, 0.48, 10.8], [7.4, 0.19, 0.3, 12.8, 0.053, 48.5, 229.0, 0.9986, 3.14, 0.49, 9.1], [7.0, 0.23, 0.26, 7.2, 0.041, 21.0, 90.0, 0.99509, 3.22, 0.55, 9.5], [6.8, 0.18, 0.38, 1.4, 0.038, 35.0, 111.0, 0.9918, 3.32, 0.59, 11.2], [7.2, 0.17, 0.37, 6.9, 0.059, 47.0, 128.0, 0.99322, 3.08, 0.46, 11.0], [7.1, 0.43, 0.61, 11.8, 0.045, 54.0, 155.0, 0.9974, 3.11, 0.45, 8.7], [6.5, 0.23, 0.2, 7.5, 0.05, 44.0, 179.0, 0.99504, 3.18, 0.48, 9.53333333333333], [7.9, 0.64, 0.46, 10.6, 0.244, 33.0, 227.0, 0.9983, 2.87, 0.74, 9.1], [6.8, 0.19, 0.71, 17.5, 0.042, 21.0, 114.0, 0.99784, 2.85, 0.5, 9.5], [5.7, 0.32, 0.38, 4.75, 0.033, 23.0, 94.0, 0.991, 3.42, 0.42, 11.8], [6.4, 0.24, 0.49, 5.8, 0.053, 25.0, 120.0, 0.9942, 3.01, 0.98, 10.5], [7.5, 0.28, 0.39, 10.2, 0.045, 59.0, 209.0, 0.9972, 3.16, 0.63, 9.6], [5.7, 0.1, 0.27, 1.3, 0.047, 21.0, 100.0, 0.9928, 3.27, 0.46, 9.5], [7.1, 0.46, 0.23, 13.7, 0.045, 44.0, 192.0, 0.9981, 3.11, 0.53, 9.4], [7.8, 0.22, 0.38, 10.3, 0.059, 28.0, 99.0, 0.9967, 3.12, 0.47, 10.0], [6.3, 0.22, 0.34, 1.2, 0.036, 32.0, 96.0, 0.98961, 3.06, 0.74, 11.6], [7.2, 0.3, 0.3, 8.1, 0.05, 40.0, 188.0, 0.99652, 3.15, 0.49, 9.1], [7.3, 0.26, 0.49, 5.0, 0.028, 32.0, 107.0, 0.9936, 3.24, 0.54, 10.8], [6.5, 0.2, 0.35, 3.9, 0.04, 27.0, 140.0, 0.99102, 2.98, 0.53, 11.8], [6.7, 0.28, 0.14, 1.4, 0.043, 64.0, 159.0, 0.992, 3.17, 0.39, 10.0], [7.1, 0.16, 0.36, 1.2, 0.043, 21.0, 90.0, 0.9925, 3.16, 0.42, 11.0], [7.9, 0.25, 0.29, 5.3, 0.031, 33.0, 117.0, 0.9918, 3.06, 0.32, 11.8], [6.9, 0.21, 0.24, 1.8, 0.021, 17.0, 80.0, 0.98992, 3.15, 0.46, 12.3], [6.2, 0.36, 0.22, 5.25, 0.038, 44.0, 145.0, 0.99184, 3.22, 0.4, 11.2], [7.0, 0.48, 0.12, 4.5, 0.05, 23.0, 86.0, 0.99398, 2.86, 0.35, 9.0], [6.9, 0.25, 0.29, 2.4, 0.038, 28.0, 76.0, 0.99088, 3.01, 0.36, 11.7], [7.5, 0.41, 0.23, 14.8, 0.054, 28.0, 174.0, 0.99898, 3.18, 0.49, 9.7], [7.1, 0.15, 0.34, 5.3, 0.034, 33.0, 104.0, 0.9953, 3.37, 0.52, 9.3], [5.7, 0.26, 0.27, 4.1, 0.201, 73.5, 189.5, 0.9942, 3.27, 0.38, 9.4], [6.4, 0.33, 0.31, 5.5, 0.048, 42.0, 173.0, 0.9951, 3.19, 0.66, 9.3], [7.5, 0.34, 0.24, 3.85, 0.031, 5.0, 34.0, 0.99098, 3.01, 0.36, 11.8], [7.4, 0.155, 0.34, 2.3, 0.045, 73.5, 214.0, 0.9934, 3.18, 0.61, 9.9], [8.7, 0.24, 0.35, 0.6, 0.042, 11.0, 71.0, 0.9926, 3.08, 0.38, 10.6], [7.2, 0.23, 0.39, 14.2, 0.058, 49.0, 192.0, 0.9979, 2.98, 0.48, 9.0], [7.8, 0.17, 0.23, 1.7, 0.029, 39.0, 128.0, 0.99272, 3.37, 0.41, 10.7], [6.0, 0.19, 0.26, 1.4, 0.039, 30.0, 104.0, 0.98998, 3.32, 0.41, 12.4], [6.4, 0.28, 0.41, 6.8, 0.045, 61.0, 216.0, 0.9952, 3.09, 0.46, 9.4], [7.9, 0.345, 0.51, 15.3, 0.047, 54.0, 171.0, 0.9987, 3.09, 0.51, 9.1], [6.7, 0.46, 0.27, 5.2, 0.039, 35.0, 96.0, 0.99129, 3.16, 0.44, 12.4], [6.8, 0.53, 0.35, 3.8, 0.034, 26.0, 109.0, 0.9906, 3.26, 0.57, 12.7], [7.4, 0.18, 0.36, 13.1, 0.056, 72.0, 163.0, 1.0, 3.42, 0.35, 9.1], [6.7, 0.42, 0.39, 12.1, 0.04, 61.0, 248.0, 0.99794, 3.31, 0.58, 9.7], [6.9, 0.25, 0.24, 1.8, 0.053, 6.0, 121.0, 0.993, 3.23, 0.7, 11.4], [6.9, 0.32, 0.26, 8.3, 0.053, 32.0, 180.0, 0.9965, 3.25, 0.51, 9.2], [6.2, 0.36, 0.22, 5.25, 0.038, 44.0, 145.0, 0.99184, 3.22, 0.4, 11.2], [5.7, 0.23, 0.25, 7.95, 0.042, 16.0, 108.0, 0.99486, 3.44, 0.61, 10.3], [5.4, 0.255, 0.33, 1.2, 0.051, 29.0, 122.0, 0.99048, 3.37, 0.66, 11.3], [6.6, 0.3, 0.25, 8.0, 0.036, 21.0, 124.0, 0.99362, 3.06, 0.38, 10.8], [7.2, 0.27, 0.46, 18.75, 0.052, 45.0, 255.0, 1.0, 3.04, 0.52, 8.9], [7.1, 0.25, 0.28, 1.2, 0.04, 31.0, 111.0, 0.99174, 3.18, 0.53, 11.1], [7.5, 0.27, 0.36, 7.0, 0.036, 45.0, 164.0, 0.9939, 3.03, 0.33, 11.0], [7.0, 0.32, 0.24, 6.2, 0.048, 31.0, 228.0, 0.9957, 3.23, 0.62, 9.4], [7.9, 0.29, 0.39, 6.7, 0.036, 6.0, 117.0, 0.9938, 3.12, 0.42, 10.7], [7.6, 0.2, 0.26, 4.8, 0.033, 26.0, 76.0, 0.99076, 2.98, 0.49, 12.3], [6.5, 0.37, 0.3, 2.2, 0.033, 39.0, 107.0, 0.98894, 3.22, 0.53, 13.5], [7.7, 0.34, 0.28, 11.0, 0.04, 31.0, 117.0, 0.99815, 3.27, 0.29, 9.2], [6.3, 0.36, 0.5, 8.3, 0.053, 51.0, 202.0, 0.9955, 3.2, 0.51, 9.6], [7.0, 0.25, 0.29, 15.2, 0.047, 40.0, 171.0, 0.9982, 3.22, 0.45, 9.3], [7.2, 0.585, 0.2, 10.4, 0.086, 17.0, 94.0, 0.99681, 3.13, 0.4, 9.4], [9.2, 0.25, 0.34, 1.2, 0.026, 31.0, 93.0, 0.9916, 2.93, 0.37, 11.3], [7.6, 0.4, 0.27, 1.2, 0.053, 23.0, 193.0, 0.99164, 3.22, 0.38, 11.6], [6.4, 0.15, 0.44, 1.2, 0.043, 67.0, 150.0, 0.9907, 3.14, 0.73, 11.2], [7.1, 0.32, 0.24, 13.1, 0.05, 52.0, 204.0, 0.998, 3.1, 0.49, 8.8], [6.8, 0.21, 0.36, 18.1, 0.046, 32.0, 133.0, 1.0, 3.27, 0.48, 8.8], [6.1, 0.35, 0.07, 1.4, 0.069, 22.0, 108.0, 0.9934, 3.23, 0.52, 9.2], [6.8, 0.26, 0.48, 6.2, 0.049, 55.0, 182.0, 0.99582, 3.21, 0.45, 9.4], [6.8, 0.26, 0.29, 11.9, 0.052, 54.0, 160.0, 0.99546, 3.03, 0.58, 10.4], [6.6, 0.285, 0.49, 11.4, 0.035, 57.0, 137.0, 0.99732, 3.08, 0.54, 8.9], [7.9, 0.35, 0.36, 1.6, 0.038, 11.0, 124.0, 0.9928, 3.25, 0.48, 11.0], [6.2, 0.43, 0.49, 6.4, 0.045, 12.0, 115.0, 0.9963, 3.27, 0.57, 9.0], [6.1, 0.34, 0.21, 5.0, 0.042, 17.0, 133.0, 0.99373, 3.02, 0.53, 9.4], [7.1, 0.26, 0.34, 14.4, 0.067, 35.0, 189.0, 0.9986, 3.07, 0.53, 9.1], [7.7, 0.2, 0.44, 13.9, 0.05, 44.0, 130.0, 0.99855, 3.11, 0.48, 10.0], [7.0, 0.28, 0.33, 14.6, 0.043, 47.0, 168.0, 0.9994, 3.34, 0.67, 8.8], [6.4, 0.42, 0.19, 9.3, 0.043, 28.0, 145.0, 0.99433, 3.23, 0.53, 10.98], [7.4, 0.32, 0.22, 1.7, 0.051, 50.0, 179.0, 0.9955, 3.28, 0.69, 8.9], [9.2, 0.23, 0.3, 1.1, 0.031, 40.0, 99.0, 0.9929, 2.94, 0.3, 10.4], [5.8, 0.34, 0.21, 6.6, 0.04, 50.0, 167.0, 0.9941, 3.29, 0.62, 10.0], [9.2, 0.27, 0.34, 10.5, 0.043, 49.0, 228.0, 0.9974, 3.04, 0.41, 10.4], [6.7, 0.41, 0.34, 9.2, 0.049, 29.0, 150.0, 0.9968, 3.22, 0.51, 9.1], [7.3, 0.24, 0.34, 15.4, 0.05, 38.0, 174.0, 0.9983, 3.03, 0.42, 9.0], [5.8, 0.32, 0.31, 2.7, 0.049, 25.0, 153.0, 0.99067, 3.44, 0.73, 12.2], [6.3, 0.3, 0.19, 7.7, 0.049, 47.0, 184.0, 0.99514, 3.22, 0.48, 9.5], [6.0, 0.21, 0.38, 0.8, 0.02, 22.0, 98.0, 0.98941, 3.26, 0.32, 11.8], [6.8, 0.3, 0.27, 11.6, 0.028, 22.0, 97.0, 0.99314, 2.96, 0.38, 11.7], [8.5, 0.23, 0.4, 9.9, 0.036, 24.0, 88.0, 0.9951, 3.02, 0.42, 10.5], [7.1, 0.26, 0.32, 14.45, 0.074, 29.0, 107.0, 0.998, 2.96, 0.42, 9.2], [7.1, 0.17, 0.31, 1.6, 0.037, 15.0, 103.0, 0.991, 3.14, 0.5, 12.0], [6.6, 0.27, 0.25, 1.2, 0.033, 36.0, 111.0, 0.98918, 3.16, 0.37, 12.4], [7.7, 0.12, 0.32, 1.4, 0.06, 47.0, 150.0, 0.9952, 3.37, 0.42, 9.2], [6.2, 0.21, 0.34, 6.6, 0.03, 36.0, 91.0, 0.9914, 3.32, 0.45, 12.5], [7.6, 0.18, 0.49, 18.05, 0.046, 36.0, 158.0, 0.9996, 3.06, 0.41, 9.2], [7.0, 0.25, 0.33, 2.1, 0.021, 17.0, 76.0, 0.99021, 3.26, 0.45, 12.3], [6.1, 0.34, 0.24, 18.35, 0.05, 33.0, 184.0, 0.99943, 3.12, 0.61, 9.3], [5.5, 0.21, 0.25, 1.2, 0.04, 18.0, 75.0, 0.99006, 3.31, 0.56, 11.3], [6.1, 0.37, 0.2, 7.6, 0.031, 49.0, 170.0, 0.99558, 3.22, 0.48, 9.5], [7.0, 0.17, 0.42, 1.0, 0.075, 19.0, 71.0, 0.99103, 3.32, 0.62, 11.4], [7.1, 0.36, 0.37, 4.8, 0.019, 39.0, 114.0, 0.99036, 3.08, 0.49, 12.7], [6.4, 0.17, 0.27, 9.9, 0.047, 26.0, 101.0, 0.99596, 3.34, 0.5, 9.9], [7.4, 0.16, 0.3, 13.7, 0.056, 33.0, 168.0, 0.99825, 2.9, 0.44, 8.7], [6.5, 0.2, 0.33, 1.5, 0.039, 36.0, 110.0, 0.99008, 3.22, 0.65, 12.0], [8.4, 0.22, 0.3, 1.3, 0.038, 45.0, 122.0, 0.99178, 3.13, 0.54, 10.8], [6.4, 0.29, 0.18, 15.0, 0.04, 21.0, 116.0, 0.99736, 3.14, 0.5, 9.2], [7.6, 0.3, 0.27, 10.6, 0.039, 31.0, 119.0, 0.99815, 3.27, 0.3, 9.3], [6.5, 0.39, 0.81, 1.2, 0.217, 14.0, 74.0, 0.9936, 3.08, 0.53, 9.5], [6.4, 0.25, 0.41, 8.6, 0.042, 57.0, 173.0, 0.9965, 3.0, 0.44, 9.1], [7.3, 0.25, 0.36, 13.1, 0.05, 35.0, 200.0, 0.9986, 3.04, 0.46, 8.9], [7.7, 0.34, 0.58, 11.1, 0.039, 41.0, 151.0, 0.9978, 3.06, 0.49, 8.6], [6.2, 0.19, 0.29, 4.3, 0.045, 33.0, 126.0, 0.99658, 3.18, 0.42, 9.3], [6.0, 0.25, 0.4, 5.7, 0.052, 56.0, 152.0, 0.99398, 3.16, 0.88, 10.5], [8.6, 0.23, 0.46, 1.0, 0.054, 9.0, 72.0, 0.9941, 2.95, 0.49, 9.1], [7.5, 0.24, 0.31, 13.1, 0.05, 26.0, 180.0, 0.99884, 3.05, 0.53, 9.1], [8.3, 0.2, 0.49, 1.7, 0.04, 34.0, 169.0, 0.9938, 3.05, 0.37, 10.1], [6.4, 0.22, 0.34, 1.8, 0.057, 29.0, 104.0, 0.9959, 3.81, 0.57, 10.3], [5.1, 0.21, 0.28, 1.4, 0.047, 48.0, 148.0, 0.99168, 3.5, 0.49, 10.4], [7.2, 0.24, 0.19, 7.7, 0.045, 53.0, 176.0, 0.9958, 3.17, 0.38, 9.5], [6.4, 0.13, 0.28, 0.9, 0.045, 32.0, 87.0, 0.99175, 3.47, 0.52, 11.2], [5.7, 0.25, 0.27, 11.5, 0.04, 24.0, 120.0, 0.99411, 3.33, 0.31, 10.8], [7.4, 0.19, 0.3, 12.8, 0.053, 48.5, 229.0, 0.9986, 3.14, 0.49, 9.1], [7.1, 0.2, 0.31, 7.4, 0.053, 32.0, 211.0, 0.99587, 3.31, 0.59, 10.4], [7.8, 0.26, 0.49, 3.2, 0.027, 28.0, 87.0, 0.9919, 3.03, 0.32, 11.3], [6.8, 0.2, 0.38, 4.7, 0.04, 27.0, 103.0, 0.994, 3.37, 0.58, 10.7], [6.8, 0.27, 0.29, 4.6, 0.046, 6.0, 88.0, 0.99458, 3.34, 0.48, 10.6], [5.9, 0.2, 0.4, 1.3, 0.047, 23.0, 92.0, 0.99232, 3.2, 0.45, 10.0], [7.5, 0.42, 0.45, 9.1, 0.029, 20.0, 125.0, 0.996, 3.12, 0.36, 10.1], [6.1, 0.16, 0.37, 1.1, 0.031, 37.0, 97.0, 0.9922, 3.4, 0.58, 10.5], [6.9, 0.34, 0.49, 7.3, 0.045, 61.0, 206.0, 0.9957, 3.09, 0.4, 9.0], [7.2, 0.34, 0.2, 5.8, 0.062, 52.0, 203.0, 0.99461, 3.17, 0.44, 9.8], [6.0, 0.27, 0.15, 1.5, 0.056, 35.0, 128.0, 0.9936, 3.12, 0.45, 8.8], [6.8, 0.45, 0.28, 26.05, 0.031, 27.0, 122.0, 1.00295, 3.06, 0.42, 10.6], [7.7, 0.24, 0.27, 1.8, 0.051, 52.0, 190.0, 0.9928, 3.23, 0.5, 10.8], [7.9, 0.27, 0.27, 1.7, 0.034, 25.0, 122.0, 0.99088, 2.97, 0.51, 11.9], [7.7, 0.39, 0.28, 4.9, 0.035, 36.0, 109.0, 0.9918, 3.19, 0.58, 12.2], [7.0, 0.17, 0.74, 12.8, 0.045, 24.0, 126.0, 0.9942, 3.26, 0.38, 12.2], [7.1, 0.36, 0.2, 1.6, 0.271, 24.0, 140.0, 0.99356, 3.11, 0.63, 9.8], [6.3, 0.21, 0.28, 1.5, 0.051, 46.0, 142.0, 0.9928, 3.23, 0.42, 10.1], [7.8, 0.25, 0.37, 1.0, 0.043, 10.0, 80.0, 0.99128, 3.08, 0.38, 11.4], [7.3, 0.24, 0.29, 1.2, 0.037, 37.0, 97.0, 0.9926, 3.19, 0.7, 10.1], [6.5, 0.18, 0.41, 14.2, 0.039, 47.0, 129.0, 0.99678, 3.28, 0.72, 10.3], [7.3, 0.49, 0.32, 5.2, 0.043, 18.0, 104.0, 0.9952, 3.24, 0.45, 10.7], [7.0, 0.39, 0.31, 5.3, 0.169, 32.0, 162.0, 0.9965, 3.2, 0.48, 9.4], [7.3, 0.22, 0.37, 14.3, 0.063, 48.0, 191.0, 0.9978, 2.89, 0.38, 9.0], [6.6, 0.64, 0.28, 4.4, 0.032, 19.0, 78.0, 0.99036, 3.11, 0.62, 12.9], [6.7, 0.25, 0.23, 7.2, 0.038, 61.0, 220.0, 0.9952, 3.14, 0.35, 9.5], [6.9, 0.26, 0.27, 4.2, 0.031, 20.0, 80.0, 0.99089, 3.12, 0.39, 11.5], [6.7, 0.28, 0.42, 3.5, 0.035, 43.0, 105.0, 0.99021, 3.18, 0.38, 12.2], [6.0, 0.28, 0.52, 6.2, 0.028, 37.0, 104.0, 0.99161, 3.28, 0.51, 11.8], [6.4, 0.32, 0.27, 4.9, 0.034, 18.0, 122.0, 0.9916, 3.36, 0.71, 12.5], [7.6, 0.34, 0.39, 7.6, 0.04, 45.0, 215.0, 0.9965, 3.11, 0.53, 9.2], [5.7, 0.41, 0.21, 1.9, 0.048, 30.0, 112.0, 0.99138, 3.29, 0.55, 11.2], [7.3, 0.26, 0.33, 11.8, 0.057, 48.0, 127.0, 0.99693, 3.1, 0.55, 10.0], [6.3, 0.23, 0.3, 1.8, 0.033, 16.0, 91.0, 0.9906, 3.28, 0.4, 11.8], [9.2, 0.28, 0.41, 1.0, 0.042, 14.0, 59.0, 0.9922, 2.96, 0.25, 10.5], [6.6, 0.21, 0.3, 9.9, 0.041, 64.0, 174.0, 0.995, 3.07, 0.5, 10.1], [6.0, 0.33, 0.2, 1.8, 0.031, 49.0, 159.0, 0.9919, 3.41, 0.53, 11.0], [6.4, 0.29, 0.24, 3.2, 0.037, 31.0, 95.0, 0.98942, 2.9, 0.66, 12.6], [5.9, 0.415, 0.13, 1.4, 0.04, 11.0, 64.0, 0.9922, 3.29, 0.52, 10.5], [7.0, 0.3, 0.32, 6.4, 0.034, 28.0, 97.0, 0.9924, 3.23, 0.44, 11.8], [6.5, 0.33, 0.3, 3.8, 0.036, 34.0, 88.0, 0.99028, 3.25, 0.63, 12.5], [7.2, 0.615, 0.1, 1.4, 0.068, 25.0, 154.0, 0.99499, 3.2, 0.48, 9.7], [6.7, 0.35, 0.48, 8.8, 0.056, 35.0, 167.0, 0.99628, 3.04, 0.47, 9.4], [6.7, 0.21, 0.37, 2.5, 0.034, 35.0, 89.0, 0.9913, 3.25, 0.5, 11.0], [7.1, 0.32, 0.32, 11.0, 0.038, 16.0, 66.0, 0.9937, 3.24, 0.4, 11.5], [6.2, 0.21, 0.28, 5.7, 0.028, 45.0, 121.0, 0.99168, 3.21, 1.08, 12.15], [5.9, 0.46, 0.14, 2.7, 0.042, 27.0, 160.0, 0.9931, 3.46, 0.51, 10.6], [6.5, 0.13, 0.37, 1.0, 0.036, 48.0, 114.0, 0.9911, 3.41, 0.51, 11.5], [7.6, 0.31, 0.52, 13.2, 0.042, 61.0, 148.0, 0.99839, 2.98, 0.47, 9.1], [6.8, 0.17, 0.17, 5.1, 0.049, 26.0, 82.0, 0.993, 3.0, 0.38, 9.8], [8.3, 0.42, 0.62, 19.25, 0.04, 41.0, 172.0, 1.0002, 2.98, 0.67, 9.7], [6.8, 0.18, 0.3, 12.8, 0.062, 19.0, 171.0, 0.99808, 3.0, 0.52, 9.0], [6.7, 0.15, 0.29, 5.0, 0.058, 28.0, 105.0, 0.9946, 3.52, 0.44, 10.2], [8.0, 0.43, 0.4, 12.4, 0.168, 29.0, 190.0, 0.9991, 3.07, 0.64, 9.2], [7.7, 0.25, 0.49, 2.5, 0.047, 31.0, 169.0, 0.99252, 3.07, 0.57, 10.6], [6.4, 0.24, 0.32, 14.9, 0.047, 54.0, 162.0, 0.9968, 3.28, 0.5, 10.2], [5.7, 0.695, 0.06, 6.8, 0.042, 9.0, 84.0, 0.99432,