{"feature_names": ["fixed acidity", "volatile acidity", "citric acid", "residual sugar", "chlorides", "free sulfur dioxide", "total sulfur dioxide", "density", "pH", "sulphates", "alcohol"], "scaler": {"mean": [6.863827304550761, 0.27923424737456226, 0.3333051341890293, 6.419311551925315, 0.04563681446907852, 35.25554259043174, 138.198512252042, 0.9940530046674405, 3.1892823803967296, 0.4893290548424764, 10.50999319331003], "scale": [0.8474401335657354, 0.10157807479894226, 0.12047292654222934, 5.1466102169848025, 0.021628660609186504, 16.817601567659974, 41.97881981931537, 0.0030346322579600515, 0.1497651162307427, 0.11343200332146071, 1.229438549176109]}, "logistic_regression": {"coef": [-0.04941751821601008, -0.6653798932851626, -0.0026845196921322727, 0.6416810143235919, 0.04963819383032364, 0.19688647731586195, -0.057768946467611354, -0.46945874500456847, 0.1394222727524619, 0.18975540515657002, 1.1048717468393006], "intercept": 0.89429537374079}, "neural_network": {"weights": [[[0.04370999805952694, 0.3349091677108773, 0.2671634419600385, -0.28672313591792126, -0.4135270241062422, -0.03319202748584493, -0.20852453320766456, 0.13146824462211618, 0.12607714073191106, 0.42215161302725757, -0.572113400746316, 0.541815572946246, 0.37214455509253563, -0.39272204409622835, -0.2627738245395088, -0.08181365456388015, -0.07162813660485286, -0.3220502113696645, 0.07229463810584254, -0.20021122885877612, 0.4819755970117989, -0.08363012872296025, -0.07318454671657401, -0.42645039830790044, -0.024804766588689568, 0.0992106013406255, -0.1761557967952222, -0.07680754480149082, 0.2011472697445227, -0.6047887162151061, 0.2706956176566154, -0.13004106022902145, -0.3562311030349825, 0.22906687381905913, 0.5705554938704946, 0.26007605484462787, -0.037585835295062583, -0.23303199285148427, -0.24818850643474324, -0.24618067285898562, -0.16348259283764474, 0.2350946016218972, -0.5993174833680425, 0.3991567438313398, -0.4288579256627621, 0.10700098816092876, -0.30096962739465477, 0.09187282704718641, 0.23184990996677787, 0.06176879610069376, 0.36832576529900357, 0.23457357248408187, 0.5447332698984185, 0.5331736237291658, 0.0038898898893643514, 0.19018541139666353, -0.7280432783057086, -0.24684448495513014, -0.3397244599199835, -0.2100182439154121, -0.15749205998985494, -0.2797938332704652, 0.1515883725421405, -0.15952378811796372], [-0.21294575897605506, 0.011827103128247616, -0.42690940325382015, 0.06294241706379194, -0.42655192004205633, 0.4601275769832813, 0.1047883070188926, -0.5670819231896163, -0.2315661581009398, 0.1466755333452893, 0.3116591467398477, 0.5654815929572835, 0.1938567002528895, -0.4326636021794161, -0.4028985890081543, -0.3680482294708804, 0.4744099118424398, 0.12591031097565342, -0.4859461486618482, -0.26901987221143836, 0.03284195796145765, 0.002508396847255184, 0.45815502280663845, 0.05824341448831545, 0.3152830566665101, -0.16990534199570007, -0.7034557922754655, 0.22387756657608587, 0.10929777478414808, 0.18930691558796114, 0.5452569596684724, -0.11283852411587897, 0.3219285305133962, -0.07306065218694506, -0.5504834323354671, -0.21321529541861065, -0.38912809155364014, 0.1510221040553756, 0.08981839163861229, 0.15688353141005396, 0.5742118561369958, -0.2709063459045743, 0.0935241134943275, 0.2051360574865711, -0.002452391306465545, -0.7786155828491163, -0.3840738774021316, -0.160090941216331, 0.6168279996025202, 0.25531631510613667, 0.34911919728697616, 0.31803552641980914, 0.2181617877864693, -0.4233400040811441, 0.5718744605412046, 0.07233185051612531, 0.1272386534992552, 0.4598175066918434, -0.6339701663862969, -0.47859852379433915, 0.056012249630614866, -0.32418020502097117, 0.478228130449886, 0.0961334550959313], [-0.6380482523569605, 0.18309347437004736, 0.017412860341350856, -0.5433278826468299, -0.6891630815696812, 0.17988330377108483, 0.41560934999879984, -0.15677552078578905, 0.05843758843334584, 0.3698344939051504, 0.06678742840302493, 0.39479545071518735, 0.08732930496425542, -0.41445840663430994, -0.1376166353362478, -0.34789988834277424, -0.2083672227695827, -0.4761617175202861, -0.1814208256172141, 0.09833414412684248, -0.5110573117254855, -0.6256201563404825, 0.8039974695102812, -0.12550497018354906, -0.06255641668053487, 0.21683436545916365, 0.47630976508896083, -0.22272488532026397, 0.05514607285517644, 0.2124525369582939, -0.23017709315905327, 0.08039534246769582, -0.25900014414530714, 0.22258113333665433, 0.23657984672118323, 0.04107996504183728, -0.46671138625039155, 0.47199766631999407, -0.25514906704165685, -0.3381260716351483, -0.2614906374831375, 0.17661303749694798, 0.03296228804560895, -0.45339278249434123, -0.09919114921005424, -0.3331984197404897, 0.03207426123884499, -0.47148812424246783, 0.36401215099528994, 0.1473714935702933, 0.07911215413148093, -0.7620109462192781, -0.26128860727407777, -0.38225466024825616, 0.30206167302898856, 0.4985799553662189, -0.6472656731372322, 0.2957375421064997, 0.7056461781521174, -0.01826907071133812, 0.05798828635664349, 0.012960579762972378, -0.630435552817399, 0.18851523972574163], [0.15471695258695553, -0.40114583306091844, -0.20850747387325672, -0.34230245130026565, 0.04019768231228037, 0.3571779521682401, 0.3288428383576926, 0.17164537874899288, 0.22070311665647632, -0.6542574524611106, -0.25664477982973394, 0.6395563044814292, -0.07206822761944169, -0.39281846947351134, -0.2918357677951231, 0.23227822039555532, -0.5827873280900644, -0.3001927143501079, 0.10600340574749448, 0.3535971925403349, 0.038855164000127486, -0.24270195660445013, 0.3789979053996238, -0.31065232074331334, -0.4185682139255881, 0.23600100015134354, 0.42378347849951997, 0.21347026693967283, -0.004866603451978297, 0.21517621420285787, 0.036655637983627164, 0.06354463967196146, -0.39663698918273804, -0.23564251378383205, 0.11075492681403248, -0.06575718394858497, 0.49409680882235385, 0.21508936814050858, 0.49462902342825477, -0.14062682148175937, 0.1293565340594987, -0.003634804790595004, -0.05239179742119798, 0.25858308149464587, 0.0391244655359064, -0.306271694031255, 0.28070188930922857, -0.1345253371090632, 0.4183948531197585, 0.2913422467554603, 0.5457770973174895, -0.1528623639546104, -0.5558504108010451, 0.2991575177707587, -0.051237493402032507, 0.36763798495468597, 0.23768671546849923, 0.31407379522936735, 0.246445603044172, -0.007346458758715948, 0.20994949772742513, -0.11968421407757397, -0.0585383385340935, 0.04075120551664146], [0.3268293826699448, 0.31554772816325205, 0.009548876264429632, -0.43264594688118135, 0.22435756787670263, 0.37383743850708784, -0.46915838811840727, -0.017911131597742398, 0.251110675419202, -0.2695415116470852, 0.0433024403993674, -0.0038610065235574025, -0.4341072503739392, -0.402845682878125, 0.2797071171953904, 0.267751806053699, 0.19325218311412878, 0.04959504739715072, 0.0712268237412434, -0.7143134368610247, 0.09182453248193692, 0.16554443460363497, 0.09928110651986169, 0.2651166193942725, 0.21204274808031895, -0.40323612158618566, -0.5123450454552999, -0.18745272158365295, -0.17797968578443166, -0.41701629857420847, 0.3556392134680416, 0.27672119213468443, -0.35518729567898893, -0.0638757921913244, -0.5033437088871915, -0.28171596832611945, 0.26552027773368797, 0.043035072549906364, -0.09126633588527899, -0.03420913630909531, 0.30256388039699217, -0.38432374274308856, 0.2976025135171715, -0.45338779709174604, -0.7651520524225756, 0.4333764485420067, -0.1328251699346469, 0.298232520275859, 0.3607821054779362, 0.16681503935862704, 0.1587865558774959, 0.07670429516112416, 0.28614492810084247, -0.8014709327018953, -0.1693037454952281, -0.653521164231358, -0.5946132290047019, 0.25784586417208644, 0.20404126057110414, 0.21344174893303172, -0.03268273910792355, -0.06413715036379587, -0.27967635116157213, -0.6348450177423084], [0.16007043309399793, -0.1959214539222196, 0.15646598334974052, -0.21578747422494485, 0.5323886563958329, 0.3228998054550985, 0.05537441654021724, -0.12076330759700896, 0.030891153618443946, -0.014150508179042239, 0.025850719344995148, 0.30889970238158315, -0.1999170179570218, 0.10092138170346385, -0.4392837119719575, -0.2425040914857844, 0.8208862912124213, 0.017527639603057994, 0.031048599308223145, -0.30075249574831825, 0.32507686205033537, -0.21639732862921982, -0.3084928657526747, -0.43970993933838715, -0.3715391886939084, 0.24438196567603032, 0.17581109112246127, -0.5969699450076119, -0.14426740856410636, 0.2850462958437582, -0.04347439098765665, 0.4623244459349545, 0.14412529658667456, -0.4099143237967943, -0.10728720962802905, 0.14229849516136378, -0.27347204050800905, 0.23431036505297523, 0.36565912751786517, 0.11237072532347382, -0.18367350206656707, 0.03219860965565368, 0.18453744751360798, 0.28208407966148347, 0.8193151734930821, -0.13955338212486693, 0.5278023136173005, 0.4511116249179768, -0.058993766772063846, -0.5388061012305708, -0.7376053398324677, -0.3606946509899713, -0.31392685696760414, 0.03877807535011598, -0.1483393157714479, 0.12355735233988625, 0.3359670893483669, -0.20600676844967217, 0.28564552756754535, 0.08624180022258743, -0.35772309731587093, 0.2966734152638438, 0.05065630853763422, 0.49481590667515163], [-0.2514020269856892, 0.27817280112754034, -0.12425342268927701, -0.33350905109880274, 0.18977670772480548, 0.1652574909736802, 0.4251480610269718, 0.08580818904903387, -0.051467122582287805, 0.2819144783588775, -0.2419789197022506, 0.22856014377703232, 0.2124749842777108, 0.13336624889241644, 0.0468478769480293, -0.17850052367779692, -0.0889614958965312, 0.5009614122916316, -0.28326317456414113, 0.22735775235087147, -0.33212902539658234, 0.20722403354020905, -0.18110930897359115, -0.4743366265926429, 0.28191033324186715, -0.31721957200857087, -0.4963270881685691, 0.6477774223545315, 0.4912173476467903, 0.3113106594128458, 0.2304600871553518, -0.20165689717690516, -0.1870653740621212, -0.2548340969804453, 0.08565229352132529, 0.2318238109127751, 0.15825072971988005, 0.34224115779313485, -0.7225147977436209, -0.08231273405602946, -0.5711729872843517, 0.23634388836685757, -0.13594710239874452, 0.2467284865236034, 0.04887055107096259, -0.31324031454056617, -0.15060514438357525, 0.4943795590997339, -0.13757210764585923, -0.42754720412674113, -0.30302657706872804, 0.22066138493671975, -0.4079509610497599, 0.06131593281866218, 0.20739313859034228, -0.5340218800457632, 0.00908698253146354, 0.5194814939586754, -0.42624754758830047, -0.018518003724507678, 0.29225702445358026, 0.5610172683477329, 0.5623907940581149, 0.14412649619051698], [0.06253944359229943, -0.32511795592285303, 0.05351978271969148, 0.07101315280387502, 0.1492203156894727, 0.3466813863678546, -0.3044045760889798, -0.09417991400894128, -0.6248897418429867, -0.08388087319060428, -0.1515302896847288, -0.09463367994350845, -0.1812302610668105, -0.16535011864490592, 0.10852065789305547, 0.2596274195891125, 0.584364226217187, -0.35158167916425537, -0.3599433941871622, 0.078134343193897, -0.08112109386019671, 0.22900940353287358, -0.21111035457138955, 0.09155689094128908, -0.24110295278648936, 0.282668070198505, 0.22126404985037396, 0.184163504071945, -0.3459751639160642, -0.09106133853234784, 0.26476608395024515, -0.1360552311586861, 0.422801863080479, 0.18276844119626245, 0.0014402764401272403, 0.26485017837539615, -0.10334936571731906, 0.2662876135313743, -0.3701295207481094, -0.06950415738578855, 0.16910216618331025, 0.2649472156542881, 0.126357832596945, 0.04352228317815843, -0.5604337374146064, -0.12109022568019102, -0.011392684484605217, -0.09080436431418185, 0.25467271485921283, 0.17666188345879474, 0.43424877502971787, 0.505889325952298, 0.15344794639320228, 0.020772719275187725, -0.0944375726646717, 0.3485373199802532, 0.26784402136071955, -0.25113507315837547, 0.18838774231178917, 0.26398724578365873, 0.27179048091698477, 0.39815320502622903, 0.28810120633651204, -0.2723659719313448], [0.43163496536655055, 0.11880642678460206, -0.406253193565072, -0.5415949236074244, 0.03654593747218486, 0.17237863577954396, 0.438378777777594, -0.41338194937185785, 0.17046058364591807, -0.06510637292329152, 0.5287216187981276, 0.2308340782321133, 0.510487544636409, 0.08743694474112998, 0.5858115602463937, -0.1980025445809188, -0.40727998048841135, 0.5476333129269307, 0.42474670678194887, 0.5920462509390365, 0.5063499063542407, -0.06686833649893292, 0.20231572869184136, 0.5058812169744465, 0.48258843236814075, -0.13482209404053114, -0.135850877145883, -0.5559282316484085, 0.5370843177689748, 0.3078896899498349, -0.3184745342599961, 0.16849264984211818, 0.018600482761393602, 0.3021500281452034, -0.4193767446260963, 0.06537390610870207, -0.15909806991869166, 0.30255779768862423, 0.15234454718171292, 0.6549267552671605, -0.21261551442242452, -0.049765947045656685, 0.30884077881431443, -0.21691306696407958, -0.6673109708090853, -0.6217014010962079, 0.38510231488497904, 0.007430869559468744, 0.17619356748784132, -0.21189285048712314, -0.884807443955817, -0.40302433988542335, -0.02123689927705243, 0.26294038470143755, -0.050387198341858855, -0.09355194886826511, 0.3646288180669081, 0.03204513086633889, 0.14630103819136545, 0.5808129648377308, -0.12800728334654066, 0.08849161603196776, 0.35222549610732423, 0.380423924596859], [0.1611260389175398, 0.6417814630837625, -0.08382713990776781, -0.23598646444936153, -0.5916920223799955, 0.6632553602055852, -0.22611747012208436, 0.02490363263461202, 0.16048273541620717, 0.03655169906243459, -0.6070167955859652, -0.583312238116346, -0.11952874769598879, -0.2992334140953276, -0.3639096975014643, 0.6317877232506824, -0.11044873081956143, -0.09927131145582214, 0.49225984940638867, 0.33101270969805985, 0.2492399462471342, -0.09752719093943402, -0.20077477254646148, -0.03284093079926031, -0.3385000535579048, -0.09896286985964597, -0.10064306389888741, -0.47939383419725223, -0.3048771595503975, -0.008220630309486866, -0.19318809040593068, -0.000365628939730667, -0.06052486116363222, 0.059377672264818576, -0.347231539423109, 0.3712919947772064, 0.3704887491132891, -0.1809556324382528, 0.1525600635749575, 0.45424438586478894, -0.5460064386168776, 0.13548102425083844, 0.5302580664098336, 0.2612269962963939, -0.14375898694319236, 0.1360443169997773, -0.2671309386551062, -0.43213959144310093, 0.17013360902057506, -0.03004000667641942, -0.18548132866307573, 0.3823466215442092, -0.35415361181131244, -0.17174654939261186, 0.41427490415037743, 0.3673940538287338, -0.06302829935243832, 0.2885998421537343, -0.6500865022906491, -0.1664598646916334, 0.1894671000368177, -0.19303188707740987, 0.18281781709642828, -0.03980833815038861], [-0.1870859421859238, -0.288516320996706, -0.23163417541887815, -0.21593231611926336, -0.4731185408313307, 0.5512261816243381, -0.022377301768110047, 0.2058147282153574, 0.19668580148526277, 0.3091385512810302, -0.15369116814374748, 0.34210611366812516, -0.016267300764027954, 0.16580034396485363, 0.28901233332139636, -0.6736595013970754, -0.26240770847197, -0.033131388009674835, 0.4915509625105728, 0.027351375928321788, -0.2820974656912335, 0.06233566093164392, 0.3846077336254269, -0.24625777848720745, -0.16682754638994063, -0.16542932300835622, -0.2889454470908906, -0.47407792919635344, -0.34588610581680695, -0.23341044191278057, -0.3471922702249914, 0.42492286779983723, -0.08435907907496447, 0.1011550207271109, 0.06031118400871141, 0.38563562369738824, -0.0951891338879077, -0.038603181567768215, 0.31707950682841884, 0.1365140651281733, 0.30827680010079195, -0.5711890901452128, -0.5330516822613385, 0.22595512415552205, 0.18012392885802578, -0.1593243347402573, 0.16501251207626094, -0.12194440463990538, 0.015137885915445484, -0.13507345760540101, -0.1349735904721334, -0.0770228451647212, -0.07214439835546638, -0.3988581968018491, -0.24044962178623278, 0.04545562183343509, -0.2637508064669117, 0.0036103367483734886, -0.25080784406304074, -0.022389639413581176, -0.1566148004070422, -0.49784068161100087, -0.457489270592699, -0.4276461958969508]], [[-0.053086500529300015, 0.23336596413674682, -0.9436555515639325, 0.7100719519220223, 0.06920383823353152, -0.09056709339576939, 0.4479139703564794, -0.7961941508993466, -0.06694012842819339, -0.2230076003894889, 0.24834821995532394, 0.10680923128751313, 0.22629071844642662, 0.16627926558344022, -0.3029204278006695, 0.04600800615066989, -0.37014805489096264, -0.15645225390517145, -0.10225551490412424, -0.01474045637403948, 0.6658800792425449, -0.007627047452470608, -0.2079434141816175, -0.407816913175766, -0.06394305724996606, 0.14316892295515393, -0.07659579702663183, 0.0219084615581541, -0.23197621478698335, -0.09185769902172237, -0.10901135233022506, 0.29142695467040985], [0.15254528320306493, -0.05294881048858514, 0.1567368179414164, 0.2086769986856445, 0.08395033895085707, -0.025571104625242244, 0.5269982856231508, 0.3902596334536425, -0.1410466110166844, -0.7269482392107096, 0.19924203016145917, 0.26918555892889834, -0.19988679565311493, 0.28509332226139905, 0.3709955454638619, -0.028053526002555396, 0.27478901440802517, -0.1088556407335796, 0.10657701613962271, -0.13910732804292192, 0.05543930347112082, 0.06878156313904925, -0.1433664717582015, -0.07462249718159204, 0.09109986351575995, 0.26408677081428317, 0.03264310357942846, -0.18394452131110198, 0.27703299844812806, -0.01836132367508171, -0.2569150292175908, -0.17737614077598732], [-0.23630854044122115, 0.2369853126817951, -0.06131719532218633, -0.05883049666840684, 0.28122594115588817, 0.038775937090212424, -0.2489209719936241, 0.19521171359846373, -0.45281715006586, 0.09136199174095404, -0.15975473587846217, 0.22436996987307134, -0.5536811927865704, 0.23084092522332983, -0.3180326123954024, 0.03929711837825936, 0.9773569269078939, 0.2669889033245794, -0.14666321455579764, -0.04163434755344207, -0.06843860589708199, 0.5358036836173533, -0.944614865606584, -0.05354675889905361, -0.3022920617074918, 0.03083382230926426, -0.17062688282928404, -0.22725698897057578, 0.14507805650862354, 0.09329161742179289, -0.3451843821624576, 0.12078468554372286], [0.05510312174949487, -0.14160353976977763, -0.2258646130551361, -0.2565726901328224, 0.2891201886668802, 0.16877987827058805, -0.12530191576994465, -0.7233376724408452, 0.05371420777446519, 0.11021480411698122, -0.3243492205264785, 0.006231808736335454, 0.11927211456415514, 0.04310778318581701, -0.362196928149325, -0.3366610899191963, -0.3228935780338056, 0.10843287567489096, -0.5761668179843122, -0.24959189316709968, 0.22751954903741065, -0.582386289395803, -0.050649864557859664, 0.00045704706805108975, -0.16046668488399116, -0.08382376033147336, 0.16940444084328915, 0.09805144812712135, 0.264733593164239, 0.03425200189888272, 0.2613118698139729, -0.3445718624723208], [0.043742158839120776, 0.11772798240559186, -0.2730769131254149, -0.60941141329505, -0.5018817648251225, -0.26257681044375564, -0.5636363026046923, -0.2921351615587602, -0.6609050333915927, 0.026026429159750907, 0.27791609593021155, -0.06130656080877897, -0.09614565384878981, -0.2799847276057841, 0.12109537245496337, -0.13968922019421756, -0.032394897425775865, 0.08304942337831647, 0.11817909744795276, 0.14466886264449705, -0.5074314118999117, 0.2221614239489968, 0.1855261926282652, -0.27959849900945793, 0.41165381486436015, 0.02570779870271701, 0.42720500160621805, 0.06267653918727713, -0.09715012125320886, -0.3866205598778373, -0.11988325095261747, 0.019679021171558276], [0.2551680852802418, -0.11878413773964579, -0.08798065762891301, 0.1703525671364927, 0.289067472938642, 0.40940077457096896, -0.7308120206239865, 0.025209393417344978, -0.6401340140151734, 0.22551400059592927, -0.28991288949822663, 0.07918743457615562, 0.06809228515643875, -0.17418135737100995, 0.04599977570989717, 0.30852771939578244, -0.023355525298630695, -0.08965755662159688, -0.4151404539002051, 0.40029184351415564, -0.07166480290333123, -0.014891621790301034, 0.1157517701403998, 0.07679299410148013, 0.02667150375284929, 0.3414261432576912, 0.1732718460759079, -0.5503005341533278, 0.2811497897506543, -0.4539013819391411, 0.014579933848341426, 0.06595377913025847], [-0.15540220714227365, 0.15785776040711452, 0.07107412402840667, 0.09621569732249158, -0.34626788329788083, 0.16677567559322923, 0.22898421253731216, -0.13801202743430274, 0.08774754862970989, -0.7554270891319568, 0.1347123710847424, 0.1894193404383497, -0.05292771964257704, -0.12267968696061404, -0.3514716329774553, -0.258650052280892, 0.25977329562694007, -0.07380248775397749, -0.47247771563705615, 0.12597755574867817, -0.1723820984010125, 0.17817921359248517, -0.18590497755614857, -0.47873217413186436, 0.13136451073243413, -0.005322337444195987, 0.1401265511452287, -0.02891735226341443, 0.07538695878068494, -0.1326750907588943, 0.4665506887076307, 0.09800368740353924], [-0.21415479994018785, 0.14891184968857718, -0.08201400641527984, -0.07331651982167889, 0.47782561420009334, -0.05761094129502353, -0.02936698044103849, -0.11554116275806428, -0.31961618481547344, -0.006272691317658126, 0.3232545219980983, 0.1426020390725166, 0.43192814291660847, -0.23531283946102605, -0.06752478805686818, 0.08559012329764848, 0.32425269996571876, 0.3110480334753362, 0.11262073502702116, 0.26666873686269116, 0.25809187723701027, 0.09325299450857531, 0.3649690894529838, 0.2970645590523521, -0.1669539682486901, -0.13344618472743286, 0.010153794740478339, -0.2793330628525794, 0.24259145553554398, -0.062371301253954674, 0.5468630963757601, 0.5137975950934274], [0.39345731451873717, -0.02964738878745122, 0.33393781970793235, 0.26866702830411443, -0.37241517871940777, 0.18328523777751093, -0.02013474282073069, 0.2777419974016701, 0.07823666605555392, -0.4433817367661679, -0.2681742470639945, -0.08074255950098289, 0.09834853636883875, -0.10147598901792937, 0.08308758091836176, 0.019074421989467873, -0.8773892463448174, 0.2979957432773162, 0.30175581824900566, -0.06208112056327391, 0.23852135378314931, 0.08975331056762814, 0.1489066098384661, -0.10650116611701048, 0.1754569294590862, -0.81004658756901, 0.2910990781522056, 0.14806836178261792, 0.3180973016320939, 0.4014314391855609, 0.4103807257375885, -0.5575399987447119], [0.05027145744870338, 0.22770429928522495, -0.29063047494920147, 0.2861613026332092, 0.2157636822938397, 0.018955751438239063, 0.25561216415352644, -0.23435529751777104, 0.19499346388982797, 0.13751810518404642, -0.11844361878503687, -0.6546153018643173, -0.565208905221701, 0.09449867359016224, -0.23955714525157623, -0.1171556861538047, -1.0768033978524558, -0.5528302164033935, 0.450917243815882, -0.08314837666817113, 0.04138994863681916, 0.43577208641440807, -0.345467564367688, 0.2801930708411241, 0.18129315206927357, -0.4198623175691787, -0.12413325178210889, 0.08700580270656094, -0.035658822066024526, 0.3952627766065526, -0.3310359401391068, -0.20087915349302687], [0.2752556790505165, -0.18844767631130596, 0.19579884478204373, 0.23455806451180977, 0.4215682451566402, -0.29029140634023376, -0.1529701864550168, -0.902808606340388, -0.10238506748841307, -0.16576814747389018, 0.02188213303391095, -0.03954794355692653, -0.4723321941804863, 0.2857212448353543, -0.028606060640290008, 0.2063185671863206, 0.36977867776330775, -0.5172107559394812, 0.00956979216857656, 0.1303681577106228, 0.3132006924224258, -0.037604801094765536, -0.06689797470206373, -0.6074212995682399, -0.12328282667382762, 0.3941945089887875, 0.19449451669425052, -0.17813590430251072, -0.6450904896039779, 0.010550272727694394, -0.0931039509494564, -0.062410549501836], [0.11739476084760635, 0.25350351059325604, 0.3037661135820733, 0.263475354730288, 0.24485268710002647, 0.39218915077114325, -0.9081774083103319, 0.04021924878875296, 0.3220062559412803, -0.504979053783891, 0.14517656323122075, 0.11089032200807258, 0.046003575849772896, -0.15296013626760385, -0.05993435027305073, 0.01916639345213116, 0.19411638968839803, 0.029762312989907568, -0.06056572254715547, -0.0028186314587967942, 0.4177943736102151, -0.10745937514459146, 0.12107159435708956, 0.12049820218861872, 0.08223464839975834, 0.3732483729266038, 0.23632605583534497, 0.19310320154345129, 0.25444898505045804, 0.16560216975194367, 0.060963608380902985, 0.1641858704208857], [0.14105601492658426, 0.1746615207634768, 0.19201570148083374, 0.3850331783308796, -0.2769138300726943, 0.27279409664870635, 0.0607247184270168, -0.17084510286661164, 0.2056053506737906, -0.0649249930486759, -0.321543607611559, 0.08088735312417922, -0.29058185400587444, 0.26321717952957185, -0.01697099149272035, 0.2633484313882184, -0.6133106345764799, 0.11662094210915845, -0.025601195222382054, 0.44415008222895885, 0.06934475829350802, -0.3465948916554877, 0.2491610395326595, 0.05352871567745092, 0.3782033683523831, -0.8544064832497049, 0.17422402263899678, 0.17456336279314316, 0.17025105912173347, 0.08596520831936523, 0.12478781797488038, 0.18344084935141913], [-0.1580011353997802, 0.3225270945053834, 0.16478767752765663, -0.11150814296967275, -0.22325171283151232, 0.18733198759961758, -0.6481071757810513, -0.09993030139749326, -0.1596153062549005, 0.09409460688281043, -0.17684894884497593, 0.4364653455884989, 0.3361127007035842, 0.304483417238918, 0.04643754114301502, -0.3475965722204184, 0.228140849480021, -0.00588797803421767, -0.4669165343462797, 0.0695008918802123, 0.04107899544110372, 0.35936007726721, 0.11672778676897481, 0.0467732596674045, -0.045390712948147255, 0.37935207472146, -0.10833791581815305, 0.11166151562404036, -0.027134037174313827, 0.13234958753599266, 0.4812345556456348, -0.2887737320167092], [-0.3338109655983936, 0.30588983091766847, -0.038571215265693515, -0.006199936612243188, 0.5938917133393555, -0.7229436341323568, -0.05223874613355945, 0.49139648660368457, 0.31496567579551105, 0.23392114574248662, -0.09001592792323765, -0.43217331826494226, 0.1279032618149004, 0.20336471669057357, 0.5426656887317953, -0.387960604614678, -0.07035629302702681, -0.6163235277179476, 0.4174782109690077, -0.3431094202071119, 0.49854168623830014, 0.052438914978493074, 0.28504532842433067, -0.22620150232358327, 0.13078728988346713, 0.4613682706604149, 0.17492292895979322, 0.4392316921260112, -0.11127957986262323, 0.14343956442084688, -0.3967441701010645, -0.009703704963158583], [0.01976880056912618, 0.20600661992063254, 0.2422156008253013, -0.1458507316822689, -0.0602349169788698, 0.03221372654948899, 0.20853219026281658, -0.07355423293523825, 0.06745196399537429, -0.13689699029572447, -0.06997722064335055, -0.40457915462388255, -0.0538329931049374, 0.40350121751610163, -0.24956802595677519, 0.24129732878080942, -0.2494347695377232, -0.04920135014796343, 0.20166393436634342, 0.1219749749551894, 0.2975363043118764, 0.029921725564539963, 0.252086955944433, 0.5855194755680665, 0.29538615941686236, 0.17155151482761205, -0.07917071388957118, -0.029678578718791048, -0.03552667104457863, 0.41890589110573817, -0.43611140592816927, 0.23278470083033528], [0.18069317241405958, 0.08850364884814838, 0.031111619214647074, -0.4106058784770188, -0.1501720411860778, -0.20456652084679836, -0.5644110666209019, 0.16380990550138336, -0.636554637851877, -0.16043121780923048, -0.17169772491587557, -0.42291246874929234, 0.3476159811526493, -0.012681681925816134, 0.43459472061872045, -0.2741455754774731, -0.23639820018896865, -0.7872130607380557, 0.24704930694435956, 0.05738889348429345, -0.4919138540383105, 0.4206341686117896, -0.12401275794292908, 0.24132489455095546, 0.13393319355067743, 0.3620970799022116, 0.29382079565484037, -0.09303524549913472, -0.03655149761862134, 0.24127903050254637, -0.11770635850766069, 0.29524944622915644], [0.12765906779590563, 0.14808846845613002, 0.18698933891470507, 0.1919697692325407, 0.08777603731620037, 0.03158931741898415, -0.5026611691572445, -0.20601641248784328, -0.20337067328753436, -0.0663830290871803, 0.06219459213908153, -0.38468061719254254, 0.12581063499889647, -0.026642214118297813, -0.3181001529315782, -0.012933598740928108, 0.25721410789538646, 0.33802816346289416, 0.09684670080265871, 0.17663131720994343, 0.09235295476588493, 0.30800734510331257, 0.44875181813316095, 0.4631500138856612, -0.264795476149929, -0.2559464856266426, -0.2989020985652575, -0.2575774152691368, -0.21983638696872235, -0.022551111684377824, 0.6047088846788574, 0.172019065704807], [0.09273713947537722, -0.10285446282255578, 0.3469098257257927, 0.1952500548228835, 0.1972229896502451, -0.10594393247407609, 0.442165231296139, 0.45981849026140637, -0.44585444874062, -2.055940374805628, -0.02932318968695862, 0.3398404174830998, 0.26806786841734487, -0.23158971661330585, 0.24951367259377488, -0.056336037120053584, -0.22058506688167212, -0.45178019369867006, 0.3279934929023385, -0.034281352202702856, -0.09546982596215238, -0.5681132900122987, 0.0183562110109061, 0.42266767996688753, -0.15572214682977142, -1.233348117237269, 0.364367503672835, -0.40324441600583866, 0.28326827831888346, -0.9291632332624895, -0.07962739425337305, 0.4227803542096604], [-0.1879812243592152, 0.3157225740199112, -0.09019055362285557, 0.3124017453233638, -0.16736136032608198, -0.05526696659395039, 0.36474249346658955, -0.19812947007791457, 0.17903352595234392, 0.15594873906907758, 0.1860129218273893, -0.3343627868062013, 0.29150297568537953, -0.04795321879572497, -0.07431231872803024, -0.042211341975275804, 0.04701705556862114, 0.17399971928442354, 0.049415328701635244, 0.14002974383966763, -0.08660811547318095, -0.0681650455454718, 0.12476018211999437, 0.2382486652165094, -0.13619262044780897, -0.6228806395538948, -0.2665305463874723, 0.21810282845844856, -0.2674622046951395, -0.2000525197626158, 0.27995452260977205, 0.25014681990230964], [0.16151370126977507, 0.14426328391131638, -0.313327529595401, -0.38910892755872784, -0.07648914292023394, 0.007066489448187063, -0.5426007616213891, 0.278844907887617, -0.6199712940178808, 0.0031911580359916822, -0.2926588829720653, 0.49286189862205765, 0.18862798074048717, 0.19961957069577368, -0.41348910383803467, 0.0948982899881862, 0.40724018025145364, 0.2046857639374583, -0.36785773167999014, 0.5893046905332983, 0.5236313783304334, 0.03846085766434089, 0.21501748493494213, 0.0142253241202376, 0.1995721927708889, 0.019102278662331378, 0.08803150236938541, -0.5898783075370772, 0.13442837991519213, -0.1220087077860964, 0.08415092452098466, 0.0023447118108070758], [0.5281289008999528, -0.46541919649665586, 0.061790710767718665, -0.1821114597997181, -0.09244084955471421, -0.11604430597466688, 0.16477879543295096, 0.2230413939526798, 0.02189867154662892, 0.14779096091658894, -0.1901982124953178, -0.8906575790790608, 0.37816005529986185, -0.2472634954707977, 0.1816885406577502, 0.4691528068345819, -0.26432180496556135, 0.06959905078507116, 0.15867666698201058, 0.16632317303381802, -0.19966351339152402, -0.29765388508763796, -0.095708207481198, 0.23663921715564742, 0.31269617799113497, -0.41686636802628446, 0.46406468008214696, 0.13837391399137405, 0.4508241791957709, 0.018872715405504375, 0.1119298338738969, -0.12431552994149554], [0.27958246602984227, -0.5102163667889849, 0.18552398121793515, -0.11347932039189017, 0.10864871147434998, 0.5215892989853537, 0.211492875030271, -0.12483783279149085, 0.33681891183007484, -1.0409910734639232, -0.14356191736688773, -0.9945938197241274, -0.012990750992789013, -0.3437068597160395, -0.4069336078676865, 0.5337857865249516, -0.49000401099932245, 0.22389169075286988, -0.33296136053939884, 0.047751318598986826, -0.004797894047514832, -1.3289612177039207, 0.494373717574687, 0.4638560070093445, 0.28763225043910223, -0.36902025445233705, 0.04830546859895772, 0.3244653178039535, 0.40370841515325023, -0.1321993595672611, 0.1551496959321517, -0.030334639850555307], [0.15953553639253235, -0.29688439103177305, 0.25050455831491397, -0.2065655517308777, 0.13098090041991617, 0.19231372186815712, -0.048076712906601204, 0.5862426965926784, 0.23150076597035435, -0.6220349700414058, -0.3781893641573554, -0.26094491546011384, 0.27183297276313834, 0.09535485462300097, -0.17250198965709787, 0.39395931698171016, -0.20984766291100107, 0.31202180537115476, 0.14319114456048138, -0.04534282770278606, 0.1677420755975886, -0.2704430439631055, -0.11431433215779273, -0.15981415350375197, 0.2565814073759634, -0.051550791200031136, 0.217760438982965, -0.19665913474318858, 0.20994905918135748, -0.3700255774734931, 0.1992126697036434, -0.27332964767164425], [-0.0857596503031031, 0.4617446965072738, -0.15039670324283846, 0.44562924764798517, 0.3173311473235322, -0.5316900991094974, 0.11677614492349901, -0.7082904388357248, 0.4867639406457834, 0.10800606976577597, 0.16134032973226403, 0.10135541261909782, -0.13831035787350643, 0.16954991301112868, 0.3477975356209695, -0.004790460713899291, 0.2434074167957003, 0.21669288021616276, -0.08427660169295947, -0.25299232507905617, 0.19919072774394406, -0.09491088566319579, 0.29283811428903994, 0.3668732818008687, -0.2313763101593025, -0.2837207197523566, 0.16593161007278026, -0.004077231049961391, 0.126379083312995, 0.24351342776255272, 0.17279717160245966, -0.10788210486110837], [0.17379486290488122, -0.14720203427925893, 0.10358405952006128, -0.27733294370792866, 0.14146006684937942, 0.08095890408734552, -0.63513627627145, 0.19786908510119797, -1.002237120470356, -0.3671338918839672, -0.11453486483163659, 0.17516110554021977, 0.021183490510449224, -0.02617386760134372, 0.4121023925399179, 0.18183085995757137, 0.5500940247373209, 0.19044026689801596, 0.3998761729171047, -0.05749207386606819, -0.14609618060166735, -0.17442870157398313, 0.10752524305543598, 0.44323565867571574, 0.005425356485735951, -0.034766869122732004, 0.37832851986240773, -0.4230514898203095, 0.043516063786659426, -0.17655186203339665, 0.6252199326264234, 0.11661811616173413], [-0.09673408361540256, -0.14771848637078072, -0.17804184061496792, -0.010430694179724127, -0.24891822744756092, -0.21082830528143817, -0.8907666751871904, 0.3770922088135088, -0.3174388627733452, -0.8395545230801439, 0.14935287687941382, 0.4656701114608793, 0.22068343748138572, -0.10450464328069022, -0.04223908096399841, 0.26369977314454973, 0.6366420850220399, 0.3618580253214718, 0.30918268435574636, 0.18250315279124227, 0.17357368751599886, -0.40878593741925245, 0.060538594287099415, 0.6275565684983608, 0.012359940644028292, 0.287017663890161, -0.2473568903545603, -0.09664185170294777, -0.11148547841015542, -0.5512733658695532, -0.12416810867225364, 0.030561539335343835], [0.15993901078624534, 0.2751455175358269, 0.24050582243818097, 0.015812682274255762, -0.26542002706959944, -0.07076258492134878, 0.42022798329036704, 0.28210528400608875, 0.029380185760379287, 0.426227350983996, 0.07009766082760967, 0.07725925288321733, -0.21665501578782448, 0.1630802741766417, -0.1632237334525636, 0.2238221891062058, 0.11486142050103072, -0.0790312279074059, -0.1834909240014285, -0.41686778703121047, -0.045982679839662005, -0.09406345226493877, -0.7223616539930342, 0.383992685549479, -0.11323932862791983, -0.218121831512183, -0.04877323213044855, -0.05259814561226347, 0.043942912650147214, -0.06960169630730986, 0.24024669970866108, 0.11009522846671106], [0.3819748617555102, 0.43293858887491227, 0.045317929727935226, 0.5293527033163521, -0.49170246471883183, 0.41242803173553927, -0.2975838745972276, 0.24954840800803557, 0.18745111286320884, -0.005223604904829161, 0.16748103946735118, -0.1536177286406572, -0.01716141531593449, 0.08775511078016063, -0.3207329812900536, 0.19678490550554092, -0.005940512480476645, 0.6095944172304512, 0.06668830387912707, 0.3902856886227019, -0.2706652217233751, 0.15925910136800955, 0.3692422746596523, -0.06288617698814036, 0.23371655803854519, -0.38019667704101046, -0.10214059548044266, 0.21938846159551595, -0.04830435274814943, -0.2237999095161805, 0.17634740381008787, -0.3661076459850126], [-0.15717977500571353, -0.12240809729191389, 0.24687671883488682, 0.04273049739371733, 0.13963290338651638, -0.054973482543249, 0.05571098503926328, 0.041276739356042695, 0.08039459786818885, -0.6254385908138066, 0.06776737633847818, -0.16773223363812167, -0.036586253602693714, 0.001531265861213381, -0.27350108035456094, -0.44500842816309993, 0.26885941594225216, -0.07576835061659458, -0.6613007349901369, 0.33054921347190874, -0.3865804758223866, 0.14859244285194098, 0.35651863376765913, -0.4156376363411872, -0.31308235722300853, -0.06596706263272435, -0.11056947798267641, -0.3264017026856459, 0.07632465207774207, -0.23101907029007393, 0.11389949887460532, 0.198904036327804], [0.15441191427359827, 0.2679628560001718, -0.13054406984285322, 0.26419694316677794, 0.05721031634240126, -0.2732121484076289, 0.020828834533930102, 0.32738406056008956, 0.08776840098531483, -0.019506523431021227, -0.04105023901228554, -0.07411467448212378, -0.15011164494578058, 0.22857148327027105, 0.1910730416141287, -0.41411600963509254, -0.19549356623718872, -0.6751740637604912, -0.17981569170528794, -0.6824224842578909, 0.1190768244534439, -0.06334819252108492, -0.5340007039831025, -0.33206362266690315, -0.44585249357906653, 0.09128106871884008, 0.33444147011086656, 0.2540075227921572, 0.024815166331856767, 0.2853774485370811, -0.3203100828451145, 0.09831326326157927], [-0.16785016952778284, 0.3469780087107056, -0.4169250662966115, 0.07569036315727659, -0.15558028847022023, -0.04182312777612507, 0.17931964181706822, -0.026354112263644255, 0.11993641981273002, -0.033134832819321794, 0.06160062965049876, 0.21912544366386877, 0.13458898327198748, 0.4409388808363355, 0.15729288888835385, -0.09881632309183609, 0.2533409866883593, -0.09348125991884884, -0.055191626447385664, 0.06506811250783728, -0.2296173985383978, 0.6824292642368321, -0.007075146225309617, -0.056000461471376425, -0.01846327727717993, 0.1848910626537914, 0.024276197582348075, 0.10963370579508504, -0.27166325754666804, 0.2824521292929716, -0.4753102732712408, 0.2477399011996218], [-0.06794524575644487, -0.08082346228901605, -0.8254606837865028, -0.3795768505607657, 0.6507594761382414, -0.7679363268252326, 0.24363748892881154, -0.9371667641507284, 0.5912176761930862, 0.3669947605078047, -0.15455187600356726, -0.018086452771618387, -0.23093351888374214, 0.26300443570723125, 0.20407506224345956, -0.5600626484746762, -0.4282369146944229, -0.47934317823505634, 0.27110418463314484, 0.11743066079141334, -0.18537655280072673, -0.2284600616828623, -0.44862971579025734, 0.3507987958887958, -0.13831601805018495, -0.1316927255996275, -0.2961683247246323, -0.09607611030758738, -1.2487011296313228, 0.23585575720458368, 0.03349761239767813, 0.11957897364866649], [-0.09013377910033202, -0.020133163759418222, -0.15897670164052477, 0.2506219105585472, 0.30176010822121835, -0.19036101584971812, 0.3137000277527688, 0.3383047773184763, 0.11144413585798504, 0.1687580669629445, 0.05419824777543926, 0.301313878655344, -0.6497984245791248, -0.02546857608090509, 0.4105897144075719, -0.07522900254061932, -0.1595995578422734, -0.11552745195315911, 0.09573154728723478, -0.00581530443334397, 0.2209098801922467, -0.02870256405576374, -0.45857255785522044, -0.1454497532542653, 0.1807101238151227, 0.25437641303657765, -0.08813729791213971, 0.34173278068662927, 0.13175281754232335, 0.34905158419829846, 0.12125244746475926, -0.31528657129998977], [0.2692733153078337, -0.12572702986076925, 0.2933680531668066, 0.2536748579933576, 0.23558801087038797, 0.3658756706555507, -0.2912351758441875, 0.1402076069228049, 0.22585273254659932, 0.0978078565694189, -0.36539801736893096, -0.15194384974732858, -0.2343359925320833, 0.0001143723903891007, 0.2657202276572599, -0.014352700346549974, 0.21757837731367594, 0.14713828097699846, 0.378563405948607, 0.15233254457805154, 0.3654846027010039, -0.05084208839818008, -0.12536575485605111, 0.15780961721886894, 0.28600065351420123, -0.05804478228948944, 0.07102671984216581, 0.18754379413677735, -0.17113334651222797, -0.11859030312717196, -0.2565665868308603, -0.03724582707642087], [0.20103608905926126, 0.23663061152009904, -0.12681217567234881, -0.019816898555776737, 0.2382939006000833, -0.110019165544324, 0.18325627457390622, -0.026416003515290033, -0.2301869106392911, -0.26841337448690034, -0.14164841193189415, 0.2411553339457446, -0.051934342643534415, -0.36262758778657056, 0.2835233259917437, -0.22890700377491963, -0.07512351752589233, -0.04851352638631389, 0.3936466215106159, -0.023656034654996324, -0.22040806072018923, 0.006565791699145776, -0.03385881956498994, 0.24325214038989945, 0.3201844990630733, -0.044917948583965125, -0.0033434485967660734, -0.40485831270842243, 0.367721123560874, -0.2622958454968882, 0.2580286459016686, -0.05542482088631408], [-0.05979863660078619, 0.011127356068951481, -0.26721682856461854, 0.06560439018246925, 0.3424122694604881, -0.2169043596451433, 0.380356736210762, -0.12249470043562923, 0.32960179564188813, -0.33897167584238125, 0.30397213607280793, 0.13272896637075346, 0.013653487366519536, 0.2705633796828192, -0.12818073095780458, 0.3577994427687933, -0.014719215192805536, -0.05804032378870417, 0.07958341647438723, -0.44094795111747587, 0.13002835304081445, 0.13798443928241585, 0.02727084529005684, 0.2076679485790066, 0.14371963678228314, 0.3024803316079917, -0.16646965951548473, -0.1476957921720915, -0.18688561188988162, 0.014786262130978224, -0.6818390103154502, 0.09826800144548484], [0.16135229032447343, 0.056893052042999125, 0.3839987049005179, 0.2918310795476434, 0.25050752526432163, 0.043620238778376584, -0.32507700369803033, 0.3115666182344613, 0.17256834914633812, -0.49019623857076455, 0.06365437618526201, -0.04290301951719671, 0.023850256055893384, -0.07002595674059346, 0.006076838083068113, -0.054731457306566235, -0.1790191087573275, -0.4805453642729597, -0.2422174935498809, 0.1991873397805322, -0.09859145007727008, -0.17172900298878158, -0.21516027164476556, 0.22500621027230414, -0.11054357416342385, -0.3101799060866505, 0.3820344683069522, 0.16019514153037231, -0.18102923293707762, 0.12798012350875687, -0.08411963237424391, -0.13532230316592508], [-0.11003173937287819, -0.6209049215883679, 0.19983419178956607, -0.2454860208712454, -0.16386990922334926, 0.23218882971289462, 0.4497760847013944, -0.009380990941786151, 0.025415513956612287, -0.7675187117489753, 0.13867004915757114, 0.34052649720024125, 0.20930489589893328, -0.44212007659836217, -0.5166074340051993, -0.04746530546236493, -0.5623324890805691, 0.1060675079898494, 0.12598246497865362, -0.22855439799435118, -0.41134213994994157, -0.05016178060345141, 0.02425782240040578, 0.31414139042020206, -0.19312542986956444, -0.2634562172982408, -0.25181267213854874, -0.48554317307010303, 0.4216127521383045, -0.10539500456733612, 0.07072181603647709, -0.26787192821429434], [-0.2632644137062595, 0.47665295179902645, -0.1563674800874433, 0.021470492378862994, 0.555086567166826, 0.20502788377783937, 0.3871926541884944, -0.3328351416036817, -0.2542069322284304, -0.29172328765322464, 0.25913580248710183, 0.3074379321709935, -0.4401084923699146, 0.3490737187431259, -0.5692745146329954, -0.014461153198492675, 0.2878703319262179, 0.39562627068054096, -0.2352005191976353, -0.09272672573742809, 0.06944687151019889, -0.1006012986955224, -0.2469553657687517, -0.011462183645593073, 0.08816935822863142, 0.21661005109671017, -0.21769093052827518, -0.16696491683594084, -0.09644963910597544, 0.14269685367277457, -0.14183202680523388, 0.29402426454912395], [0.10823909929383659, -0.8430277128884417, -0.32804480076483816, -0.31164622995900515, -0.38651344661621473, 0.2079070960691412, 0.3251838915615257, -0.03542206982021306, -0.05112528318021349, 0.17033669805484966, 0.11954060390280201, -0.9343394624523277, -0.2645719160717466, -0.14283128047827154, -0.07763402974676852, -0.1312253188010822, -0.9716371365027473, 0.28569925792022416, -0.09311803917865925, -0.36361144612216467, -0.3376102672227973, -0.3114224383383242, 0.20564338633362328, 0.03931163574161893, -0.3955111688775032, 0.4283501202561751, 0.17192555126261122, 0.35587317845858046, -0.36296179845230603, 0.1112671460151706, 0.4185680583986141, 0.3035827935399943], [-0.3074503698881837, -0.004748174484567352, 0.1387102246996594, 0.25240538898784787, 0.1164358565759245, -0.046830300361555055, 0.014892329657057852, 0.114653828057783, 0.3117507338782469, 0.10974122896439224, 0.23416883645078285, 0.19663146636420295, -0.21784179680874882, 0.2508562326301144, -0.11318421235246777, 0.1777255379011405, 0.07537294737913525, 0.16029850443474267, 0.18537767348177925, -0.053953274967975515, 0.612401210235676, 0.23703767686696126, -0.33933583500607833, 0.21379932545306882, 0.20309426419745247, 0.07284670846354452, 0.12236477229256561, 0.5960519333442368, -0.22929648364075603, 0.3445063860871021, -0.41507237932436253, -0.2315547624503876], [-0.12513927771698022, 0.23332803631405707, 0.24949144121122888, -0.2510359936928016, 0.05749796961454463, 0.02982459279869753, -0.37549246413464044, 0.398762013847539, 0.3593468568945162, 0.14733451263382208, 0.20649947151325, -0.5997544232640953, 0.29245829675975904, 0.0647401968565699, 0.1826444104588452, -0.01691038310731309, 0.3971777468804658, 0.2786314365534113, 0.36333265541308557, 0.06306492613950189, 0.15260272052498114, 0.1635331159658158, 0.37824858577615605, 0.3883382137059727, -0.350381945951237, 0.16100296797647035, -0.0008561413405162664, 0.10714120826268449, 0.000912629559572699, -0.1403542163468699, 0.1056650133930628, 0.003223280691606226], [0.05450028575918064, 0.15682989767186534, 0.052502831109031575, -0.4966255706488575, 0.16453212861630795, 0.10453296493610234, -0.18633363099646383, 0.00868209459481772, 0.04866365272299417, 0.4499513056374596, -0.40528388268864773, -0.6260647725097205, 0.2669443188424472, -0.19496919628863046, 0.03086978578485478, 0.4582096692092328, 0.06084142643312032, 0.2843987132725525, -0.15661487502176183, 0.00859311250492968, -0.14345016581596953, 0.3228493571312917, 0.12813590424942853, -0.19308060764994336, 0.06587881952455484, -0.3458319802593958, 0.22906409191204646, -0.23838479076165353, 0.0732057117753242, 0.24037122447187872, -0.11639259020096872, 0.2661277052998858], [-0.19906316921749745, -0.00350987132352728, 0.2804200503375204, 0.0182878394619909, 0.026804817664138537, -0.2914638743238124, -0.2878625536813338, 0.23584311779923076, 0.07186196852338884, 0.5444126952128955, -0.03953161502933308, 0.21701753819259792, 0.11588188570051436, 0.26407655855658424, 0.018834946929623654, 0.544159474268164, 0.05389049084921279, 0.035403492618270756, -0.9374728097514327, -0.06707214796825313, -0.23259970194317844, 0.44018550012791846, 0.011583594503528883, -0.10531393799721758, 0.271000396985666, -0.4467941461863134, -0.021870993184966492, -0.9077641190553538, 0.42267566994496086, 0.2615577637378623, -0.06581261215361814, 0.21696612896754475], [-0.1546119893398119, 0.14508742851878847, 0.3285252339193565, 0.18397703728345544, -0.16524502097768945, 0.4634930946856408, 0.04384242513468843, -0.14887993199917163, 0.31730546031183193, -0.2383059879578453, 0.3423455231446197, -0.4582354523602157, 0.267642334396614, -0.019788655317024163, -0.4454717422553948, -0.1432525116347876, -0.29924886391724126, 0.10539756370782334, -0.03689570635097458, 0.16205928131014719, 0.0033051730453931933, 0.18003288440635076, 0.18123782791699317, -0.04689432566960834, 0.09379938399650133, 0.23287160266342194, 0.05375638856556206, 0.386873236594061, 0.3825294424258006, -0.20436245020320962, -0.22449575674785657, -0.4624051299405316], [0.22535215413422674, -0.5719817115089789, 0.09732899775475196, -0.2066021915655394, -0.18974477111391638, 0.284361540754611, 0.4030825510816904, 0.11476879689378568, 0.3923309204321589, -0.5172113038052577, -0.3427872294577153, 0.371248616217719, 0.19591613393696453, -0.2793516277182007, 0.47586219959197396, 0.14902825694407168, -0.1118669400082861, -0.24164053321405987, -0.016059800789157988, 0.051552226210293865, -0.3054149314298801, -0.1289681214120928, 0.3772376328241788, 0.13388446356944989, 0.15888610894138766, -0.38358572677041836, 0.25356150793037674, -0.1713114015911407, 0.32593903189403406, 0.08495118379259205, -0.5234201184179597, -0.15540428860708655], [-0.08858756742710357, 0.17804789087093587, 0.10408335564129813, 0.27054606466976283, 0.216165868327166, -0.22386852291897, -0.5731066385744146, -0.43789346843469307, -0.0755821163462052, 0.06122330989579262, 0.07439121325762217, -0.36749344085297203, -0.25293144847989946, -0.05733934668573636, 0.38243603583710994, -0.06395263747563311, 0.0027189350174955727, -0.4432195320269319, 0.16114963819748757, -0.3455002561246146, -0.008484199612224826, 0.1688556811688991, -0.4295619371383308, -0.23945269696173938, -0.18701408684246418, -0.21609341832787612, -0.24289340991374575, 0.2534737938786749, -0.07891026146805272, -0.08251953823291826, -0.2739563384193136, -0.07299477071666761], [-0.031371130301962556, 0.07518624676770597, -0.617210527403346, 0.27277265550143825, 0.03392402634416868, 0.04657068213863892, -0.08291258527361277, 0.2567560260564841, 0.1333084026422556, 0.1602220576568413, 0.31305376935467993, -0.2125907955934092, -0.02627879039602351, -0.03217425243661124, -0.17084716312069925, -0.1424512930851471, 0.47028217309333714, 0.06541720193029983, -0.2978987998470303, 0.057581626781268505, -0.09723953613077527, 0.36497313066291814, 0.1872205405802402, -0.7718407755016062, 0.029366157641971338, -0.11333974956965014, -0.2386571008219004, -0.12958213064994517, -0.08732649797781938, 0.1257687269516782, -0.1797184595068545, 0.049826315387476575], [-0.2568237799102123, -0.4449712332347668, -0.5458594586452493, 0.18130223806660895, 0.20062912859566176, -0.43237553971555437, -0.11513857394785593, 0.013316146914866737, 0.26156838370998586, 0.10587786580709567, 0.2443289845950306, -0.0034119966650296507, 0.1252876084871073, -0.3063473873766815, 0.27226360398904537, -0.21872802134867264, 0.16232247514234988, 0.2705800996961963, 0.5151263380212836, -0.30023369988793863, 0.31873444949494417, -0.15267135374193266, 0.18947833593591284, -0.7794124150268638, -0.4970868846843474, 0.007727579799213897, -0.20476808015006806, -0.3561239955895969, 0.15973026911416627, -0.0395352497222782, -0.13823467868409928, 0.24474640564615352], [-0.07456548706108718, -0.07961223991801353, 0.13602286394759608, 0.3274247166117974, 0.16747892925938618, -0.22696238114409342, 0.2447295954696961, 0.1078841105320161, -0.21864164378699574, 0.040292430471514526, -0.06183837366022426, 0.43868691214648053, 0.22563933932339042, 0.0943889967630665, 0.46241780972013474, -0.14577294606644134, -0.14051456751016533, 0.01641963126361339, 0.13925829432905595, 0.005197849975076117, 0.3135433486751678, -0.49494659181935313, -0.07572551578126469, -0.453781247830886, -0.04383602870889646, -0.31579532292195034, 0.316131441417295, -0.33842044845804586, -0.0930544995767248, -0.3570698929890479, 0.13894564851139915, 0.0021594015593737774], [0.05727742068442028, -0.40133321503118685, -0.018182835775747693, -0.2988783218936536, -0.030449537158756992, -0.09839539933620436, -0.03425247582009356, 0.05515719171072812, 0.26885446024761367, 0.10954559462144947, -0.1817073294493374, -0.24660342645082026, -0.357034690969887, -0.5459225501724355, 0.34555655906364713, 0.35462038544807367, -0.44944258251509644, -0.49463325317658263, -0.23031672031233824, -0.18950184640107642, -0.23626902259774069, -0.5919887191023039, -0.08300328052680318, -0.007766083380127501, -0.22778561011906445, 0.41414130349737777, -0.15658173689452132, 0.3201759593039494, 0.09013307732952269, 0.3775567716560018, -0.021755285361552867, 0.007130991481332673], [0.3243594970760503, -0.4373892445689388, 0.29627024629011617, -0.2824795346601083, -0.20024718661315608, -0.07555917795796568, -0.06326782052279821, -0.13528727389858522, -0.07562949774155563, -0.11288163195409419, 0.19211451146760372, -0.01807494019722371, 0.12769750607598213, -0.1358073169865703, 0.01920317035275154, -0.492704246396958, -0.03417223628654671, -0.18993311225392515, 0.01597375749428874, 0.2912688802333082, -0.061116111133570745, -0.25216389282499085, -0.10124131750909617, -0.28920967744178994, -0.001136520114058222, 0.059212151289006046, 0.14308448334527601, -0.05033637701746887, 0.4487731395265819, 0.3974440356549559, 0.11903604387974634, -0.036009241908444234], [0.023405107139203823, -0.07222128420647915, -0.0811594727396092, -0.155671446964292, 0.030680795987395364, -0.018557356362569465, -0.1103767904982405, 0.011107054750132806, 0.3156618113269169, 0.4185885827842478, 0.04979631709211705, 0.327822442808212, -0.23792854531488045, 0.135778014456863, -0.33278016686634465, 0.47132130739113015, -0.055442735074701696, 0.20501492821961761, 0.692784172228161, -0.3189763352577639, 0.27100471850413826, 0.2940057320492678, -0.10438132572453611, 0.10973284621352405, -0.010661267404760342, -0.0022834193535762543, -0.17194685517571706, 0.15107583428794658, -0.2869940152858188, 0.10758750463549703, -0.2038631637673531, 0.027566841843775128], [0.01934638292298948, 0.2993972977670262, 0.3593202586086168, 0.14810003164520644, 0.1881944581895731, 0.04375630742820147, 0.1816565038183105, 0.32323013194205896, -0.30550803002310173, -0.49193812723124597, 0.24677468479586434, -0.3166383413547887, 0.3886324239564387, 0.14700386971869497, -0.35598144998849324, 0.2488203242441203, 0.1036329329937167, 0.18311865777501266, -0.10461746176025691, 0.3719455805290734, -0.4561975554386388, 0.1318996661234747, 0.2287301146501642, 0.2958753077111593, 0.23705445079244084, -0.12656486436949524, -0.12080161489123152, -0.07463787454507255, 0.19322333476076115, -0.02371405759483927, -0.06245392649208721, 0.2738802624992065], [-0.585171576645087, 0.24693029170086508, -0.12251114788755346, 0.40803137337240813, 0.13327387515245384, -0.48494896356018263, 0.14226409587723393, 0.2181063473737984, 0.12390557215316154, -0.5832017103327697, 0.19043136197825675, 0.13349072221399494, 0.060115010108078966, 0.07525342727945526, 0.39042902935048196, -0.031846486961554295, -0.04654382596549667, 0.21763148363227278, -0.09225758389427755, 0.0659933612446455, -0.11994288949682227, -0.303289218179707, 0.07161112363433066, -0.2759424575782054, 0.2034912498357776, 0.24778714541063815, -0.3416439446827705, 0.2919228023887325, -0.07180727561692989, -0.06291931844205773, -0.25058492278658284, 0.07599495710308361], [0.21367767591420792, -0.10198467861706295, -0.613332960833758, -0.7751371547853283, 0.07934313221776715, 0.009249417724544472, 0.5248150469062935, -0.2762155172620434, 0.38656025952777606, 0.15360186699689313, -0.08422600139576607, 0.12900366160681984, 0.10503542338741105, -0.1420457189281284, -0.21820941553173184, -0.035044856923246034, 0.10119432469813461, 0.017871311045979197, -0.7032463710420666, 0.27829374171293403, 0.06751093605248393, -0.03174173196595438, 0.29424265325629834, -0.277827236975603, 0.01897227011857605, 0.18684033202327407, -0.2531915962361545, 0.2270875557695416, -0.3285152024761855, 0.5129136434252025, 0.15270603870673982, -0.057353288895423], [0.09139363165223939, 0.016248283546991482, -0.3629530893602898, 0.4677657709996963, 0.0897899771599899, 0.026887126828572847, -0.34398170274743256, -0.13526047268429192, 0.13904404821376853, -0.572306718887837, 0.14870432681540138, 0.07405734442974854, -0.3268402686377776, -0.05710910372584832, -0.6323588841835722, -0.3616399683238281, 0.5231495328932506, -0.3873841016885073, 0.22200516304705648, -0.5587506253179269, -0.22854987365044804, 0.305851357953615, -0.14104630276490296, -0.8054976340566302, -0.5515767908393858, -0.2522621583047865, 0.09782169456737504, -0.3706975889184888, 0.09808147059880747, 0.09545433452724279, -0.010910084389007518, 0.3549637103947672], [-0.026485683766594343, 0.3554637058489728, -0.4362537323082058, 0.09288101091295496, -0.07724838146132013, -0.3036695278491942, 0.15524122457447953, -0.038512658944258954, -0.24558746712541168, -0.7949708067648554, 0.23428269356753628, 0.452715943843218, 0.2903394073647637, 0.07044001240052769, 0.21270997969502894, -0.31776675427389434, -0.05650105797249681, -0.7642149609375734, 0.4116166320363036, 0.12108628220380117, -0.05848807051202508, -0.011498054803041346, 0.288717049284088, -0.032961403738159575, -0.0819653592300971, 0.3159101361463551, -0.19057936606068052, -0.19254841004351883, -0.5425211705851042, -1.03618168804306, -0.29500168635086327, 0.0842357652794889], [0.2592654047340516, 0.27449576505252776, -0.1401784095975772, 0.05047421888522302, -0.304322555505859, 0.20992395499445218, -0.4698915285152508, 0.35204180431303633, -0.10421053086353607, -0.056902702888396724, -0.2895368895704627, 0.09252184408950259, 0.12877198055442962, -0.20699868786948908, 0.3905574460069022, 0.1366988432836852, 0.18157928046197575, 0.10052683247248323, 0.7654528025025759, -0.057215792569674746, -0.23280575597602937, -0.034488245257937256, -0.14295610956927934, 0.20602180950565332, 0.06392602821074918, 0.018773021387247686, 0.03433120806524763, -0.33602819414497037, -0.002308827676012831, -0.8394727467210512, -0.26355135738258934, -0.10601956573964394], [0.3870745046249611, -0.4660271423983749, 0.2420489178738504, -0.28496019930375516, -0.595849141485989, 0.6458467686967683, 0.2913306764232926, 0.5235514057325611, 0.16056813112843712, -0.25055456239831914, -0.2580757205166743, 0.5005486074645623, -0.03404711950987378, -0.07190123929919695, -0.004104418947647764, 0.11012005849693954, -0.17397717587044326, 0.3944248315388214, -0.31189711683632604, 0.096995553039781, -0.3778457011374064, -0.5188557994702183, 0.24140985360197045, 0.2552130962031343, 0.09128214166351917, -1.0190655116239313, 0.07253283604678684, -0.9559407654201763, 0.44475463527022585, -0.13714327702779283, 0.6790670715504838, -0.5398190939948638], [0.30443921907388416, 0.11115824089975936, 0.3979752144257955, -0.26474501245706644, -0.14561320545944506, -0.21758835154277703, -0.06474911299730024, -0.067014805117747, -0.30478092181100397, 0.10041896435400538, 0.14864136075534234, 0.057843742527393174, -0.571910614045614, 0.18985915107403822, 0.3290008841481361, -0.03286828607287204, 0.17599430914245656, -0.22935890972625067, 0.2815311468254017, -0.24740118991119253, -0.02682599093301058, -0.042184459863026755, -0.26435960449869106, -0.2948518271253658, 0.04898327058133466, 0.17694864745985178, 0.1650078312993634, -0.1805823068048251, 0.10649735204247433, 0.010635558576883307, 0.00043297319182323537, 0.04434485176130545], [-0.031214933022800716, 0.04347703610464367, 0.23011152521003672, -0.14673251301710866, 0.011538637455192055, 0.06289495436368321, -0.15934981054526742, -0.142967939245834, -0.12936255313519582, 0.1517202555937736, 0.019309427930163544, 0.21439028582180555, -0.4901613811698417, 0.2376336509983638, 0.13084034239367526, -0.29387918050426026, 0.04309423523066606, 0.29875010222316295, -0.6656656507465564, -0.24843104379956765, 0.2031107624807144, 0.0043234622661332866, -0.10357961341558371, -0.2792030391798506, -0.53509967425974, -0.5343735702228537, -0.12424430624856156, 0.13777478884074695, -0.2176481377260663, 0.27604676165488423, 0.3646103525321333, 0.11546610160168874], [0.268130383699011, -0.037754897128292796, 0.5225042841574704, -0.08529350789131514, 0.1627140047729673, 0.35568594836143597, -0.49041491542008175, 0.2609894313721115, 0.012252048423827436, -0.5905727711819249, 0.0463451025886884, 0.11173468755960334, -0.04470605891411358, 0.10484253069564517, 0.19000548129978825, -0.33265365872516833, 0.3972293815128774, 0.41951339290925155, 0.19453397673774606, 0.3700832060518903, -0.2251724034296435, 0.4244705784163811, 0.3326888830832037, -0.027363748150774043, 0.1345325905976904, 0.11777276431399859, -0.060947275453562565, 0.0013239586345933129, 0.16067424053976656, -0.12489306745962056, 0.31973617311066216, 0.1668223925163299]], [[0.29774349998983735], [-0.5865850397282655], [0.864790485814143], [-0.9168320783864622], [-0.9227921580805108], [1.1492022563395834], [-1.6521493909518148], [0.6055905318026161], [-1.0215232399980723], [-1.8355056939499974], [-0.6922651973592728], [-1.635890777293398], [1.091853409220448], [-0.7357933947531422], [1.2856988286187658], [0.9027885668798615], [-0.7710276072804219], [1.3164092759327268], [1.2728032173684252], [0.7406339841461204], [-0.9276229505777069], [-0.6363897952856653], [1.132008322872722], [1.6979448475406753], [0.7566642156374608], [-1.4144919946698806], [0.5927168014891523], [-0.8181498787406061], [0.43100983023039957], [-1.004528697141662], [0.9284690539463333], [-0.5195030222132776]]], "biases": [[-0.3455048679998306, 0.3411289973286185, -0.43462894480885794, 0.19539898817617657, -0.01848217981481765, 0.22682693413687463, 0.2783818490408149, -0.04348271016510624, 0.0008424699765179744, -0.06217959901944321, -0.11583559187977006, 0.34485381314124647, 0.29224903858776413, 0.6964592698264387, -0.3007262319142796, 0.04431245481322516, 0.3432085402343181, -0.34062074578237345, -0.47804431277342124, 0.1899443923776377, -0.07003034225494036, 0.4220692444603749, 0.009288595522504476, -0.09848126485163043, -0.2252711009802925, -0.5005267676055015, -0.30378488378644036, 0.29544119535152685, 0.45647279589230355, 0.17831047086998203, -0.23913179714779692, 0.4523456066949743, -0.3519395794367931, 0.36795956200451274, 0.03721580053426453, 0.081648757205896, 0.22363125370710987, -0.1669406029978669, -0.00033240956328283995, 0.02640872999288616, -0.1236900333210261, 0.47177903501562624, 0.048497691308408836, 0.13467975656114667, 0.21347042547968195, 0.34516082511682833, -0.17724435590267681, 0.3675477473384888, 0.10956123042150406, -0.5298681685710571, -0.6263663360845548, 0.15671404553889087, 0.0583508649426627, 0.07470316524933615, 0.5587589132652849, -0.025917470931356226, -0.05854823274934356, -0.22407735729281952, -0.14479840825645504, 0.334687396339828, -0.5997279430021226, -0.022638895503282106, 0.0763410018901997, 0.39866804384336774], [0.040718694339948874, -0.20266730444334707, -0.16590994932104122, 0.03962336807381721, 0.11226330381557384, -0.014641015835361596, 0.20086122597584652, -0.03712766035721189, -0.060163318306893365, 0.088539857630933, 0.20396911568149612, -0.2847709666123895, 0.10524725633688542, -0.33876733547153054, -0.013388763085349453, 0.18345878826745773, -0.14484268222087363, 0.019056591894703965, 0.0703081398330192, 0.29186253379078414, 0.4106170297859939, -0.03394552696869215, 0.2641687714945276, 0.07639349677128969, -0.017895427522513076, 0.3087847541741744, 0.2544611798121572, 0.41002116014393697, 0.14581228663260903, -0.07682803026121234, 0.2466437677693371, -0.227552039961093], [-0.15342482797310958]], "activation": "relu", "n_layers": 3}, "test_data": {"X_test": [[6.0, 0.29, 0.41, 10.8, 0.048, 55.0, 149.0, 0.9937, 3.09, 0.59, 10.9666666666667], [5.4, 0.53, 0.16, 2.7, 0.036, 34.0, 128.0, 0.98856, 3.2, 0.53, 13.2], [7.1, 0.25, 0.39, 2.1, 0.036, 30.0, 124.0, 0.9908, 3.28, 0.43, 12.2], [7.3, 0.28, 0.35, 1.6, 0.054, 31.0, 148.0, 0.99178, 3.18, 0.47, 10.7], [6.5, 0.32, 0.34, 5.7, 0.044, 27.0, 91.0, 0.99184, 3.28, 0.6, 12.0], [6.3, 0.3, 0.91, 8.2, 0.034, 50.0, 199.0, 0.99394, 3.39, 0.49, 11.7], [7.0, 0.36, 0.14, 11.6, 0.043, 35.0, 228.0, 0.9977, 3.13, 0.51, 8.9], [7.6, 0.26, 0.36, 1.6, 0.032, 6.0, 106.0, 0.993, 3.15, 0.4, 10.4], [8.3, 0.18, 0.3, 1.1, 0.033, 20.0, 57.0, 0.99109, 3.02, 0.51, 11.0], [8.7, 0.31, 0.73, 14.35, 0.044, 27.0, 191.0, 1.00013, 2.96, 0.88, 8.7], [6.4, 0.14, 0.31, 1.2, 0.034, 53.0, 138.0, 0.99084, 3.38, 0.35, 11.5], [6.7, 0.54, 0.28, 5.4, 0.06, 21.0, 105.0, 0.9949, 3.27, 0.37, 9.0], [6.3, 0.12, 0.36, 2.1, 0.044, 47.0, 146.0, 0.9914, 3.27, 0.74, 11.4], [7.6, 0.28, 0.39, 1.9, 0.052, 23.0, 116.0, 0.9941, 3.25, 0.4, 10.4], [5.9, 0.22, 0.45, 22.6, 0.12, 55.0, 122.0, 0.99636, 3.1, 0.35, 12.8], [6.4, 0.27, 0.45, 8.3, 0.05, 52.0, 196.0, 0.9955, 3.18, 0.48, 9.5], [5.2, 0.285, 0.29, 5.15, 0.035, 64.0, 138.0, 0.9895, 3.19, 0.34, 12.4], [5.5, 0.12, 0.33, 1.0, 0.038, 23.0, 131.0, 0.99164, 3.25, 0.45, 9.8], [7.7, 0.27, 0.34, 1.8, 0.028, 26.0, 168.0, 0.9911, 2.99, 0.48, 12.1], [6.7, 0.26, 0.29, 7.1, 0.036, 28.0, 100.0, 0.99534, 3.08, 0.36, 9.3], [5.9, 0.24, 0.26, 12.3, 0.053, 34.0, 134.0, 0.9972, 3.34, 0.45, 9.5], [7.4, 0.18, 0.24, 1.4, 0.047, 21.0, 106.0, 0.99383, 3.52, 0.64, 10.5], [6.9, 0.37, 0.23, 9.5, 0.057, 54.0, 166.0, 0.99568, 3.23, 0.42, 10.0], [7.6, 0.13, 0.34, 9.3, 0.062, 40.0, 126.0, 0.9966, 3.21, 0.39, 9.6], [5.9, 0.27, 0.29, 11.4, 0.036, 31.0, 115.0, 0.9949, 3.35, 0.48, 10.5], [7.6, 0.29, 0.29, 4.4, 0.051, 26.0, 146.0, 0.9939, 3.16, 0.39, 10.2], [6.8, 0.35, 0.53, 10.1, 0.053, 37.0, 151.0, 0.9963, 3.07, 0.4, 9.4], [5.1, 0.35, 0.26, 6.8, 0.034, 36.0, 120.0, 0.99188, 3.38, 0.4, 11.5], [8.7, 0.23, 0.32, 13.4, 0.044, 35.0, 169.0, 0.99975, 3.12, 0.47, 8.8], [8.1, 0.33, 0.22, 5.2, 0.047, 24.0, 151.0, 0.99527, 3.22, 0.47, 10.3], [6.8, 0.26, 0.24, 7.8, 0.052, 54.0, 214.0, 0.9961, 3.13, 0.47, 8.9], [7.4, 0.27, 0.26, 11.8, 0.053, 55.0, 173.0, 0.99699, 3.11, 0.6, 9.8], [7.1, 0.25, 0.32, 10.3, 0.041, 66.0, 272.0, 0.9969, 3.17, 0.52, 9.1], [7.2, 0.27, 0.27, 2.4, 0.048, 30.0, 149.0, 0.9936, 3.1, 0.51, 9.2], [7.4, 0.24, 0.31, 8.4, 0.045, 52.0, 183.0, 0.9963, 3.09, 0.32, 8.8], [6.1, 0.32, 0.24, 1.5, 0.036, 38.0, 124.0, 0.9898, 3.29, 0.42, 12.4], [7.1, 0.23, 0.39, 1.6, 0.032, 12.0, 65.0, 0.9898, 3.25, 0.4, 12.7], [6.6, 0.39, 0.38, 9.7, 0.053, 49.0, 226.0, 0.99787, 3.3, 0.57, 9.4], [7.6, 0.31, 0.29, 10.5, 0.04, 21.0, 145.0, 0.9966, 3.04, 0.35, 9.4], [6.0, 0.17, 0.49, 1.0, 0.034, 26.0, 106.0, 0.992, 3.21, 0.42, 9.8], [6.0, 0.29, 0.21, 15.55, 0.043, 20.0, 142.0, 0.99658, 3.11, 0.54, 10.1], [6.9, 0.38, 0.29, 13.65, 0.048, 52.0, 189.0, 0.99784, 3.0, 0.6, 9.5], [6.9, 0.3, 0.45, 1.4, 0.039, 36.0, 122.0, 0.99059, 3.07, 0.47, 11.1], [5.2, 0.28, 0.29, 1.1, 0.028, 18.0, 69.0, 0.99168, 3.24, 0.54, 10.0], [6.3, 0.39, 0.24, 6.9, 0.069, 9.0, 117.0, 0.9942, 3.15, 0.35, 10.2], [7.0, 0.16, 0.26, 6.85, 0.047, 30.0, 220.0, 0.99622, 3.38, 0.58, 10.1], [7.0, 0.27, 0.74, 1.3, 0.173, 34.0, 121.0, 0.99334, 3.04, 0.46, 9.2], [5.9, 0.29, 0.25, 12.0, 0.057, 48.0, 224.0, 0.9981, 3.23, 0.41, 9.0], [6.4, 0.24, 0.26, 8.2, 0.054, 47.0, 182.0, 0.99538, 3.12, 0.5, 9.5], [7.4, 0.33, 0.26, 15.6, 0.049, 67.0, 210.0, 0.99907, 3.06, 0.68, 9.5], [7.2, 0.4, 0.49, 1.1, 0.048, 11.0, 138.0, 0.9929, 3.01, 0.42, 9.3], [7.9, 0.16, 0.74, 17.85, 0.037, 52.0, 187.0, 0.9998, 2.99, 0.41, 9.3], [6.0, 0.22, 0.23, 5.0, 0.045, 10.0, 122.0, 0.99261, 2.94, 0.63, 10.0], [6.9, 0.19, 0.39, 8.0, 0.028, 22.0, 84.0, 0.994, 3.11, 0.66, 10.8], [7.5, 0.19, 0.49, 1.6, 0.047, 42.0, 140.0, 0.9932, 3.4, 0.47, 10.7], [7.8, 0.3, 0.4, 1.8, 0.028, 23.0, 122.0, 0.9914, 3.14, 0.39, 10.9], [6.4, 0.17, 0.32, 2.4, 0.048, 41.0, 200.0, 0.9938, 3.5, 0.5, 9.7], [6.1, 0.24, 0.3, 1.5, 0.045, 22.0, 61.0, 0.992, 3.31, 0.54, 10.4], [7.0, 0.18, 0.37, 1.5, 0.043, 16.0, 104.0, 0.99216, 3.18, 0.5, 10.8], [7.2, 0.23, 0.39, 14.2, 0.058, 49.0, 192.0, 0.9979, 2.98, 0.48, 9.0], [7.9, 0.12, 0.49, 5.2, 0.049, 33.0, 152.0, 0.9952, 3.18, 0.47, 10.6], [6.2, 0.16, 0.32, 1.1, 0.036, 74.0, 184.0, 0.99096, 3.22, 0.41, 11.0], [6.3, 0.3, 0.34, 1.6, 0.049, 14.0, 132.0, 0.994, 3.3, 0.49, 9.5], [6.1, 0.24, 0.26, 1.7, 0.033, 61.0, 134.0, 0.9903, 3.19, 0.81, 11.9], [6.7, 0.18, 0.19, 4.7, 0.046, 57.0, 161.0, 0.9946, 3.32, 0.66, 10.5], [7.3, 0.19, 0.25, 1.4, 0.051, 41.0, 107.0, 0.99382, 3.53, 0.66, 10.5], [6.0, 0.16, 0.37, 1.5, 0.025, 43.0, 117.0, 0.9928, 3.46, 0.51, 9.7], [8.3, 0.25, 0.49, 16.8, 0.048, 50.0, 228.0, 1.0001, 3.03, 0.52, 9.2], [7.2, 0.17, 0.34, 6.4, 0.042, 16.0, 111.0, 0.99278, 2.99, 0.4, 10.8], [7.6, 0.2, 0.26, 4.5, 0.086, 37.0, 133.0, 0.9963, 3.15, 0.42, 9.2], [8.3, 0.39, 0.7, 10.6, 0.045, 33.0, 169.0, 0.9976, 3.09, 0.57, 9.4], [6.2, 0.28, 0.27, 10.3, 0.03, 26.0, 108.0, 0.99388, 3.2, 0.36, 10.7], [7.1, 0.53, 0.24, 0.8, 0.029, 29.0, 86.0, 0.993, 3.16, 0.32, 9.1], [7.6, 0.67, 0.14, 1.5, 0.074, 25.0, 168.0, 0.9937, 3.05, 0.51, 9.3], [7.7, 0.25, 0.3, 7.8, 0.038, 67.0, 196.0, 0.99555, 3.1, 0.5, 10.1], [6.9, 0.19, 0.35, 13.5, 0.038, 49.0, 118.0, 0.99546, 3.0, 0.63, 10.7], [7.6, 0.16, 0.44, 1.4, 0.043, 25.0, 109.0, 0.9932, 3.11, 0.75, 10.3], [6.6, 0.25, 0.3, 1.6, 0.046, 32.0, 134.0, 0.993, 3.42, 0.51, 10.1], [5.0, 0.3, 0.33, 3.7, 0.03, 54.0, 173.0, 0.9887, 3.36, 0.3, 13.0], [7.4, 0.19, 0.49, 9.3, 0.03, 26.0, 132.0, 0.994, 2.99, 0.32, 11.0], [7.1, 0.34, 0.86, 1.4, 0.174, 36.0, 99.0, 0.99288, 2.92, 0.5, 9.3], [6.2, 0.2, 0.49, 1.6, 0.065, 17.0, 143.0, 0.9937, 3.22, 0.52, 9.2], [6.9, 0.22, 0.32, 5.8, 0.041, 20.0, 119.0, 0.99296, 3.17, 0.55, 11.2], [7.9, 0.42, 0.49, 8.2, 0.056, 32.0, 164.0, 0.9965, 3.29, 0.6, 11.2], [7.0, 0.3, 0.49, 4.7, 0.036, 17.0, 105.0, 0.9916, 3.26, 0.68, 12.4], [7.7, 0.27, 0.35, 5.3, 0.03, 30.0, 117.0, 0.992, 3.11, 0.42, 12.2], [6.4, 0.32, 0.26, 7.9, 0.05, 53.0, 180.0, 0.99514, 3.14, 0.5, 9.6], [6.3, 0.23, 0.21, 5.1, 0.035, 29.0, 142.0, 0.9942, 3.36, 0.33, 10.1], [6.1, 0.17, 0.42, 15.1, 0.033, 28.0, 124.0, 0.99684, 2.87, 0.47, 9.5], [7.5, 0.23, 0.49, 7.7, 0.049, 61.0, 209.0, 0.9941, 3.14, 0.3, 11.1], [6.4, 0.105, 0.29, 1.1, 0.035, 44.0, 140.0, 0.99142, 3.17, 0.55, 10.7], [8.0, 0.55, 0.42, 12.6, 0.211, 37.0, 213.0, 0.9988, 2.99, 0.56, 9.3], [6.7, 0.25, 0.33, 2.9, 0.057, 52.0, 173.0, 0.9934, 3.02, 0.48, 9.5], [5.7, 0.18, 0.26, 2.2, 0.023, 21.0, 95.0, 0.9893, 3.07, 0.54, 12.3], [5.5, 0.15, 0.32, 14.0, 0.031, 16.0, 99.0, 0.99437, 3.26, 0.38, 11.5], [7.3, 0.25, 0.41, 1.8, 0.037, 52.0, 165.0, 0.9911, 3.29, 0.39, 12.2], [7.9, 0.35, 0.28, 12.9, 0.032, 13.0, 63.0, 0.9932, 2.99, 0.43, 13.0], [6.1, 0.27, 0.28, 9.8, 0.042, 61.0, 125.0, 0.99532, 3.14, 0.42, 10.2], [6.8, 0.46, 0.26, 6.3, 0.147, 49.0, 159.0, 0.99434, 3.14, 0.47, 10.0], [6.4, 0.22, 0.34, 1.4, 0.023, 56.0, 115.0, 0.98958, 3.18, 0.7, 11.7], [6.8, 0.27, 0.37, 8.2, 0.055, 52.0, 192.0, 0.99586, 3.11, 0.52, 9.5], [6.7, 0.14, 0.46, 1.6, 0.036, 15.0, 92.0, 0.99264, 3.37, 0.49, 10.9], [7.0, 0.31, 0.31, 9.1, 0.036, 45.0, 140.0, 0.99216, 2.98, 0.31, 12.0], [6.8, 0.28, 0.6, 1.1, 0.132, 42.0, 127.0, 0.9934, 3.09, 0.44, 9.1], [6.4, 0.24, 0.49, 5.8, 0.053, 25.0, 120.0, 0.9942, 3.01, 0.98, 10.5], [6.8, 0.25, 0.3, 11.8, 0.043, 53.0, 133.0, 0.99524, 3.03, 0.58, 10.4], [7.2, 0.23, 0.39, 14.2, 0.058, 49.0, 192.0, 0.9979, 2.98, 0.48, 9.0], [6.1, 0.16, 0.34, 6.1, 0.034, 31.0, 114.0, 0.99365, 3.32, 0.58, 10.15], [5.5, 0.12, 0.33, 1.0, 0.038, 23.0, 131.0, 0.99164, 3.25, 0.45, 9.8], [5.0, 0.35, 0.25, 7.8, 0.031, 24.0, 116.0, 0.99241, 3.39, 0.4, 11.3], [8.1, 0.2, 0.4, 2.0, 0.037, 19.0, 87.0, 0.9921, 3.12, 0.54, 11.2], [9.2, 0.25, 0.34, 1.2, 0.026, 31.0, 93.0, 0.9916, 2.93, 0.37, 11.3], [5.9, 0.2, 0.23, 1.5, 0.037, 38.0, 93.0, 0.99021, 3.36, 0.49, 12.0], [7.4, 0.25, 0.37, 13.5, 0.06, 52.0, 192.0, 0.9975, 3.0, 0.44, 9.1], [7.5, 0.24, 0.62, 10.6, 0.045, 51.0, 153.0, 0.99779, 3.16, 0.44, 8.8], [6.1, 0.33, 0.3, 3.0, 0.036, 30.0, 124.0, 0.98922, 3.31, 0.4, 13.1], [6.6, 0.33, 0.4, 2.65, 0.041, 35.0, 86.0, 0.98916, 3.11, 0.39, 13.3], [7.3, 0.23, 0.24, 0.9, 0.031, 29.0, 86.0, 0.98926, 2.9, 0.38, 12.2], [6.0, 0.29, 0.2, 12.6, 0.045, 45.0, 187.0, 0.9972, 3.33, 0.42, 9.5], [7.3, 0.19, 0.27, 13.9, 0.057, 45.0, 155.0, 0.99807, 2.94, 0.41, 8.8], [6.5, 0.38, 0.34, 3.4, 0.036, 34.0, 200.0, 0.9937, 3.14, 0.76, 10.0], [6.1, 0.21, 0.3, 6.3, 0.039, 47.0, 136.0, 0.99068, 3.27, 0.31, 12.7], [6.2, 0.12, 0.34, 1.5, 0.045, 43.0, 117.0, 0.9939, 3.42, 0.51, 9.0], [6.5, 0.29, 0.52, 7.9, 0.049, 35.0, 192.0, 0.99551, 3.16, 0.51, 9.5], [5.7, 0.265, 0.28, 6.9, 0.036, 46.0, 150.0, 0.99299, 3.36, 0.44, 10.8], [7.0, 0.2, 0.33, 4.7, 0.03, 25.0, 76.0, 0.99202, 2.88, 0.54, 10.5], [6.3, 0.34, 0.31, 6.0, 0.02, 18.0, 68.0, 0.98981, 3.22, 0.29, 13.4], [7.7, 0.28, 0.24, 2.4, 0.044, 29.0, 157.0, 0.99312, 3.27, 0.56, 10.6], [6.4, 0.1, 0.35, 4.9, 0.048, 31.0, 103.0, 0.9947, 3.43, 0.79, 9.7], [6.2, 0.25, 0.38, 7.9, 0.045, 54.0, 208.0, 0.99572, 3.17, 0.46, 9.1], [6.2, 0.23, 0.38, 1.6, 0.044, 12.0, 113.0, 0.99176, 3.3, 0.73, 11.4], [6.9, 0.2, 0.5, 10.0, 0.036, 78.0, 167.0, 0.9964, 3.15, 0.55, 10.2], [7.1, 0.3, 0.36, 6.8, 0.055, 44.5, 234.0, 0.9972, 3.49, 0.64, 10.2], [6.5, 0.22, 0.31, 3.9, 0.046, 17.0, 106.0, 0.99098, 3.15, 0.31, 11.5], [7.3, 0.34, 0.21, 3.2, 0.05, 14.0, 136.0, 0.9936, 3.25, 0.44, 10.2], [7.0, 0.24, 0.3, 12.3, 0.035, 72.0, 172.0, 0.9954, 2.99, 0.57, 10.4], [7.5, 0.19, 0.4, 7.1, 0.056, 50.0, 110.0, 0.9954, 3.06, 0.52, 9.9], [7.6, 0.34, 0.39, 7.6, 0.04, 45.0, 215.0, 0.9965, 3.11, 0.53, 9.2], [7.4, 0.26, 0.32, 3.7, 0.032, 29.0, 193.0, 0.99134, 3.1, 0.67, 12.5], [6.6, 0.32, 0.36, 8.0, 0.047, 57.0, 168.0, 0.9949, 3.15, 0.46, 9.6], [5.8, 0.28, 0.34, 2.2, 0.037, 24.0, 125.0, 0.98986, 3.36, 0.33, 12.8], [6.2, 0.23, 0.36, 17.2, 0.039, 37.0, 130.0, 0.99946, 3.23, 0.43, 8.8], [7.0, 0.55, 0.05, 8.0, 0.036, 19.0, 164.0, 0.99269, 3.26, 0.46, 12.2], [6.4, 0.25, 0.32, 5.5, 0.049, 41.0, 176.0, 0.995, 3.19, 0.68, 9.2], [6.7, 0.24, 0.36, 8.4, 0.042, 42.0, 123.0, 0.99473, 3.34, 0.52, 10.9], [7.4, 0.35, 0.31, 17.95, 0.062, 42.0, 187.0, 1.0002, 3.27, 0.64, 9.1], [6.9, 0.41, 0.33, 10.1, 0.043, 28.0, 152.0, 0.9968, 3.2, 0.52, 9.4], [6.5, 0.29, 0.26, 7.0, 0.04, 18.0, 113.0, 0.99366, 3.17, 0.38, 10.2], [6.2, 0.27, 0.32, 8.8, 0.047, 65.0, 224.0, 0.9961, 3.17, 0.47, 8.9], [6.9, 0.25, 0.47, 8.4, 0.042, 36.0, 156.0, 0.99604, 3.15, 0.55, 9.4], [6.1, 0.16, 0.29, 6.0, 0.03, 29.0, 144.0, 0.99474, 3.68, 0.46, 10.7], [7.4, 0.21, 0.27, 1.2, 0.041, 27.0, 99.0, 0.9927, 3.19, 0.33, 9.8], [5.2, 0.16, 0.34, 0.8, 0.029, 26.0, 77.0, 0.99155, 3.25, 0.51, 10.1], [6.0, 0.16, 0.3, 6.7, 0.043, 43.0, 153.0, 0.9951, 3.63, 0.46, 10.6], [6.5, 0.3, 0.32, 2.0, 0.044, 34.0, 90.0, 0.99185, 3.37, 0.68, 11.0], [7.8, 0.445, 0.56, 1.0, 0.04, 8.0, 84.0, 0.9938, 3.25, 0.43, 10.8], [5.7, 0.21, 0.32, 1.6, 0.03, 33.0, 122.0, 0.99044, 3.33, 0.52, 11.9], [8.1, 0.2, 0.28, 0.9, 0.023, 49.0, 87.0, 0.99062, 2.92, 0.36, 11.1], [6.6, 0.39, 0.28, 9.2, 0.036, 10.0, 92.0, 0.99206, 3.07, 0.35, 12.1], [6.4, 0.27, 0.32, 4.5, 0.24, 61.0, 174.0, 0.9948, 3.12, 0.48, 9.4], [6.2, 0.25, 0.48, 10.0, 0.044, 78.0, 240.0, 0.99655, 3.25, 0.47, 9.5], [6.4, 0.34, 0.44, 8.2, 0.043, 54.0, 201.0, 0.99551, 3.18, 0.48, 9.5], [6.2, 0.24, 0.27, 16.8, 0.04, 48.0, 129.0, 0.99691, 3.23, 0.38, 10.5], [6.7, 0.26, 0.39, 6.4, 0.171, 64.0, 200.0, 0.99562, 3.19, 0.38, 9.4], [6.0, 0.29, 0.41, 10.8, 0.048, 55.0, 149.0, 0.9937, 3.09, 0.59, 11.0], [6.7, 0.38, 0.26, 9.55, 0.036, 35.0, 91.0, 0.9919, 2.98, 0.37, 12.4], [6.2, 0.35, 0.03, 1.2, 0.064, 29.0, 120.0, 0.9934, 3.22, 0.54, 9.1], [7.9, 0.18, 0.37, 1.2, 0.04, 16.0, 75.0, 0.992, 3.18, 0.63, 10.8], [6.3, 0.35, 0.26, 17.6, 0.061, 59.0, 198.0, 0.99918, 3.11, 0.49, 8.8], [6.2, 0.25, 0.39, 1.3, 0.051, 42.0, 135.0, 0.9906, 3.23, 0.4, 11.1], [6.0, 0.34, 0.24, 5.4, 0.06, 23.0, 126.0, 0.9951, 3.25, 0.44, 9.0], [6.9, 0.26, 0.27, 4.2, 0.031, 20.0, 80.0, 0.99089, 3.12, 0.39, 11.5], [5.6, 0.23, 0.29, 3.1, 0.023, 19.0, 89.0, 0.99068, 3.25, 0.51, 11.2], [6.5, 0.22, 0.19, 4.5, 0.096, 16.0, 115.0, 0.9937, 3.02, 0.44, 9.6], [5.8, 0.28, 0.3, 3.9, 0.026, 36.0, 105.0, 0.98963, 3.26, 0.58, 12.75], [7.4, 0.25, 0.37, 2.6, 0.05, 24.0, 132.0, 0.99138, 3.04, 0.53, 11.2], [6.4, 0.23, 0.3, 7.1, 0.037, 63.0, 236.0, 0.9952, 3.06, 0.34, 9.2], [6.9, 0.25, 0.35, 9.2, 0.034, 42.0, 150.0, 0.9947, 3.21, 0.36, 11.5], [7.3, 0.16, 0.35, 1.5, 0.036, 29.0, 108.0, 0.99342, 3.27, 0.51, 10.2], [6.8, 0.32, 0.3, 1.0, 0.049, 22.0, 113.0, 0.99289, 3.24, 0.61, 10.2], [5.9, 0.18, 0.29, 4.6, 0.032, 68.0, 137.0, 0.99159, 3.21, 0.38, 11.3], [5.6, 0.12, 0.26, 4.3, 0.038, 18.0, 97.0, 0.99477, 3.36, 0.46, 9.2], [7.2, 0.44, 0.28, 3.4, 0.048, 22.0, 112.0, 0.99188, 3.21, 0.37, 11.3], [6.1, 0.19, 0.37, 2.6, 0.041, 24.0, 99.0, 0.99153, 3.18, 0.5, 10.9], [7.6, 0.35, 0.47, 13.3, 0.037, 42.0, 116.0, 0.99822, 3.04, 0.5, 9.2], [6.7, 0.34, 0.3, 8.5, 0.059, 24.0, 152.0, 0.99615, 3.46, 0.64, 11.0], [6.5, 0.36, 0.38, 10.2, 0.028, 20.0, 82.0, 0.99274, 3.1, 0.43, 12.1], [7.4, 0.26, 0.3, 7.9, 0.049, 38.0, 157.0, 0.9963, 3.13, 0.48, 8.9], [7.0, 0.21, 0.34, 8.5, 0.033, 31.0, 253.0, 0.9953, 3.22, 0.56, 10.5], [9.1, 0.33, 0.38, 1.7, 0.062, 50.5, 344.0, 0.9958, 3.1, 0.7, 9.5], [7.3, 0.28, 0.54, 12.9, 0.049, 62.0, 162.5, 0.9984, 3.06, 0.45, 9.1], [7.3, 0.25, 0.39, 6.4, 0.034, 8.0, 84.0, 0.9942, 3.18, 0.46, 11.5], [6.4, 0.25, 0.37, 4.5, 0.039, 41.0, 147.0, 0.9921, 3.18, 0.4, 11.1], [5.8, 0.2, 0.16, 1.4, 0.042, 44.0, 99.0, 0.98912, 3.23, 0.37, 12.2], [6.3, 0.6, 0.44, 11.0, 0.05, 50.0, 245.0, 0.9972, 3.19, 0.57, 9.3], [6.3, 0.24, 0.55, 8.1, 0.04, 67.0, 216.0, 0.99596, 3.24, 0.5, 9.2], [5.9, 0.32, 0.28, 4.7, 0.039, 34.0, 94.0, 0.98964, 3.22, 0.57, 13.1], [5.8, 0.29, 0.33, 3.7, 0.029, 30.0, 88.0, 0.98994, 3.25, 0.42, 12.3], [6.9, 0.25, 0.3, 4.1, 0.054, 23.0, 116.0, 0.994, 2.99, 0.38, 9.4], [6.8, 0.3, 0.35, 2.8, 0.038, 10.0, 164.0, 0.9912, 3.09, 0.53, 12.0], [6.6, 0.2, 0.27, 10.9, 0.038, 29.0, 130.0, 0.99496, 3.11, 0.44, 10.5], [6.8, 0.64, 0.08, 9.7, 0.062, 26.0, 142.0, 0.9972, 3.37, 0.46, 8.9], [6.6, 0.31, 0.28, 1.4, 0.035, 28.0, 107.0, 0.98836, 3.0, 0.4, 13.2], [7.3, 0.27, 0.37, 9.7, 0.042, 36.0, 130.0, 0.9979, 3.48, 0.75, 9.9], [8.4, 0.2, 0.31, 2.8, 0.054, 16.0, 89.0, 0.99416, 2.96, 0.45, 9.5], [6.6, 0.3, 0.25, 8.0, 0.036, 21.0, 124.0, 0.99362, 3.06, 0.38, 10.8], [5.4, 0.5, 0.13, 5.0, 0.028, 12.0, 107.0, 0.99079, 3.48, 0.88, 13.5], [6.0, 0.17, 0.33, 6.0, 0.036, 30.0, 111.0, 0.99362, 3.32, 0.58, 10.1333333333333], [6.5, 0.35, 0.28, 12.4, 0.051, 86.0, 213.0, 0.9962, 3.16, 0.51, 9.9], [6.7, 0.51, 0.24, 2.1, 0.043, 14.0, 155.0, 0.9904, 3.22, 0.6, 13.0], [6.6, 0.25, 0.3, 14.4, 0.052, 40.0, 183.0, 0.998, 3.02, 0.5, 9.1], [7.4, 0.36, 0.23, 1.9, 0.017, 31.0, 69.0, 0.9892, 2.93, 0.36, 12.5], [6.9, 0.23, 0.35, 6.9, 0.03, 45.0, 116.0, 0.99244, 2.8, 0.54, 11.0], [6.4, 0.4, 0.19, 3.2, 0.033, 28.0, 124.0, 0.9904, 3.22, 0.54, 12.7], [6.4, 0.68, 0.26, 3.4, 0.069, 25.0, 146.0, 0.99347, 3.18, 0.4, 9.3], [5.1, 0.14, 0.25, 0.7, 0.039, 15.0, 89.0, 0.9919, 3.22, 0.43, 9.2], [6.5, 0.18, 0.33, 8.0, 0.051, 16.0, 131.0, 0.9965, 3.28, 0.44, 8.7], [4.2, 0.215, 0.23, 5.1, 0.041, 64.0, 157.0, 0.99688, 3.42, 0.44, 8.0], [6.2, 0.16, 0.32, 1.1, 0.036, 74.0, 184.0, 0.99096, 3.22, 0.41, 11.0], [6.7, 0.24, 0.26, 5.4, 0.03, 15.0, 94.0, 0.99045, 3.15, 0.38, 12.7], [6.5, 0.23, 0.36, 16.3, 0.038, 43.0, 133.0, 0.99924, 3.26, 0.41, 8.8], [6.7, 0.25, 0.74, 19.4, 0.054, 44.0, 169.0, 1.0004, 3.51, 0.45, 9.8], [7.2, 0.22, 0.35, 5.5, 0.054, 37.0, 183.0, 0.99474, 3.08, 0.5, 10.3], [6.0, 0.24, 0.41, 1.3, 0.036, 42.0, 118.0, 0.99018, 3.04, 0.64, 11.7333333333333], [7.3, 0.24, 0.43, 2.0, 0.021, 20.0, 69.0, 0.99, 3.08, 0.56, 12.2], [7.6, 0.23, 0.4, 5.2, 0.066, 14.0, 91.0, 0.99488, 3.17, 0.8, 9.7], [7.6, 0.2, 0.39, 2.6, 0.044, 30.0, 180.0, 0.9941, 3.46, 0.44, 10.8], [6.3, 0.15, 0.3, 1.4, 0.022, 38.0, 100.0, 0.99099, 3.42, 0.57, 11.4], [7.8, 0.26, 0.31, 3.6, 0.025, 22.0, 100.0, 0.99066, 2.99, 0.47, 12.1], [6.5, 0.425, 0.4, 13.1, 0.038, 59.0, 241.0, 0.9979, 3.23, 0.57, 9.0], [7.0, 0.23, 0.33, 5.8, 0.04, 25.0, 136.0, 0.995, 3.19, 0.58, 9.5], [7.1, 0.28, 0.19, 7.8, 0.04, 48.0, 184.0, 0.99579, 3.16, 0.5, 9.4], [7.0, 0.23, 0.33, 1.0, 0.043, 46.0, 110.0, 0.99118, 3.04, 0.65, 10.8], [6.3, 0.3, 0.28, 5.0, 0.042, 36.0, 168.0, 0.99505, 3.22, 0.69, 9.5], [7.5, 0.26, 0.59, 11.8, 0.046, 58.0, 164.0, 0.99814, 3.17, 0.46, 8.9], [5.8, 0.32, 0.2, 2.6, 0.027, 17.0, 123.0, 0.98936, 3.36, 0.78, 13.9], [7.3, 0.22, 0.26, 1.5, 0.04, 32.0, 172.0, 0.99194, 3.27, 0.48, 11.2], [7.6, 0.23, 0.26, 15.3, 0.067, 32.0, 166.0, 0.9986, 3.03, 0.44, 9.2], [7.6, 0.18, 0.46, 10.2, 0.055, 58.0, 135.0, 0.9968, 3.14, 0.43, 9.9], [7.0, 0.3, 0.51, 13.6, 0.05, 40.0, 168.0, 0.9976, 3.07, 0.52, 9.6], [7.7, 0.16, 0.49, 2.0, 0.056, 20.0, 124.0, 0.9948, 3.32, 0.49, 10.7], [6.9, 0.75, 0.13, 6.3, 0.036, 19.0, 50.0, 0.99312, 3.09, 0.25, 11.1], [7.1, 0.36, 0.4, 1.95, 0.033, 26.0, 118.0, 0.98934, 3.2, 0.45, 13.5], [6.8, 0.22, 0.49, 0.9, 0.052, 26.0, 128.0, 0.991, 3.25, 0.35, 11.4], [5.6, 0.19, 0.26, 1.4, 0.03, 12.0, 76.0, 0.9905, 3.25, 0.37, 10.9], [6.8, 0.32, 0.43, 1.6, 0.05, 4.0, 65.0, 0.99346, 3.27, 0.47, 10.7], [8.4, 0.29, 0.29, 1.05, 0.032, 4.0, 55.0, 0.9908, 2.91, 0.32, 11.4], [6.9, 0.38, 0.38, 13.1, 0.112, 14.0, 94.0, 0.99792, 3.02, 0.48, 9.2], [6.5, 0.27, 0.26, 11.0, 0.03, 2.0, 82.0, 0.99402, 3.07, 0.36, 11.2], [6.2, 0.36, 0.45, 10.4, 0.06, 22.0, 184.0, 0.99711, 3.31, 0.56, 9.8], [6.3, 0.21, 0.33, 13.9, 0.046, 68.0, 179.0, 0.9971, 3.36, 0.5, 10.4], [6.9, 0.39, 0.22, 4.3, 0.03, 10.0, 102.0, 0.993, 3.0, 0.87, 11.6], [7.7, 0.34, 0.3, 8.0, 0.048, 25.0, 192.0, 0.9951, 2.97, 0.47, 10.9], [6.8, 0.25, 0.18, 1.4, 0.056, 13.0, 137.0, 0.9935, 3.11, 0.42, 9.5], [7.2, 0.21, 0.37, 1.6, 0.049, 23.0, 94.0, 0.9924, 3.16, 0.48, 10.9], [8.3, 0.3, 0.36, 10.0, 0.042, 33.0, 169.0, 0.9982, 3.23, 0.51, 9.3], [7.9, 0.3, 0.27, 8.5, 0.036, 20.0, 112.0, 0.9939, 2.96, 0.46, 11.7], [6.0, 0.28, 0.29, 19.3, 0.051, 36.0, 174.0, 0.99911, 3.14, 0.5, 9.0], [8.8, 0.39, 0.35, 1.8, 0.096, 22.0, 80.0, 0.99016, 2.95, 0.54, 12.6], [7.5, 0.2, 0.41, 1.2, 0.05, 26.0, 131.0, 0.99133, 3.19, 0.52, 11.1], [6.8, 0.26, 0.24, 1.9, 0.043, 70.0, 154.0, 0.99273, 3.18, 0.52, 10.5], [7.3, 0.51, 0.29, 11.3, 0.034, 61.0, 224.0, 0.99683, 3.14, 0.56, 9.5], [8.2, 0.21, 0.48, 1.4, 0.041, 11.0, 99.0, 0.9958, 3.17, 0.57, 9.9], [7.1, 0.55, 0.13, 1.7, 0.073, 21.0, 165.0, 0.994, 2.97, 0.58, 9.2], [5.6, 0.35, 0.4, 6.3, 0.022, 23.0, 174.0, 0.9922, 3.54, 0.5, 11.6], [7.5, 0.24, 0.29, 1.1, 0.046, 34.0, 84.0, 0.9902, 3.04, 0.39, 11.45], [7.6, 0.3, 0.22, 10.2, 0.049, 57.0, 191.0, 0.9966, 3.08, 0.4, 9.3], [6.1, 0.25, 0.48, 15.8, 0.052, 25.0, 94.0, 0.99782, 3.07, 0.45, 9.2], [8.6, 0.2, 0.42, 1.5, 0.041, 35.0, 125.0, 0.9925, 3.11, 0.49, 11.4], [7.5, 0.15, 0.38, 1.8, 0.054, 19.0, 101.0, 0.9946, 3.24, 0.44, 10.0], [6.0, 0.23, 0.15, 9.7, 0.048, 101.0, 207.0, 0.99571, 3.05, 0.3, 9.1], [7.4, 0.26, 0.31, 2.4, 0.043, 58.0, 178.0, 0.9941, 3.42, 0.68, 10.6], [7.2, 0.19, 0.46, 3.8, 0.041, 82.0, 187.0, 0.9932, 3.19, 0.6, 11.2], [6.5, 0.26, 0.31, 3.6, 0.03, 36.0, 92.0, 0.99026, 3.22, 0.62, 12.6], [7.2, 0.39, 0.63, 11.0, 0.044, 55.0, 156.0, 0.9974, 3.09, 0.44, 8.7], [5.8, 0.24, 0.26, 10.05, 0.039, 63.0, 162.0, 0.99375, 3.33, 0.5, 11.2], [5.3, 0.21, 0.29, 0.7, 0.028, 11.0, 66.0, 0.99215, 3.3, 0.4, 9.8], [6.9, 0.24, 0.35, 1.0, 0.052, 35.0, 146.0, 0.993, 3.45, 0.44, 10.0], [6.0, 0.24, 0.28, 3.95, 0.038, 61.0, 134.0, 0.99146, 3.3, 0.54, 11.3], [9.4, 0.23, 0.56, 16.45, 0.063, 52.5, 282.0, 1.00098, 3.1, 0.51, 9.3], [7.4, 0.26, 0.29, 3.7, 0.048, 14.0, 73.0, 0.9915, 3.06, 0.45, 11.4], [7.7, 0.25, 0.3, 7.8, 0.038, 67.0, 196.0, 0.99555, 3.1, 0.5, 10.1], [6.7, 0.31, 0.33, 2.0, 0.033, 12.0, 74.0, 0.99064, 3.29, 0.65, 12.5], [6.5, 0.27, 0.19, 4.2, 0.046, 6.0, 114.0, 0.9955, 3.25, 0.35, 8.6], [7.1, 0.23, 0.39, 13.7, 0.058, 26.0, 172.0, 0.99755, 2.9, 0.46, 9.0], [7.1, 0.36, 0.37, 4.8, 0.019, 39.0, 114.0, 0.99036, 3.08, 0.49, 12.7], [6.2, 0.16, 0.34, 1.7, 0.038, 85.0, 153.0, 0.9909, 3.33, 0.86, 12.0], [5.8, 0.24, 0.39, 1.5, 0.054, 37.0, 158.0, 0.9932, 3.21, 0.52, 9.3], [6.6, 0.23, 0.18, 8.5, 0.044, 59.0, 188.0, 0.99558, 3.16, 0.49, 9.5], [7.7, 0.25, 0.43, 4.5, 0.062, 20.0, 115.0, 0.9966, 3.38, 0.5, 9.9], [5.2, 0.2, 0.27, 3.2, 0.047, 16.0, 93.0, 0.99235, 3.44, 0.53, 10.1], [7.2, 0.24, 0.29, 3.0, 0.036, 17.0, 117.0, 0.99411, 3.36, 0.68, 10.1], [6.3, 0.27, 0.49, 1.2, 0.063, 35.0, 92.0, 0.9911, 3.38, 0.42, 12.2], [6.8, 0.31, 0.19, 3.5, 0.086, 30.0, 130.0, 0.993, 2.83, 0.44, 9.6], [7.3, 0.25, 0.36, 2.1, 0.034, 30.0, 177.0, 0.99085, 3.25, 0.4, 11.9], [7.6, 0.18, 0.36, 2.4, 0.049, 38.0, 123.0, 0.996, 3.6, 0.46, 10.3], [8.6, 0.27, 0.46, 6.1, 0.032, 13.0, 41.0, 0.993, 2.89, 0.34, 10.9], [7.0, 0.24, 0.25, 1.7, 0.042, 48.0, 189.0, 0.992, 3.25, 0.42, 11.4], [6.3, 0.39, 0.35, 5.9, 0.04, 82.5, 260.0, 0.9941, 3.12, 0.66, 10.1], [7.4, 0.24, 0.29, 10.1, 0.05, 21.0, 105.0, 0.9962, 3.13, 0.35, 9.5], [7.2, 0.4, 0.49, 1.1, 0.048, 11.0, 138.0, 0.9929, 3.01, 0.42, 9.3], [7.7, 0.28, 0.58, 12.1, 0.046, 60.0, 177.0, 0.9983, 3.08, 0.46, 8.9], [14.2, 0.27, 0.49, 1.1, 0.037, 33.0, 156.0, 0.992, 3.15, 0.54, 11.1], [7.6, 0.3, 0.38, 2.1, 0.043, 10.0, 98.0, 0.99296, 3.17, 0.65, 11.0], [6.0, 0.32, 0.3, 1.3, 0.025, 18.0, 112.0, 0.98802, 3.07, 0.64, 13.3], [6.4, 0.24, 0.29, 11.4, 0.051, 32.0, 166.0, 0.9968, 3.31, 0.45, 9.5], [6.6, 0.3, 0.3, 4.8, 0.17, 60.0, 166.0, 0.9946, 3.18, 0.47, 9.4], [7.6, 0.17, 0.27, 4.6, 0.05, 23.0, 98.0, 0.99422, 3.08, 0.47, 9.5], [6.2, 0.1, 0.41, 1.0, 0.04, 17.0, 76.0, 0.98988, 3.14, 0.56, 11.4], [6.0, 0.33, 0.18, 3.0, 0.036, 5.0, 85.0, 0.99125, 3.28, 0.4, 11.5], [6.8, 0.18, 0.32, 7.2, 0.047, 17.0, 109.0, 0.99498, 3.42, 0.44, 10.4], [6.7, 0.21, 0.48, 14.8, 0.05, 31.0, 195.0, 0.99942, 2.95, 0.75, 8.8], [6.9, 0.33, 0.28, 1.3, 0.051, 37.0, 187.0, 0.9927, 3.27, 0.6, 10.3], [8.4, 0.2, 0.38, 11.8, 0.055, 51.0, 170.0, 1.0004, 3.34, 0.82, 8.9], [5.5, 0.42, 0.09, 1.6, 0.019, 18.0, 68.0, 0.9906, 3.33, 0.51, 11.4], [6.6, 0.4, 0.32, 1.7, 0.035, 39.0, 84.0, 0.99096, 3.59, 0.48, 12.7], [7.0, 0.22, 0.32, 1.6, 0.045, 40.0, 120.0, 0.9914, 2.98, 0.44, 10.5], [6.6, 0.34, 0.25, 4.8, 0.038, 16.0, 121.0, 0.99198, 3.36, 0.71, 12.6], [6.8, 0.34, 0.69, 1.3, 0.058, 12.0, 171.0, 0.9931, 3.06, 0.47, 9.7], [5.3, 0.32, 0.23, 9.65, 0.026, 26.0, 119.0, 0.99168, 3.18, 0.53, 12.2], [7.1, 0.27, 0.27, 10.4, 0.041, 26.0, 114.0, 0.99335, 3.04, 0.52, 11.5], [6.5, 0.18, 0.41, 14.2, 0.039, 47.0, 129.0, 0.99678, 3.28, 0.72, 10.3], [6.7, 0.32, 0.32, 1.7, 0.031, 31.0, 114.0, 0.98946, 3.12, 0.35, 12.5], [6.9, 0.25, 0.34, 1.3, 0.035, 27.0, 82.0, 0.99045, 3.18, 0.44, 12.2], [6.0, 0.26, 0.34, 1.3, 0.046, 6.0, 29.0, 0.9924, 3.29, 0.63, 10.4], [8.2, 0.25, 0.46, 3.75, 0.05, 14.0, 102.0, 0.99524, 3.28, 0.58, 9.7], [7.0, 0.19, 0.33, 6.3, 0.032, 42.0, 127.0, 0.99182, 3.31, 0.38, 12.2], [5.9, 0.23, 0.3, 12.9, 0.054, 57.0, 170.0, 0.9972, 3.28, 0.39, 9.4], [3.9, 0.225, 0.4, 4.2, 0.03, 29.0, 118.0, 0.989, 3.57, 0.36, 12.8], [6.8, 0.21, 0.27, 18.15, 0.042, 41.0, 146.0, 1.0001, 3.3, 0.36, 8.7], [6.5, 0.29, 0.3, 9.15, 0.051, 25.0, 166.0, 0.99339, 3.24, 0.56, 11.35], [6.5, 0.24, 0.28, 1.1, 0.034, 26.0, 83.0, 0.98928, 3.25, 0.33, 12.3], [8.4, 0.22, 0.28, 18.8, 0.028, 55.0, 130.0, 0.998, 2.96, 0.35, 11.6], [7.5, 0.18, 0.45, 4.6, 0.041, 67.0, 158.0, 0.9927, 3.01, 0.38, 10.6], [9.5, 0.21, 0.47, 1.3, 0.039, 21.0, 123.0, 0.9959, 2.9, 0.64, 9.5], [5.6, 0.175, 0.29, 0.8, 0.043, 20.0, 67.0, 0.99112, 3.28, 0.48, 9.9], [6.9, 0.21, 0.33, 1.8, 0.034, 48.0, 136.0, 0.9899, 3.25, 0.41, 12.6], [6.7, 0.12, 0.36, 2.3, 0.039, 43.0, 125.0, 0.99229, 3.07, 0.67, 10.1], [6.4, 0.22, 0.32, 7.2, 0.028, 15.0, 83.0, 0.993, 3.13, 0.55, 10.9], [6.3, 0.21, 0.58, 10.0, 0.081, 34.0, 126.0, 0.9962, 2.95, 0.46, 8.9], [8.0, 0.16, 0.36, 1.5, 0.033, 14.0, 122.0, 0.9941, 3.2, 0.39, 10.3], [6.3, 0.17, 0.23, 5.7, 0.048, 44.0, 147.0, 0.99382, 3.08, 0.54, 10.0], [6.9, 0.35, 0.55, 11.95, 0.038, 22.0, 111.0, 0.99687, 3.11, 0.29, 9.7], [7.3, 0.2, 0.29, 19.5, 0.039, 69.0, 237.0, 1.00037, 3.1, 0.48, 9.2], [6.7, 0.3, 0.74, 5.0, 0.038, 35.0, 157.0, 0.9945, 3.21, 0.46, 9.9], [7.6, 0.23, 0.34, 1.6, 0.043, 24.0, 129.0, 0.99305, 3.12, 0.7, 10.4], [7.8, 0.2, 0.24, 1.6, 0.026, 26.0, 189.0, 0.991, 3.08, 0.74, 12.1], [6.4, 0.27, 0.19, 1.9, 0.085, 21.0, 196.0, 0.99516, 3.49, 0.64, 9.5], [7.0, 0.15, 0.28, 14.7, 0.051, 29.0, 149.0, 0.99792, 2.96, 0.39, 9.0], [7.8, 0.18, 0.31, 12.2, 0.053, 46.0, 140.0, 0.998, 3.06, 0.53, 8.9], [6.8, 0.23, 0.32, 1.6, 0.026, 43.0, 147.0, 0.9904, 3.29, 0.54, 12.5], [6.6, 0.21, 0.29, 5.35, 0.029, 43.0, 106.0, 0.99112, 2.93, 0.43, 11.5], [6.4, 0.24, 0.49, 5.8, 0.053, 25.0, 120.0, 0.9942, 3.01, 0.98, 10.5], [6.6, 0.34, 0.4, 8.1, 0.046, 68.0, 170.0, 0.99494, 3.15, 0.5, 9.53333333333333], [6.1, 0.21, 0.38, 1.5, 0.039, 37.0, 122.0, 0.98972, 3.2, 0.43, 12.0], [6.8, 0.25, 0.18, 1.4, 0.056, 13.0, 137.0, 0.9935, 3.11, 0.42, 9.5], [8.1, 0.17, 0.21, 1.6, 0.036, 24.0, 119.0, 0.99396, 3.18, 0.52, 10.1], [7.7, 0.4, 0.27, 4.5, 0.034, 27.0, 95.0, 0.99175, 3.21, 0.59, 12.3], [5.5, 0.29, 0.3, 1.1, 0.022, 20.0, 110.0, 0.98869, 3.34, 0.38, 12.8], [4.9, 0.335, 0.14, 1.3, 0.036, 69.0, 168.0, 0.99212, 3.47, 0.46, 10.4666666666667], [6.4, 0.31, 0.53, 8.8, 0.057, 36.0, 221.0, 0.99642, 3.17, 0.44, 9.1], [5.8, 0.25, 0.28, 11.1, 0.056, 45.0, 175.0, 0.99755, 3.42, 0.43, 9.5], [6.6, 0.24, 0.27, 1.4, 0.057, 33.0, 152.0, 0.9934, 3.22, 0.56, 9.5], [6.4, 0.23, 0.35, 10.3, 0.042, 54.0, 140.0, 0.9967, 3.23, 0.47, 9.2], [5.6, 0.245, 0.25, 9.7, 0.032, 12.0, 68.0, 0.994, 3.31, 0.34, 10.5], [5.8, 0.4, 0.42, 4.4, 0.047, 38.5, 245.0, 0.9937, 3.25, 0.57, 9.6], [6.7, 0.18, 0.3, 6.4, 0.048, 40.0, 251.0, 0.9956, 3.29, 0.52, 10.0], [5.7, 0.24, 0.47, 6.3, 0.069, 35.0, 182.0, 0.99391, 3.11, 0.46, 9.75], [7.5, 0.31, 0.24, 7.1, 0.031, 28.0, 141.0, 0.99397, 3.16, 0.38, 10.6], [5.9, 0.28, 0.34, 3.6, 0.04, 50.0, 194.0, 0.9912, 3.31, 0.52, 11.6], [6.9, 0.33, 0.21, 1.0, 0.053, 39.0, 148.0, 0.9927, 3.12, 0.45, 9.4], [7.6, 0.21, 0.6, 2.1, 0.046, 47.0, 165.0, 0.9936, 3.05, 0.54, 10.1], [7.0, 0.21, 0.22, 5.1, 0.048, 38.0, 168.0, 0.9945, 3.34, 0.49, 10.4], [6.8, 0.19, 0.71, 17.5, 0.042, 21.0, 114.0, 0.99784, 2.85, 0.5, 9.5], [7.2, 0.22, 0.49, 1.0, 0.045, 34.0, 140.0, 0.99, 3.05, 0.34, 12.7], [7.0, 0.21, 0.28, 8.6, 0.045, 37.0, 221.0, 0.9954, 3.25, 0.54, 10.4], [7.2, 0.24, 0.3, 1.2, 0.037, 11.0, 95.0, 0.98914, 2.96, 0.36, 12.5], [7.2, 0.39, 0.62, 11.0, 0.047, 66.0, 178.0, 0.9976, 3.16, 0.5, 8.7], [6.8, 0.18, 0.3, 12.8, 0.062, 19.0, 171.0, 0.99808, 3.0, 0.52, 9.0], [7.2, 0.16, 0.26, 7.1, 0.054, 41.0, 224.0, 0.9966, 3.38, 0.55, 10.1], [7.0, 0.16, 0.3, 2.6, 0.043, 34.0, 90.0, 0.99047, 2.88, 0.47, 11.2], [6.7, 0.45, 0.3, 5.3, 0.036, 27.0, 165.0, 0.99122, 3.12, 0.46, 12.2], [7.2, 0.25, 0.39, 18.95, 0.038, 42.0, 155.0, 0.9999, 2.97, 0.47, 9.0], [6.9, 0.19, 0.4, 1.4, 0.036, 14.0, 55.0, 0.9909, 3.08, 0.68, 11.5], [8.1, 0.24, 0.33, 10.2, 0.048, 46.0, 141.0, 0.9972, 3.16, 0.48, 10.3], [6.8, 0.34, 0.74, 2.8, 0.088, 23.0, 185.0, 0.9928, 3.51, 0.7, 12.0], [7.4, 0.49, 0.24, 15.1, 0.03, 34.0, 153.0, 0.9953, 3.13, 0.51, 12.0], [7.5, 0.22, 0.29, 4.8, 0.05, 33.0, 87.0, 0.994, 3.14, 0.42, 9.9], [7.1, 0.12, 0.32, 9.6, 0.054, 64.0, 162.0, 0.9962, 3.4, 0.41, 9.4], [7.3, 0.3, 0.74, 13.5, 0.039, 46.0, 165.0, 0.9982, 3.02, 0.4, 8.7], [7.8, 0.42, 0.26, 9.2, 0.058, 34.0, 199.0, 0.9972, 3.14, 0.55, 9.3], [5.6, 0.24, 0.34, 2.0, 0.041, 14.0, 73.0, 0.98981, 3.04, 0.45, 11.6], [7.3, 0.28, 0.54, 12.9, 0.049, 62.0, 152.0, 0.9984, 3.06, 0.45, 9.1], [7.8, 0.26, 0.74, 7.5, 0.044, 59.0, 160.0, 0.996, 3.22, 0.64, 10.0], [6.2, 0.38, 0.18, 7.4, 0.095, 28.0, 195.0, 0.99773, 3.53, 0.71, 9.2], [6.5, 0.26, 0.74, 13.3, 0.044, 68.0, 224.0, 0.9972, 3.18, 0.54, 9.5], [8.0, 0.55, 0.17, 8.2, 0.04, 13.0, 60.0, 0.9956, 3.09, 0.3, 9.5], [6.9, 0.26, 0.31, 7.0, 0.039, 37.0, 175.0, 0.99376, 3.32, 0.49, 11.4], [6.8, 0.16, 0.36, 1.3, 0.034, 32.0, 98.0, 0.99058, 3.02, 0.58, 11.3], [6.8, 0.26, 0.34, 15.1, 0.06, 42.0, 162.0, 0.99705, 3.24, 0.52, 10.5], [6.0, 0.59, 0.0, 0.8, 0.037, 30.0, 95.0, 0.99032, 3.1, 0.4, 10.9], [6.0, 0.13, 0.28, 5.7, 0.038, 56.0, 189.5, 0.9948, 3.59, 0.43, 10.6], [6.8, 0.25, 0.34, 4.7, 0.031, 34.0, 134.0, 0.9927, 3.21, 0.38, 10.6], [6.4, 0.2, 0.28, 2.5, 0.032, 24.0, 84.0, 0.99168, 3.31, 0.55, 11.5], [5.5, 0.24, 0.32, 8.7, 0.06, 19.0, 102.0, 0.994, 3.27, 0.31, 10.4], [6.8, 0.46, 0.26, 2.7, 0.042, 28.0, 83.0, 0.99114, 3.38, 0.51, 12.0], [6.1, 0.22, 0.4, 1.85, 0.031, 25.0, 111.0, 0.98966, 3.03, 0.3, 11.8], [6.9, 0.38, 0.25, 9.8, 0.04, 28.0, 191.0, 0.9971, 3.28, 0.61, 9.2], [5.8, 0.32, 0.38, 4.75, 0.033, 23.0, 94.0, 0.991, 3.42, 0.42, 11.8], [6.0, 0.28, 0.27, 15.5, 0.036, 31.0, 134.0, 0.99408, 3.19, 0.44, 13.0], [6.8, 0.31, 0.19, 3.5, 0.086, 30.0, 130.0, 0.993, 2.83, 0.44, 9.6], [7.2, 0.27, 0.42, 1.6, 0.05, 35.0, 135.0, 0.992, 2.94, 0.46, 11.0], [5.8, 0.32, 0.28, 4.3, 0.032, 46.0, 115.0, 0.98946, 3.16, 0.57, 13.0], [8.1, 0.26, 0.3, 7.8, 0.049, 39.0, 152.0, 0.9954, 2.99, 0.58, 10.0], [7.1, 0.22, 0.32, 16.9, 0.056, 49.0, 158.0, 0.9998, 3.37, 0.38, 9.6], [7.1, 0.16, 0.36, 10.7, 0.044, 20.0, 90.0, 0.9959, 3.16, 0.44, 10.9], [7.6, 0.51, 0.24, 1.2, 0.04, 10.0, 104.0, 0.992, 3.05, 0.29, 10.8], [7.5, 0.23, 0.36, 7.0, 0.036, 43.0, 161.0, 0.9938, 3.04, 0.32, 11.0], [8.0, 0.74, 0.21, 4.0, 0.05, 24.0, 133.0, 0.99418, 3.06, 0.38, 9.7], [5.9, 0.15, 0.31, 5.8, 0.041, 53.0, 155.0, 0.9945, 3.52, 0.46, 10.5], [7.6, 0.31, 0.49, 3.95, 0.044, 27.0, 131.0, 0.9912, 3.08, 0.67, 12.8], [7.6, 0.23, 0.49, 10.0, 0.036, 45.0, 182.0, 0.9967, 3.08, 0.58, 9.6], [6.8, 0.19, 0.58, 14.2, 0.038, 51.0, 164.0, 0.9975, 3.12, 0.48, 9.6], [6.2, 0.3, 0.3, 2.5, 0.041, 29.0, 82.0, 0.99065, 3.31, 0.61, 11.8], [6.2, 0.3, 0.31, 1.6, 0.035, 40.0, 106.0, 0.98914, 3.26, 0.39, 12.9], [7.0, 0.2, 0.37, 2.0, 0.03, 26.0, 136.0, 0.9932, 3.28, 0.61, 10.2], [6.7, 0.27, 0.31, 15.7, 0.036, 44.0, 179.0, 0.9979, 3.26, 0.56, 9.6], [5.9, 0.2, 0.28, 1.0, 0.043, 45.0, 100.0, 0.99033, 3.4, 0.41, 11.4], [7.8, 0.15, 0.24, 7.7, 0.047, 21.0, 98.0, 0.9951, 2.94, 0.31, 9.6], [6.2, 0.2, 0.26, 1.7, 0.093, 40.0, 161.0, 0.9924, 3.44, 0.66, 11.0], [6.6, 0.34, 0.24, 3.3, 0.034, 29.0, 99.0, 0.99031, 3.1, 0.4, 12.3], [7.0, 0.34, 0.3, 1.8, 0.045, 44.0, 142.0, 0.9914, 2.99, 0.45, 10.8], [8.0, 0.45, 0.28, 10.8, 0.051, 25.0, 157.0, 0.9957, 3.06, 0.47, 11.4], [5.2, 0.335, 0.2, 1.7, 0.033, 17.0, 74.0, 0.99002, 3.34, 0.48, 12.3], [7.2, 0.32, 0.36, 2.0, 0.033, 37.0, 114.0, 0.9906, 3.1, 0.71, 12.3], [7.1, 0.31, 0.47, 13.6, 0.056, 54.0, 197.0, 0.9978, 3.1, 0.49, 9.3], [7.0, 0.12, 0.29, 10.3, 0.039, 41.0, 98.0, 0.99564, 3.19, 0.38, 9.8], [6.7, 0.16, 0.49, 2.4, 0.046, 57.0, 187.0, 0.9952, 3.62, 0.81, 10.4], [6.5, 0.41, 0.22, 4.8, 0.052, 49.0, 142.0, 0.9946, 3.14, 0.62, 9.2], [7.8, 0.21, 0.49, 1.2, 0.036, 20.0, 99.0, 0.99, 3.05, 0.28, 12.1], [6.0, 0.28, 0.24, 17.8, 0.047, 42.0, 111.0, 0.99896, 3.1, 0.45, 8.9], [5.6, 0.18, 0.58, 1.25, 0.034, 29.0, 129.0, 0.98984, 3.51, 0.6, 12.0], [6.9, 0.19, 0.35, 13.5, 0.038, 49.0, 118.0, 0.99546, 3.0, 0.63, 10.7], [6.2, 0.3, 0.32, 1.3, 0.054, 27.0, 183.0, 0.99266, 3.3, 0.43, 10.1], [6.8, 0.28, 0.17, 13.9, 0.047, 49.0, 162.0, 0.9983, 3.21, 0.51, 9.0], [7.3, 0.2, 0.39, 2.3, 0.048, 24.0, 87.0, 0.99044, 2.94, 0.35, 12.0], [6.1, 0.37, 0.36, 4.7, 0.035, 36.0, 116.0, 0.991, 3.31, 0.62, 12.6], [6.4, 0.26, 0.3, 2.2, 0.025, 33.0, 134.0, 0.992, 3.21, 0.47, 10.6], [7.0, 0.39, 0.21, 10.7, 0.098, 13.0, 91.0, 0.99657, 3.03, 0.47, 9.3], [7.1, 0.18, 0.74, 15.6, 0.044, 44.0, 176.0, 0.9996, 3.38, 0.67, 9.0], [7.0, 0.34, 0.39, 6.9, 0.066, 43.0, 162.0, 0.99561, 3.11, 0.53, 9.5], [7.2, 0.24, 0.27, 11.4, 0.034, 40.0, 174.0, 0.99773, 3.2, 0.44, 9.0], [8.0, 0.2, 0.36, 1.2, 0.032, 21.0, 78.0, 0.9921, 3.08, 0.37, 10.4], [6.3, 0.17, 0.42, 2.8, 0.028, 45.0, 107.0, 0.9908, 3.27, 0.43, 11.8], [6.7, 0.46, 0.21, 4.0, 0.034, 12.0, 88.0, 0.99016, 3.26, 0.54, 13.0], [6.5, 0.23, 0.25, 17.3, 0.046, 15.0, 110.0, 0.99828, 3.15, 0.42, 9.2], [8.5, 0.56, 0.74, 17.85, 0.051, 51.0, 243.0, 1.0005, 2.99, 0.7, 9.2], [6.1, 0.2, 0.4, 1.9, 0.028, 32.0, 138.0, 0.9914, 3.26, 0.72, 11.7], [7.2, 0.51, 0.24, 10.0, 0.093, 35.0, 197.0, 0.9981, 3.41, 0.47, 9.0], [8.1, 0.28, 0.34, 1.3, 0.035, 11.0, 126.0, 0.99232, 3.14, 0.5, 9.8], [6.3, 0.2, 0.3, 5.9, 0.034, 35.0, 152.0, 0.99642, 3.47, 0.4, 8.5], [6.6, 0.24, 0.29, 2.0, 0.023, 19.0, 86.0, 0.99, 3.25, 0.45, 12.5], [6.1, 0.21, 0.19, 1.4, 0.046, 51.0, 131.0, 0.99184, 3.22, 0.39, 10.5], [7.0, 0.24, 0.47, 1.3, 0.043, 18.0, 131.0, 0.99176, 3.19, 0.45, 11.0], [6.2, 0.18, 0.38, 1.5, 0.028, 36.0, 117.0, 0.993, 3.47, 0.54, 9.7], [7.1, 0.22, 0.33, 2.8, 0.033, 48.0, 153.0, 0.9899, 3.15, 0.38, 12.7], [6.6, 0.19, 0.33, 1.8, 0.035, 42.0, 148.0, 0.99196, 3.15, 0.36, 10.2], [8.3, 0.14, 0.45, 1.5, 0.039, 18.0, 98.0, 0.99215, 3.02, 0.56, 11.0], [6.0, 0.26, 0.29, 1.0, 0.032, 27.0, 96.0, 0.9896, 3.38, 0.44, 12.3], [6.9, 0.4, 0.22, 5.95, 0.081, 76.0, 303.0, 0.99705, 3.4, 0.57, 9.4], [6.9, 0.4, 0.56, 11.2, 0.043, 40.0, 142.0, 0.9975, 3.14, 0.46, 8.7], [8.9, 0.27, 0.28, 0.8, 0.024, 29.0, 128.0, 0.98984, 3.01, 0.35, 12.4], [6.6, 0.38, 0.29, 2.9, 0.035, 15.0, 101.0, 0.98916, 3.04, 0.37, 12.5], [6.8, 0.31, 0.32, 7.6, 0.052, 35.0, 143.0, 0.9959, 3.14, 0.38, 9.0], [7.6, 0.56, 0.12, 10.4, 0.096, 22.0, 177.0, 0.9983, 3.32, 0.45, 9.1], [6.0, 0.19, 0.26, 12.4, 0.048, 50.0, 147.0, 0.9972, 3.3, 0.36, 8.9], [7.3, 0.32, 0.23, 13.7, 0.05, 49.0, 197.0, 0.9985, 3.2, 0.46, 8.7], [6.5, 0.32, 0.23, 8.5, 0.051, 20.0, 138.0, 0.9943, 3.03, 0.42, 10.7], [7.2, 0.16, 0.32, 0.8, 0.04, 50.0, 121.0, 0.9922, 3.27, 0.33, 10.0], [6.6, 0.22, 0.58, 1.1, 0.133, 52.0, 136.0, 0.9932, 3.1, 0.3, 9.1], [7.7, 0.44, 0.24, 11.2, 0.031, 41.0, 167.0, 0.9948, 3.12, 0.43, 11.3], [6.4, 0.35, 0.28, 1.1, 0.055, 9.0, 160.0, 0.99405, 3.42, 0.5, 9.1], [7.7, 0.34, 0.28, 11.0, 0.04, 31.0, 117.0, 0.99815, 3.27, 0.29, 9.2], [6.7, 0.25, 0.31, 1.35, 0.061, 30.5, 218.0, 0.99388, 3.16, 0.53, 9.5], [9.1, 0.28, 0.49, 2.0, 0.059, 10.0, 112.0, 0.9958, 3.15, 0.46, 10.1], [7.1, 0.28, 0.49, 6.5, 0.041, 28.0, 111.0, 0.9926, 3.41, 0.58, 12.2], [6.6, 0.17, 0.26, 7.4, 0.052, 45.0, 128.0, 0.99388, 3.16, 0.37, 10.0], [9.4, 0.3, 0.32, 10.7, 0.029, 14.0, 111.0, 0.9958, 2.85, 0.42, 10.6], [6.2, 0.27, 0.43, 7.8, 0.056, 48.0, 244.0, 0.9956, 3.1, 0.51, 9.0], [8.6, 0.55, 0.35, 15.55, 0.057, 35.5, 366.5, 1.0001, 3.04, 0.63, 11.0], [7.6, 0.29, 0.42, 1.3, 0.035, 18.0, 86.0, 0.9908, 2.99, 0.39, 11.3], [6.4, 0.38, 0.24, 7.2, 0.047, 41.0, 151.0, 0.99604, 3.11, 0.6, 9.2], [7.5, 0.32, 0.49, 1.7, 0.031, 44.0, 109.0, 0.9906, 3.07, 0.46, 12.5], [6.5, 0.26, 0.43, 8.9, 0.083, 50.0, 171.0, 0.9965, 2.85, 0.5, 9.0], [6.0, 0.14, 0.37, 1.2, 0.032, 63.0, 148.0, 0.99185, 3.32, 0.44, 11.2], [6.0, 0.26, 0.29, 3.1, 0.041, 37.0, 144.0, 0.98944, 3.22, 0.39, 12.8], [7.1, 0.25, 0.3, 2.4, 0.042, 25.0, 122.0, 0.994, 3.43, 0.61, 10.5], [8.3, 0.3, 0.36, 10.0, 0.042, 33.0, 169.0, 0.9982, 3.23, 0.51, 9.3], [7.1, 0.18, 0.42, 1.4, 0.045, 47.0, 157.0, 0.9916, 2.95, 0.31, 10.5], [6.2, 0.46, 0.25, 4.4, 0.066, 62.0, 207.0, 0.9939, 3.25, 0.52, 9.8], [8.2, 0.42, 0.29, 4.1, 0.03, 31.0, 100.0, 0.9911, 3.0, 0.32, 12.8], [6.6, 0.25, 0.41, 7.4, 0.043, 29.0, 151.0, 0.9946, 3.15, 0.6, 10.2], [6.8, 0.24, 0.31, 18.3, 0.046, 40.0, 142.0, 1.0, 3.3, 0.41, 8.7], [6.7, 0.22, 0.33, 1.2, 0.036, 36.0, 86.0, 0.99058, 3.1, 0.76, 11.4], [7.9, 0.18, 0.49, 5.2, 0.051, 36.0, 157.0, 0.9953, 3.18, 0.48, 10.6], [5.9, 0.44, 0.33, 1.2, 0.049, 12.0, 117.0, 0.99134, 3.46, 0.44, 11.5], [7.3, 0.22, 0.49, 9.9, 0.031, 48.0, 161.0, 0.9937, 3.01, 0.28, 11.2], [8.3, 0.21, 0.58, 17.1, 0.049, 62.0, 213.0, 1.0006, 3.01, 0.51, 9.3], [7.4, 0.25, 0.36, 13.2, 0.067, 53.0, 178.0, 0.9976, 3.01, 0.48, 9.0], [7.3, 0.43, 0.37, 4.6, 0.028, 17.0, 114.0, 0.991, 3.23, 0.43, 13.2], [6.6, 0.21, 0.38, 2.2, 0.026, 40.0, 104.0, 0.9914, 3.25, 0.4, 11.1], [6.2, 0.32, 0.12, 4.8, 0.054, 6.0, 97.0, 0.99424, 3.16, 0.5, 9.3], [6.5, 0.31, 0.61, 13.0, 0.053, 31.0, 123.0, 0.99708, 3.09, 0.5, 9.3], [6.5, 0.15, 0.55, 5.9, 0.045, 75.0, 162.0, 0.99482, 2.97, 0.4, 9.3], [7.1, 0.27, 0.24, 12.6, 0.044, 48.0, 118.0, 0.99726, 3.04, 0.56, 10.0], [6.8, 0.27, 0.3, 13.0, 0.047, 69.0, 160.0, 0.99705, 3.16, 0.5, 9.6], [6.4, 0.23, 0.26, 8.1, 0.054, 47.0, 181.0, 0.9954, 3.12, 0.49, 9.4], [6.6, 0.29, 0.44, 9.0, 0.053, 62.0, 178.0, 0.99685, 3.02, 0.45, 8.9], [6.5, 0.36, 0.31, 13.55, 0.053, 20.0, 113.0, 0.99544, 3.2, 0.56, 11.0], [8.8, 0.36, 0.44, 1.9, 0.04, 9.0, 121.0, 0.9953, 3.19, 0.48, 9.9], [5.9, 0.37, 0.1, 1.6, 0.057, 39.0, 128.0, 0.9924, 3.24, 0.48, 10.1], [6.0, 0.36, 0.06, 1.4, 0.066, 27.0, 128.0, 0.9934, 3.26, 0.55, 9.3], [8.6, 0.18, 0.36, 1.8, 0.04, 24.0, 187.0, 0.9956, 3.25, 0.55, 9.5], [6.6, 0.26, 0.31, 4.8, 0.138, 41.0, 168.0, 0.9951, 3.2, 0.38, 9.3], [7.7, 0.28, 0.29, 6.9, 0.041, 29.0, 163.0, 0.9952, 3.44, 0.6, 10.5], [7.4, 0.27, 0.26, 11.8, 0.053, 55.0, 173.0, 0.99699, 3.11, 0.6, 9.8], [6.4, 0.22, 0.38, 9.1, 0.044, 35.0, 127.0, 0.99326, 2.97, 0.3, 11.0], [6.6, 0.21, 0.34, 5.6, 0.046, 30.0, 140.0, 0.99299, 3.22, 0.38, 11.0], [8.0, 0.28, 0.42, 7.1, 0.045, 41.0, 169.0, 0.9959, 3.17, 0.43, 10.6], [6.1, 0.26, 0.25, 2.9, 0.047, 289.0, 440.0, 0.99314, 3.44, 0.64, 10.5], [6.5, 0.3, 0.27, 4.0, 0.038, 37.0, 97.0, 0.99026, 3.2, 0.6, 12.6], [7.2, 0.23, 0.38, 14.3, 0.058, 55.0, 194.0, 0.9979, 3.09, 0.44, 9.0], [6.4, 0.32, 0.26, 7.9, 0.05, 53.0, 180.0, 0.99514, 3.14, 0.5, 9.6], [7.4, 0.28, 0.49, 1.5, 0.034, 20.0, 126.0, 0.9918, 2.98, 0.39, 10.6], [7.3, 0.28, 0.36, 12.7, 0.04, 38.0, 140.0, 0.998, 3.3, 0.79, 9.6], [7.3, 0.19, 0.68, 1.5, 0.05, 31.0, 156.0, 0.9946, 3.32, 0.64, 9.4], [6.9, 0.15, 0.29, 2.3, 0.033, 14.0, 82.0, 0.99132, 3.1, 0.58, 11.2], [6.5, 0.115, 0.29, 1.95, 0.038, 73.0, 166.0, 0.989, 3.12, 0.25, 12.9], [6.2, 0.66, 0.48, 1.2, 0.029, 29.0, 75.0, 0.9892, 3.33, 0.39, 12.8], [7.0, 0.27, 0.74, 1.5, 0.036, 27.0, 122.0, 0.9926, 3.35, 0.48, 11.2], [7.4, 0.32, 0.27, 1.4, 0.049, 38.0, 173.0, 0.99335, 3.03, 0.52, 9.3], [6.9, 0.3, 0.25, 3.3, 0.041, 26.0, 124.0, 0.99428, 3.18, 0.5, 9.3], [6.0, 0.17, 0.3, 7.3, 0.039, 39.0, 104.0, 0.99252, 2.91, 